tree
version=v4
num_class=1
num_tree_per_iteration=1
label_index=0
max_feature_idx=28
objective=regression
feature_names=distance_km temperature_2m_max temperature_2m_min apparent_temperature_mean weathercode rain_sum precipitation_hours hour is_weekend month_sin month_cos day_sin day_cos district_encoded keyword_encoded city_encoded temp_range apparent_diff rain_intensity temp_lag_1 temp_lag_7 rain_lag_1 temp_rolling_3 temp_rolling_7 wind_lag_1 wind_lag_7 wind_rolling_3 wind_rolling_7 wind_log
feature_infos=[0.47972228134306388:15509.211184420628] [17.5:37.5] [12.1:29.800000000000001] [17:37.399999999999999] [0:65] [0:338.80000000000001] [0:24] [12:12] [0:1] [-1:1] [-1:1] [-0.99999073973619013:0.99999073973619013] [-0.99996295911626554:1] [0:24] [0:11] [0:29] [0.39999999999999858:16.100000000000001] [-1.3999999999999986:7.2999999999999972] [0:13.552] [16.600000000000001:31.800000000000001] [16.600000000000001:31.800000000000001] [0:338.80000000000001] [17.233333333333334:31.466666666666669] [18.157142857142858:31.185714285714287] [2.2000000000000002:50.200000000000003] [2.2000000000000002:50.200000000000003] [2.8666666666666689:46] [3.5428571428571431:43.957142857142856] [1.1631508098056809:3.9357395320454622]
tree_sizes=2993 3129 3127 3137 3144 3141 3128 3136 3153 3155 3151 3153 3169 3160 3144 3154 3158 3160 3166 3190 3162 3169 3183 3155 3171 3138 3179 3197 3172 3193 3183 3206 3197 3167 3202 3181 3183 3203 3209 3196 3223 3198 3228 3216 3223 3225 3191 3216 3237 3226 3235 3195 3212 3214 3240 3268 3230 3222 3228 3231 3208 3243 3207 3204 3259 3228 3216 3236 3229 3241 3217 3231 3240 3260 3244 3251 3230 3245 3251 3219 3259 3266 3231 3220 3262 3249 3274 3260 3224 3230 3186 3264 3211 3222 3237 3214 3247 3235 3237 3216 3232 3238 3217 3245 3261 3243 3233 3249 3284 3242 3225 3246 3187 3237 3247 3263 3215 3242 3221 3235 3249 3233 3269 3200 3247 3250 3267 3216 3260 3239 3250 3248 3254 3214 3295 3248 3268 3208 3299 3230 3256 3242 3236 3233 3235 3240 3243 3202 3256 3234 3277 3226 3203 3237 3188 3227 3267 3240 3225 3219 3238 3282 3222 3299 3248 3253 3246 3226 3205 3228 3239 3239 3256 3228 3257 3254 3245 3225 3179 3234 3236 3224 3228 3249 3215 3279 3228 3258 3249 3272 3228 3228 3230 3244 3251 3243 3197 3195 3254 3239 3196 3230 3236 3215 3251 3239 3153 3245 3250 3223 3214 3181 3263 3257 3222 3244 3124 3222 3248 3174 3244 3267 3252 3265 3250 3216 3229 3250 3236 3281 3251 3285 3212 3225 3268 3223 3251 3236 3240 3267 3269 3200 3257 3238 3252 3240 3205 3240 3244 3245 3234 3224 3240 3235 3272 3211 3214 3244 3252 3225 3215 3240 3167 3221 3239 3224 3235 3206 3215 3247 3261 3254 3204 3230 3248 3258 3222 3239 3258 3280 3254 3248 3272 3221 3232 3197 3256 3270 3178 3199 3224 3235 3165 3254 3238 3227 3247 3263 3250 3256 3276 3226 3222 3256 3225 3261 3237 3211 3241 3193 3206 3275 3239 3234 3208 3225 3244 3266 3197 3231 3175 3231 3180 3237 3160 3273 3259 3238 3236 3257 3237 3236 3258 3168 3262 3254 3235 3255 3230 3198 3222 3204 3244 3217 3239 3220 3231 3239 3226 3249 3237 3271 3264 3205 3246 3227 3224 3250 3221 3245 3229 3235 3236 3230 3271 3132 3249 3284 3235 3253 3220 3197 3291 3232 3269 3228 3198 3265 3247 3233 3229 3234 3234 3251 3238 3229 3246 3259 3261 3276 3234 3260 3224 3187 3242 3256 3213 3205 3282 3223 3222 3255 3214 3170 3193 3279 3264 3217 3167 3250 3237 3242 3198 3243 3195 3263 3230 3243 3213 3201 3264 3268 3285 3257 3270 3266 3229 3240 3209 3191 3214 3223 3243 3237 3218 3217 3265 3211 3261 3117 3191 3223 3267 3211 3266 3205 3254 3267 3248 3153 3245 3271 3264 3250 3264 3254 3257 3228 3169 3278 3235 3239 3160 3192 3250 3148 3262 3243 3241 3252 3192 3280 3183 3178 3241 3186 3232 3222 3202 3229 3207 3262 3227 3265 3252 3250 3240 3237 3174 3254 3283 3243 3211 3195 3272 3228 3234 3266 3253 3250

Tree=0
num_leaves=31
num_cat=0
split_feature=19 19 3 19 19 3 19 3 19 19 19 19 19 3 3 3 3 1 3 19 19 1 1 3 3 1 2 5 1 17
split_gain=9.30007e+06 2.98119e+06 1.73772e+06 517945 397502 195536 142324 86355.9 82570 78669.6 70145.1 60898.7 52761.9 42104.1 36344 27100.7 24170.3 20328.9 18774.2 18536.7 17713.1 17127.6 16800 16180.8 15174.2 14846.4 13026.2 12240.5 12001 11155.5
threshold=24.850000000000005 27.350000000000005 25.050000000000004 26.150000000000002 28.650000000000002 27.150000000000002 21.150000000000002 25.450000000000003 26.750000000000004 25.550000000000004 23.450000000000003 27.950000000000003 29.450000000000003 29.850000000000005 24.150000000000002 22.450000000000003 26.850000000000005 24.350000000000005 30.250000000000004 22.450000000000003 24.050000000000004 28.050000000000004 28.650000000000002 30.750000000000004 27.050000000000004 26.250000000000004 25.050000000000004 3.1500000000000008 29.550000000000004 2.4000000000000008
decision_type=2 2 2 2 2 2 2 2 2 2 2 2 2 2 2 2 2 2 2 2 2 2 2 2 2 2 2 2 2 2
left_child=2 3 6 9 11 10 15 -5 21 17 25 16 28 20 -11 -1 -3 -2 -19 -8 -7 -9 -10 -16 -13 -4 -23 -26 -6 -12
right_child=1 4 5 7 12 13 19 8 22 14 29 24 -14 -15 23 -17 -18 18 -20 -21 -22 26 -24 -25 27 -27 -28 -29 -30 -31
leaf_value=25.411085286353938 25.493484905470403 25.586465180041657 25.680552868948833 25.507216472466943 26.104345343751557 25.832507333116347 25.579800870787299 26.021917162818347 26.072685738042527 25.455580615739013 25.855436969551441 25.621175687196686 26.403803879282417 26.008385099352044 26.004528761325503 25.491920546754834 26.184613792386859 25.947052777196724 26.003160535334995 25.681843946574467 25.890285055652946 26.068301193121773 26.131778366078898 26.041921892477497 26.260291232082619 25.747491165678294 26.112097777734785 26.206140695821425 26.322869660561206 25.792598002734113
leaf_weight=83690 947 677 70553 2525 2545 77908 60830 69327 54592 1161 47553 385 119740 24890 388490 82220 317570 324732 73053 25167 166370 465744 405243 164818 208338 62473 79503 52204 200851 69599
leaf_count=83690 947 677 70553 2525 2545 77908 60830 69327 54592 1161 47553 385 119740 24890 388490 82220 317570 324732 73053 25167 166370 465744 405243 164818 208338 62473 79503 52204 200851 69599
internal_value=26.0298 26.111 25.7208 26.0438 26.2623 25.8253 25.5053 26.0913 26.0927 25.9901 25.7617 26.2127 26.3511 25.8845 26.0145 25.4511 26.1833 25.9563 25.9574 25.6097 25.8719 26.0687 26.1248 26.0157 26.2485 25.712 26.0747 26.2494 26.3201 25.8181
internal_weight=3.7037e+06 2.93244e+06 771253 2.03014e+06 902310 519346 251907 1.07693e+06 1.07441e+06 953201 250178 579174 323136 269168 554469 165910 318247 398732 397785 85997 244278 614574 459835 553308 260927 133026 545247 260542 203396 117152
internal_count=3703698 2932445 771253 2030135 902310 519346 251907 1076934 1074409 953201 250178 579174 323136 269168 554469 165910 318247 398732 397785 85997 244278 614574 459835 553308 260927 133026 545247 260542 203396 117152
is_linear=0
shrinkage=1


Tree=1
num_leaves=31
num_cat=0
split_feature=23 23 23 23 23 1 23 19 19 2 23 19 23 1 1 1 1 5 1 1 5 23 2 5 2 2 5 19 19 19
split_gain=7.69382e+06 2.46559e+06 1.32914e+06 389907 377889 181418 95939.1 69013.6 63451.1 59892.7 58652.4 48430.8 26342.5 22946 19055.5 18898 18456.4 14842 14734.5 14431.5 13872.3 13773.5 12622.9 12420.3 11983.3 11930.2 11850.2 11808.8 11473.4 11155.3
threshold=24.846428571428579 27.178571428571434 22.207142857142863 26.046428571428574 28.407142857142862 27.350000000000005 20.778571428571432 26.550000000000004 29.250000000000004 21.450000000000003 25.477380952380958 27.750000000000004 24.114285714285717 25.050000000000004 25.050000000000004 28.450000000000003 27.550000000000004 5.5500000000000007 28.250000000000004 25.350000000000005 6.8500000000000005 29.835714285714285 21.450000000000003 2.2500000000000004 23.150000000000002 22.750000000000004 2.0500000000000003 27.050000000000004 20.050000000000004 25.850000000000005
decision_type=2 2 2 2 2 2 2 2 2 2 2 2 2 2 2 2 2 2 2 2 2 2 2 2 2 2 2 2 2 2
left_child=2 3 6 10 11 9 28 20 23 13 14 17 -7 -4 -2 25 22 -3 24 -8 -5 -10 -12 -6 -16 -9 -13 -17 -1 -18
right_child=1 4 5 7 8 12 19 15 21 -11 16 26 -14 -15 18 27 29 -19 -20 -21 -22 -23 -24 -25 -26 -27 -28 -29 -30 -31
leaf_value=-0.56694658876373494 -0.31346555871383153 0.13746943194135469 -0.39123473177982682 0.03383343035823759 0.25730608305632374 -0.1793306319037947 -0.43487350954952969 -0.3133567700627749 0.30928120451113905 -0.19778310799840762 -0.36163657002770117 0.19555236568206269 -0.11533197651420138 -0.28211590443546136 -0.13322369134298737 0.067655284909111588 -0.028153168076873861 0.086842010492860888 -0.054493745474943935 -0.35701903598311602 -7.8744411121760987e-05 0.37457606185870229 -0.058487742363697685 0.19928789470849545 -0.07287320272279646 0.026096140514623386 0.15148160291269888 0.10000209010286183 -0.50856122230464129 0.0033792048532099682
leaf_weight=61239 3303 231520 23022 344319 181641 102486 67182 1053 113169 96787 1396 197452 172683 118283 55261 334584 233487 77219 195718 36879 185671 45213 85438 46304 81315 61766 88298 170309 74730 215971
leaf_count=61239 3303 231520 23022 344319 181641 102486 67182 1053 113169 96787 1396 197452 172683 118283 55261 334584 233487 77219 195718 36879 185671 45213 85438 46304 81315 61766 88298 170309 74730 215971
internal_value=-6.68375e-05 0.0727604 -0.285308 0.00825062 0.202303 -0.19447 -0.479549 0.0479041 0.279302 -0.258385 -0.0416728 0.152266 -0.139168 -0.299894 -0.07446 0.0721308 -0.0211555 0.124807 -0.0720843 -0.407282 0.021953 0.327921 -0.0633614 0.24552 -0.097292 0.0204061 0.181934 0.0785664 -0.534857 -0.0130014
internal_weight=3.7037e+06 2.95041e+06 753291 1.96959e+06 980816 513261 240030 1.0977e+06 386327 238092 871889 594489 275169 141305 335597 567712 536292 308739 332294 104061 529990 158382 86834 227945 136576 62819 285750 504893 135969 449458
internal_count=3703698 2950407 753291 1969591 980816 513261 240030 1097702 386327 238092 871889 594489 275169 141305 335597 567712 536292 308739 332294 104061 529990 158382 86834 227945 136576 62819 285750 504893 135969 449458
is_linear=0
shrinkage=0.1


Tree=2
num_leaves=31
num_cat=0
split_feature=22 22 3 22 22 22 3 22 22 22 22 22 22 22 22 3 22 22 22 22 17 22 22 22 3 3 3 3 22 22
split_gain=6.44818e+06 2.02998e+06 1.14758e+06 362405 280306 172592 81274.1 54182.1 51264.5 41584.7 39129 26236.1 18047 16645 13757.7 9100.02 8380.09 7991.51 7856.77 7180.14 7138.6 6943.19 6795.73 6744.92 5627.94 5546.53 5455.5 3423.53 3360.26 3346.39
threshold=24.916666666666675 27.31666666666667 24.850000000000005 26.150000000000006 28.616666666666671 23.716666666666672 23.250000000000004 26.716666666666672 25.583333333333339 29.550000000000004 28.016666666666669 22.866666666666671 21.583333333333339 24.416666666666675 19.950000000000006 29.350000000000005 26.416666666666675 25.250000000000004 29.016666666666669 27.683333333333341 1.3500000000000016 30.083333333333339 26.983333333333338 25.88333333333334 30.850000000000005 28.650000000000002 26.250000000000004 24.450000000000003 28.31666666666667 20.350000000000005
decision_type=2 2 2 2 2 2 2 2 2 2 2 2 2 2 2 2 2 2 2 2 2 2 2 2 2 2 2 2 2 2
left_child=2 3 6 8 10 11 14 16 17 18 19 26 -8 15 -1 -7 -5 27 -6 -3 -14 -11 -9 -10 -15 -13 -4 -2 -12 -16
right_child=1 4 5 7 9 13 12 22 23 21 28 25 20 24 29 -17 -18 -19 -20 -21 -22 -23 -24 -25 -26 -27 -28 -29 -30 -31
leaf_value=-0.52441460600602674 -0.27298808801965896 0.11922791232615351 -0.2998608596342715 0.020586952530535056 0.22592964071981034 -0.15743303831569991 -0.4021010829111864 0.066071701304767402 -0.023962053939335124 0.30552247770459373 0.17312760036579666 -0.21731789964190457 -0.21036970998198168 -0.10933656952224979 -0.47948326255412754 -0.046195040208750614 0.044286225452324558 -0.04823415317660127 0.26292412026008766 0.14769411602786311 -0.33138317750322849 0.36452653233122517 0.090234229973161717 -0.0017602659328744335 0.068485840508357959 -0.066910236131017972 -0.24133583653276355 -0.076099040144360031 0.19781424859139551 -0.44185092269772475
leaf_weight=49665 888 209636 66279 293792 113723 151660 54761 233152 273525 64820 118919 122150 5594 176040 44401 7729 303169 231342 115929 153481 37909 28806 232447 273820 1798 2502 20966 161482 102803 50510
leaf_count=49665 888 209636 66279 293792 113723 151660 54761 233152 273525 64820 118919 122150 5594 176040 44401 7729 303169 231342 115929 153481 37909 28806 232447 273820 1798 2502 20966 161482 102803 50510
internal_value=-6.01527e-05 0.068754 -0.253062 0.0125414 0.192778 -0.173012 -0.434077 0.0525654 -0.0326504 0.267505 0.151472 -0.243737 -0.363904 -0.128572 -0.481771 -0.152039 0.0326227 -0.0601699 0.244605 0.13126 -0.315822 0.323676 0.0781347 -0.0128552 -0.107539 -0.214299 -0.285797 -0.0771758 0.184574 -0.459456
internal_weight=3.7037e+06 2.91173e+06 791964 2.00362e+06 908117 549124 242840 1.06256e+06 941057 323278 584839 211897 98264 337227 144576 159389 596961 393712 229652 363117 43503 93626 465599 547345 177838 124652 87245 162370 221722 94911
internal_count=3703698 2911734 791964 2003617 908117 549124 242840 1062560 941057 323278 584839 211897 98264 337227 144576 159389 596961 393712 229652 363117 43503 93626 465599 547345 177838 124652 87245 162370 221722 94911
is_linear=0
shrinkage=0.1


Tree=3
num_leaves=31
num_cat=0
split_feature=22 22 3 22 22 22 22 22 22 22 22 22 1 3 3 17 22 22 3 3 22 22 5 22 3 19 2 5 22 5
split_gain=5.22378e+06 1.6816e+06 887178 281788 257588 143534 52176 42168.7 42093.3 41181.7 31271.2 18987.1 18393.4 9195.74 8844.36 8579.58 8323.82 8173.14 7133.95 6968.64 6522.63 6449.25 5846.07 5841.13 5295.16 5082.71 4870.9 4778.2 4240.27 4088.9
threshold=24.841666666666672 27.216666666666672 24.650000000000002 26.083333333333339 28.483333333333338 23.516666666666669 20.683333333333341 26.616666666666671 29.366666666666671 25.416666666666675 27.81666666666667 24.183333333333341 26.250000000000004 23.550000000000004 21.450000000000003 2.0500000000000012 30.016666666666669 25.783333333333339 30.350000000000005 28.850000000000005 22.350000000000001 28.916666666666675 6.2500000000000009 26.350000000000001 30.650000000000002 26.050000000000004 22.350000000000005 3.4500000000000006 26.916666666666675 3.5500000000000003
decision_type=2 2 2 2 2 2 2 2 2 2 2 2 2 2 2 2 2 2 2 2 2 2 2 2 2 2 2 2 2 2
left_child=2 3 6 9 10 12 14 23 21 24 27 19 20 -8 -1 -15 -10 -11 -13 -7 -4 -6 28 -5 25 29 -14 -3 -9 -2
right_child=1 4 5 7 8 11 13 22 16 17 -12 18 26 15 -16 -17 -18 -19 -20 -21 -22 -23 -24 -25 -26 -27 -28 -29 -30 -31
leaf_value=-0.48817565613610814 -0.054839038712593352 0.11575578677342493 -0.29629106893646723 0.013451124716911704 0.19479479841583794 -0.15989290536958925 -0.37991337989663676 0.059411024038856744 0.26587721930327407 -0.030398642143487076 0.15370366614485778 -0.10851501463491586 -0.20455171088891452 -0.24371107133859127 -0.42550525197931716 -0.33768238091997482 0.32395355385680502 -0.0071620168362719954 0.019343234491731476 -0.066541467069222884 -0.24266511021292675 0.22748587410334076 0.042968645906734264 0.033716338797161093 -0.0042927302087112694 -0.20658987239454515 -0.040732602747969991 0.089887139108007663 0.080353677588359929 -0.079118286777824023
leaf_weight=29056 149258 235895 37574 286793 128320 125029 40898 209278 89573 305785 266990 208863 90880 12245 100086 47037 34064 299759 4457 8543 57226 113921 109929 282169 13946 2600 1852 102398 179687 129587
leaf_count=29056 149258 235895 37574 286793 128320 125029 40898 209278 89573 305785 266990 208863 90880 12245 100086 47037 34064 299759 4457 8543 57226 113921 109929 282169 13946 2600 1852 102398 179687 129587
internal_value=-5.4138e-05 0.060477 -0.233062 0.00735966 0.168159 -0.162461 -0.397594 0.0421094 0.234401 -0.0338284 0.128118 -0.124356 -0.232945 -0.343437 -0.439606 -0.318272 0.281878 -0.0188959 -0.105844 -0.153922 -0.26392 0.210169 0.063331 0.0235014 -0.0644396 -0.0674199 -0.20128 0.107926 0.0690857 -0.0661223
internal_weight=3.7037e+06 2.93995e+06 763746 1.96879e+06 971161 534424 229322 1.06786e+06 365878 900935 605283 346892 187532 100180 129142 59282 123637 605544 213320 133572 94800 242241 498894 568962 295391 281445 92732 338293 388965 278845
internal_count=3703698 2939952 763746 1968791 971161 534424 229322 1067856 365878 900935 605283 346892 187532 100180 129142 59282 123637 605544 213320 133572 94800 242241 498894 568962 295391 281445 92732 338293 388965 278845
is_linear=0
shrinkage=0.1


Tree=4
num_leaves=31
num_cat=0
split_feature=22 22 3 22 22 22 3 22 22 22 22 3 22 22 22 22 3 3 3 18 3 5 3 5 22 6 22 3 19 5
split_gain=4.23463e+06 1.40219e+06 667652 239002 218097 101760 42631.1 37190.2 36129.8 35012.3 25981.3 14601.8 14100 10673.2 8804.25 8333.82 8282.22 6375.11 6042.22 5780.06 5488.05 5202.48 5164.19 5024.14 4315.21 4133.92 4100.82 4085.74 4337.52 3827.26
threshold=24.750000000000004 27.183333333333341 24.650000000000002 26.050000000000004 28.450000000000006 23.450000000000006 23.050000000000004 25.416666666666675 29.283333333333339 26.583333333333339 27.750000000000004 28.450000000000003 22.650000000000006 21.450000000000006 24.050000000000004 29.866666666666671 21.750000000000004 30.350000000000005 31.150000000000002 0.62828571428571445 23.850000000000005 4.9500000000000011 30.950000000000003 3.6500000000000008 28.866666666666671 4.5000000000000009 25.116666666666671 28.950000000000003 26.650000000000002 5.8500000000000005
decision_type=2 2 2 2 2 2 2 2 2 2 2 2 2 2 2 2 2 2 2 2 2 2 2 2 2 2 2 2 2 2
left_child=2 3 6 7 10 12 16 20 24 21 29 14 -4 -8 -7 -10 -1 -13 19 27 -2 -5 26 -11 -6 -12 -22 28 -9 -3
right_child=1 4 5 9 8 11 13 18 15 23 25 17 -14 -15 -16 -17 -18 -19 -20 -21 22 -23 -24 -25 -26 -27 -28 -29 -30 -31
leaf_value=-0.42935591721661731 -0.32964925585986138 0.098701786252763213 -0.24753863103794368 0.026389418113676184 0.17298544798770271 -0.15276268686080893 -0.33566025082552597 -0.026566082764096739 0.23178359786029568 0.062482934419147762 0.14447686233797549 -0.088265623732539211 -0.18973574985423738 -0.26861230466912539 -0.11378441723946904 0.28280232329933741 -0.37676136098522273 0.031345937130300837 0.011922177868178969 -0.038947201296676899 -0.073117834672470169 0.0067928050215983159 0.028347330692907804 0.041990950175751482 0.20034496495254134 0.11992276554605463 -0.050703052712318869 -0.0065252563899029954 -0.22624577468832152 0.07041358527736212
leaf_weight=46433 755 270245 69285 349677 130469 100877 58107 146510 96735 320267 174996 76912 107954 40146 136176 47857 84298 4730 59242 142061 157374 221149 6526 190997 103285 112741 169564 219122 1096 58112
leaf_count=46433 755 270245 69285 349677 130469 100877 58107 146510 96735 320267 174996 76912 107954 40146 136176 47857 84298 4730 59242 142061 157374 221149 6526 190997 103285 112741 169564 219122 1096 58112
internal_value=-4.8724e-05 0.0527004 -0.216801 0.00413066 0.149618 -0.15159 -0.358036 -0.0338761 0.209379 0.0358208 0.112919 -0.11781 -0.212332 -0.308265 -0.130371 0.24867 -0.395442 -0.0813358 -0.0183028 -0.0218221 -0.0603441 0.0187973 -0.0597344 0.0548276 0.185074 0.134856 -0.0614926 -0.0151883 -0.0280487 0.0936954
internal_weight=3.7037e+06 2.97878e+06 724918 1.98434e+06 994440 495934 228984 902250 378346 1.08209e+06 616094 318695 177239 98253 237053 144592 130731 81642 568031 508789 334219 570826 333464 511264 233754 287737 326938 366728 147606 328357
internal_count=3703698 2978780 724918 1984340 994440 495934 228984 902250 378346 1082090 616094 318695 177239 98253 237053 144592 130731 81642 568031 508789 334219 570826 333464 511264 233754 287737 326938 366728 147606 328357
is_linear=0
shrinkage=0.1


Tree=5
num_leaves=31
num_cat=0
split_feature=19 19 3 19 19 1 3 3 3 3 19 1 3 18 1 3 3 19 5 19 5 17 18 3 17 3 26 3 17 3
split_gain=3.23846e+06 1.09562e+06 542463 192318 157919 64148.9 55275.8 39799.7 35300.8 29192.1 25174.9 21179.7 20036.1 19805.7 17811.3 17150 16433.2 13638.1 12685.5 11620.1 11593.6 10711.3 9268.76 8919.95 8541.33 7891.82 7494.39 7068.47 6628.29 6701.34
threshold=24.650000000000002 27.250000000000004 25.150000000000002 25.950000000000003 28.450000000000003 27.450000000000003 23.350000000000005 25.450000000000003 31.750000000000004 29.650000000000002 29.650000000000002 29.550000000000004 30.350000000000005 0.37550000000000006 24.550000000000004 27.150000000000002 26.550000000000004 26.550000000000004 2.9500000000000006 27.850000000000005 2.0500000000000003 2.4999999999999987 0.35954545454545467 22.050000000000004 3.0500000000000012 30.050000000000004 11.900000000000006 27.650000000000002 4.6999999999999984 32.650000000000013
decision_type=2 2 2 2 2 2 2 2 2 2 2 2 2 2 2 2 2 2 2 2 2 2 2 2 2 2 2 2 2 2
left_child=2 3 6 9 11 16 23 -5 13 14 20 15 -7 17 -2 -3 24 -9 -16 -13 27 -8 -11 -1 -4 -15 -18 -6 -10 -30
right_child=1 4 5 7 10 12 21 8 28 22 -12 19 -14 25 18 -17 26 -19 -20 -21 -22 -23 -24 -25 -26 -27 -28 -29 29 -31
leaf_value=-0.37818312145855115 -0.31467293661009965 -0.31507638730018966 -0.16363543588684587 -0.3404029470674963 -0.33088922526810194 -0.092883957599930567 -0.21503549244684139 0.016952553440548308 0.12514045596617565 0.0097414337388632283 0.22982486064288837 0.093631386428019353 0.054190343981261803 -0.029370425665329575 -0.034725276220384231 0.062316436383093289 -0.16090831544125006 0.046566070496698898 -0.067906895373577483 0.12498770728801629 0.12671015708607178 -0.27965575282447858 -0.024085450213121914 -0.32844493834238808 -0.21715317889381058 0.0085155793556014724 -0.1091751467136592 0.17823076739925106 0.049080942145071214 0.088389036764236317
leaf_weight=62554 2524 1219 64429 2913 273 195266 40454 334565 15298 127773 85975 251737 9724 71156 281124 98798 56223 290591 195227 222769 54430 70100 221291 85120 55519 241886 55789 247989 204774 55025
leaf_count=62554 2524 1219 64429 2913 273 195266 40454 334565 15298 127773 85975 251737 9724 71156 281124 98798 56223 290591 195227 222769 54430 70100 221291 85120 55519 241886 55789 247989 204774 55025
internal_value=-5.42139e-05 0.0449111 -0.194574 0.00347893 0.132841 -0.126666 -0.309482 0.0287864 0.0296728 -0.0336967 0.182071 0.0995374 -0.0859073 0.0204363 -0.0497282 0.0577168 -0.162685 0.0307178 -0.0483244 0.108352 0.168507 -0.25601 -0.0117033 -0.349514 -0.188407 -9.60976e-05 -0.135142 0.177671 0.061173 0.0574063
internal_weight=3.70252e+06 3.00734e+06 695178 2.04415e+06 963190 436950 258228 1.21621e+06 1.2133e+06 827939 388667 574523 204990 938198 478875 100017 231960 625156 476351 474506 302692 110554 349064 147674 119948 313042 112012 248262 275097 259799
internal_count=3702515 3007337 695178 2044147 963190 436950 258228 1216208 1213295 827939 388667 574523 204990 938198 478875 100017 231960 625156 476351 474506 302692 110554 349064 147674 119948 313042 112012 248262 275097 259799
is_linear=0
shrinkage=0.1


Tree=6
num_leaves=31
num_cat=0
split_feature=22 22 22 22 22 22 22 22 22 22 22 1 3 3 22 3 3 5 2 1 1 3 2 5 22 3 1 2 2 5
split_gain=2.80162e+06 846937 547265 156133 108116 67135.7 48752.2 23173.2 22826.2 17512.1 15891.4 11428.3 11242.8 8499.39 7012.66 6916.32 6261.46 5999.51 5112.31 4660.94 4293.03 3984.6 3895.99 3882.82 3628.57 3536.9 3468.11 4956.52 3443.86 3410.8
threshold=25.050000000000004 27.416666666666675 22.450000000000006 26.241666666666671 28.750000000000004 23.916666666666675 20.816666666666674 25.683333333333341 26.81666666666667 28.083333333333339 29.650000000000006 26.550000000000004 23.750000000000004 29.350000000000005 19.750000000000004 24.250000000000004 23.550000000000004 7.0500000000000007 22.550000000000004 25.950000000000003 27.250000000000004 27.550000000000004 24.550000000000004 4.2500000000000009 30.416666666666675 31.050000000000004 28.950000000000003 23.350000000000005 22.650000000000002 0.8500000000000002
decision_type=2 2 2 2 2 2 2 2 2 2 2 2 2 2 2 2 2 2 2 2 2 2 2 2 2 2 2 2 2 2
left_child=2 3 6 7 9 11 14 19 23 -3 29 16 -7 17 -1 -8 -4 21 -13 -2 -9 -14 -22 -5 -12 -15 27 -21 -19 -6
right_child=1 4 5 8 10 12 15 20 -10 -11 24 18 13 25 -16 -17 -18 28 -20 26 22 -23 -24 -25 -26 -27 -28 -29 -30 -31
leaf_value=-0.36348402594356261 -0.11493569896481495 0.090943688272079271 -0.32180524110458353 0.033138628733843961 0.17472362351510279 -0.28629702087570585 -0.2596560096779047 -0.037561594989590788 0.056992450628307184 0.12675602665155794 0.2104022443696747 -0.13286586549415969 -0.089366102667673461 -0.048177061442505241 -0.30767068448811513 -0.21214290283387977 -0.17097077261643676 -0.12448735412380346 -0.010945657586068908 -0.05882004419798649 -0.0049251489532229561 -0.062215286441489742 0.017113066463000353 0.016318855670677115 0.2695392658732389 0.061845307032114327 -0.020958270036448221 -0.029630528288886206 -0.085158050777513594 0.14591335042844067
leaf_weight=28156 7002 328372 2839 356097 150282 2599 54435 33943 433665 233737 66407 124467 103587 54312 112295 70079 89981 47344 3537 89463 438076 113037 98198 223322 12297 3088 156984 166327 42030 56557
leaf_count=28156 7002 328372 2839 356097 150282 2599 54435 33943 433665 233737 66407 124467 103587 54312 112295 70079 89981 47344 3537 89463 438076 113037 98198 223322 12297 3088 156984 166327 42030 56557
internal_value=-4.87925e-05 0.0475004 -0.159185 0.012043 0.13129 -0.105324 -0.278472 -0.0161997 0.0396419 0.105835 0.181398 -0.148869 -0.079051 -0.0775688 -0.31886 -0.232915 -0.175584 -0.0841924 -0.129497 -0.0340312 -0.00307264 -0.0751985 -0.000889696 0.0266559 0.219642 -0.0422581 -0.0326588 -0.0398396 -0.105992 0.166846
internal_weight=3.70252e+06 2.85073e+06 851786 2.00308e+06 847652 586821 264965 989993 1.01308e+06 562109 285543 220824 365997 363398 140451 124514 92820 305998 128004 419776 570217 216624 536274 579419 78704 57400 412774 255790 89374 206839
internal_count=3702515 2850729 851786 2003077 847652 586821 264965 989993 1013084 562109 285543 220824 365997 363398 140451 124514 92820 305998 128004 419776 570217 216624 536274 579419 78704 57400 412774 255790 89374 206839
is_linear=0
shrinkage=0.1


Tree=7
num_leaves=31
num_cat=0
split_feature=22 22 22 22 22 22 22 22 22 22 22 1 2 1 2 2 22 22 1 2 22 5 22 2 1 1 2 5 1 2
split_gain=2.27027e+06 702435 423475 125398 96152 62355.9 26616.3 20078.8 17199.6 15019.2 14166.9 11131.6 11798.2 8823.33 6363.24 6303.67 4273.98 4261.58 4187.99 4316.27 4098.41 3982.13 3848.11 3515.82 3633.67 3432.94 3380.56 3294.79 3111.6 3085.62
threshold=24.983333333333338 27.350000000000001 22.116666666666671 26.216666666666672 28.650000000000006 23.716666666666672 20.550000000000004 25.650000000000006 26.750000000000004 29.416666666666675 28.016666666666669 27.750000000000004 19.350000000000005 25.850000000000005 22.750000000000004 22.650000000000002 19.416666666666671 30.283333333333339 26.350000000000005 22.050000000000004 23.050000000000004 10.450000000000001 21.31666666666667 25.550000000000004 28.850000000000005 28.350000000000005 18.950000000000003 2.5500000000000003 29.050000000000004 24.850000000000005
decision_type=2 2 2 2 2 2 2 2 2 2 2 2 2 2 2 2 2 2 2 2 2 2 2 2 2 2 2 2 2 2
left_child=2 3 6 7 10 13 16 18 25 -6 27 12 -7 26 28 -14 -1 -11 19 -2 -15 -9 -8 24 -10 -5 -4 -3 -13 -27
right_child=1 4 5 8 9 11 22 21 23 17 -12 14 15 20 -16 -17 -18 -19 -20 -21 -22 -23 -24 -25 -26 29 -28 -29 -30 -31
leaf_value=-0.3552710617417475 -0.27202266028114502 0.085794392232747749 -0.26220222452046982 0.0044798763535752991 0.1432370577894207 -0.27830182364365491 -0.24415603202469627 0.00040743521781930647 0.018289101876116209 0.18046296875297346 0.11047622910085986 -0.078535445682761051 -0.11105611850666397 -0.15205560432732104 -0.023333067456898116 -0.069465501996231679 -0.28775563562671885 0.23390028002960697 -0.031068178005885922 -0.068444325381531612 -0.11885632783189047 -0.019197668640443751 -0.20789071093357797 0.067054388961988357 0.047709175409100857 0.021030105776118399 -0.17095070258355957 0.065419056693819005 -0.05068284802167005 0.041197549015004123
leaf_weight=10268 1115 221419 4396 95656 196635 3521 59602 432348 48150 99541 231279 125567 84373 61758 35365 64149 107954 17556 403617 15792 93450 136255 57474 79774 327701 355636 53090 123701 58936 96437
leaf_count=10268 1115 221419 4396 95656 196635 3521 59602 432348 48150 99541 231279 125567 84373 61758 35365 64149 107954 17556 403617 15792 93450 136255 57474 79774 327701 355636 53090 123701 58936 96437
internal_value=-4.39132e-05 0.0417178 -0.14687 0.00872343 0.115573 -0.101275 -0.26015 -0.0165433 0.0336319 0.160121 0.0913252 -0.0765771 -0.0973815 -0.144462 -0.0621904 -0.0930925 -0.29362 0.188475 -0.0331106 -0.0818701 -0.132066 -0.00429056 -0.226353 0.0479872 0.0439402 0.0216906 -0.177929 0.0784913 -0.0696385 0.0253323
internal_weight=3.70252e+06 2.88261e+06 819903 1.99248e+06 890131 584605 235298 989127 1.00335e+06 313732 576399 371911 152043 212694 219868 148522 118222 117097 420524 16907 155208 568603 117076 455625 375851 547729 57486 345120 184503 452073
internal_count=3702515 2882612 819903 1992481 890131 584605 235298 989127 1003354 313732 576399 371911 152043 212694 219868 148522 118222 117097 420524 16907 155208 568603 117076 455625 375851 547729 57486 345120 184503 452073
is_linear=0
shrinkage=0.1


Tree=8
num_leaves=31
num_cat=0
split_feature=23 23 1 23 23 23 23 1 23 1 5 23 23 1 16 5 23 15 5 1 1 5 1 1 5 5 16 1 18 5
split_gain=1.7758e+06 604261 265027 102430 95765.6 30954.7 29812.7 20823.6 19934.7 16720.2 14182.8 11578.2 10876 9635.46 8869.78 6750.16 6044.66 5535.57 5408.19 5385.44 5314.94 5110.79 5049.81 4364.21 4272.42 4020.06 3697.93 3300.05 3239.32 2873.65
threshold=24.635714285714293 27.064285714285717 25.550000000000004 28.26428571428572 25.892857142857149 23.335714285714285 20.964285714285719 28.350000000000005 29.150000000000002 26.450000000000003 2.3500000000000001 26.450000000000006 25.335714285714285 28.550000000000004 4.1499999999999995 1.6500000000000001 27.657142857142862 8.5000000000000018 1.2500000000000002 23.050000000000004 28.950000000000003 4.1500000000000012 27.150000000000002 27.150000000000002 3.4500000000000006 3.4500000000000006 4.3000000000000034 34.45000000000001 0.32554347826086966 9.6500000000000004
decision_type=2 2 2 2 2 2 2 2 2 2 2 2 2 2 2 2 2 2 2 2 2 2 2 2 2 2 2 2 2 2
left_child=2 4 6 10 9 23 19 22 15 14 16 28 21 -7 -2 -5 -3 -8 27 -1 -12 -11 26 -4 -14 -13 -6 -10 -9 -22
right_child=1 3 5 8 7 13 17 11 18 12 20 25 24 -15 -16 -17 -18 -19 -20 -21 29 -23 -24 -25 -26 -27 -28 -29 -30 -31
leaf_value=-0.28282645105055043 -0.07370117570381389 0.067769935382968383 -0.14607744078845072 0.12296920019226075 -0.038134572627397209 -0.089465121937279665 -0.20732750547293702 0.019843180316023633 0.15779066697255575 -0.028433128305644362 0.016562449557027674 0.042219757127743597 -0.0047203426944909723 -0.047767947909243103 -0.23265780221930679 0.087277875171138553 0.093460453336988936 -0.16269762341023722 0.11993021393406421 -0.24223964302646836 0.061474370261698025 -0.055571015761980036 -0.0024417832497785029 -0.10535322457345529 -0.024225200654766195 0.023644104071219918 -0.2208247801879557 0.19543626116358026 0.0023036628455058174 0.033109572524262026
leaf_weight=48782 39063 195186 103203 200993 31774 195641 61907 260648 105677 182858 41738 304322 235517 77322 3857 71961 172549 50431 31237 99123 170811 111841 214477 35321 214658 188774 1148 29867 176669 45160
leaf_count=48782 39063 195186 103203 200993 31774 195641 61907 260648 105677 182858 41738 304322 235517 77322 3857 71961 172549 50431 31237 99123 170811 111841 214477 35321 214658 188774 1148 29867 176669 45160
internal_value=-3.9522e-05 0.0325643 -0.147145 0.09322 -0.000305547 -0.0971923 -0.226129 0.0177464 0.130203 -0.0272946 0.0672183 0.0246029 -0.0237976 -0.0776536 -0.0879858 0.11356 0.0798245 -0.187292 0.157441 -0.255626 0.04923 -0.0387322 -0.00803924 -0.135694 -0.0140209 0.0351084 -0.044505 0.166086 0.0127575 0.0555432
internal_weight=3.70252e+06 3.03078e+06 671730 1.06518e+06 1.96561e+06 411487 260243 1.17781e+06 439735 787794 625444 930413 744874 272963 42920 272954 367735 112338 166781 147905 257709 294699 247399 138524 450175 493096 32922 135544 437317 215971
internal_count=3702515 3030785 671730 1065179 1965606 411487 260243 1177812 439735 787794 625444 930413 744874 272963 42920 272954 367735 112338 166781 147905 257709 294699 247399 138524 450175 493096 32922 135544 437317 215971
is_linear=0
shrinkage=0.1


Tree=9
num_leaves=31
num_cat=0
split_feature=3 2 3 3 2 17 18 2 16 6 3 3 16 3 3 2 17 17 3 3 3 17 17 2 17 17 3 16 16 3
split_gain=1.41729e+06 459042 220018 129466 52962.4 49301.1 39783.7 36148.8 26624.5 25665.2 17173.2 16369.8 16140.6 12130.7 10912.9 10901.7 9557.73 9096.15 7683.03 7587.38 7476.49 7361.62 7137.75 6592.92 5874.58 4922.43 4875.36 4493.31 4339.35 4157.81
threshold=27.350000000000005 25.250000000000004 24.350000000000005 31.150000000000002 26.150000000000002 2.2500000000000004 0.2129166666666667 23.350000000000005 5.3000000000000034 3.5000000000000004 25.950000000000003 28.850000000000005 4.7500000000000009 22.750000000000004 32.45000000000001 27.450000000000003 3.3500000000000019 2.7000000000000015 32.750000000000007 26.050000000000004 28.950000000000003 3.699999999999998 3.2500000000000004 24.450000000000003 4.3500000000000023 1.7500000000000002 29.950000000000003 7.1000000000000005 3.7000000000000015 29.750000000000004
decision_type=2 2 2 2 2 2 2 2 2 2 2 2 2 2 2 2 2 2 2 2 2 2 2 2 2 2 2 2 2 2
left_child=2 3 13 6 8 19 11 20 28 18 -7 17 15 -1 -11 -6 29 -2 24 -4 21 -8 -12 -9 -5 -15 -18 -14 -3 -13
right_child=1 4 5 9 12 10 7 23 -10 14 22 16 27 25 -16 -17 26 -19 -20 -21 -22 -23 -24 -25 -26 -27 -28 -29 -30 -31
leaf_value=-0.24162943982746166 0.0019124149570974849 0.039751777433803023 -0.078332922633758059 0.085033314920044456 0.08730413395929798 -0.15092290566318398 -0.046091577309572807 -0.018965451994140514 0.10288733762051459 0.019364874618423705 -0.083590339533421765 0.026269424774445889 0.13062834222683534 -0.13207610359133345 0.054436793835440159 0.13370243932089537 -0.013473281943363863 -0.040720233950657936 0.10218556100172933 -0.029967776361872346 -0.036777395165502276 -0.087215329579284961 -0.12406999498414138 0.0037551021327779203 0.04262218109005235 -0.20156845656865721 0.016650036892595584 0.16824754919792009 0.062772718838668265 0.061742235407357439
leaf_weight=109702 120160 166989 49197 50707 179383 102527 86932 349573 141954 394669 109221 85236 109344 11477 114447 70558 77628 85769 53420 95206 160785 87188 72458 201234 91766 91117 174511 44742 160654 53961
leaf_count=109702 120160 166989 49197 50707 179383 102527 86932 349573 141954 394669 109221 85236 109344 11477 114447 70558 77628 85769 53420 95206 160785 87188 72458 201234 91766 91117 174511 44742 160654 53961
internal_value=-3.55697e-05 0.028272 -0.135261 0.00380442 0.089551 -0.0940256 -0.0129676 -0.0264176 0.0667127 0.0390841 -0.118201 0.00697805 0.116096 -0.218513 0.0272489 0.100402 0.0189875 -0.015844 0.0698433 -0.0464454 -0.0523259 -0.0666837 -0.0997346 -0.0106646 0.0577166 -0.193794 0.00737574 0.141552 0.0510397 0.0400208
internal_weight=3.70252e+06 3.06161e+06 640905 2.18799e+06 873624 428609 1.48298e+06 885712 469597 705009 284206 597265 404027 212296 509116 249941 391336 205929 195893 144403 334905 174120 181679 550807 142473 102594 252139 154086 327643 139197
internal_count=3702515 3061610 640905 2187986 873624 428609 1482977 885712 469597 705009 284206 597265 404027 212296 509116 249941 391336 205929 195893 144403 334905 174120 181679 550807 142473 102594 252139 154086 327643 139197
is_linear=0
shrinkage=0.1


Tree=10
num_leaves=31
num_cat=0
split_feature=22 22 22 22 22 22 22 22 22 22 22 2 1 1 22 2 1 1 1 2 1 1 2 19 2 1 2 1 2 1
split_gain=1.22269e+06 357508 253253 65455.8 48069.7 29813.4 23667.1 9676.52 9191.47 8318.99 6578.88 5806.43 8359.44 5449.19 4908.8 4462.08 3883.35 3564.96 3495.85 3490.12 3128.5 2765.28 3991.47 3744.74 2711.9 3474.99 2425.1 2580.13 2374.85 2324.01
threshold=25.150000000000006 27.450000000000006 22.550000000000004 26.31666666666667 28.866666666666671 23.983333333333338 20.916666666666675 25.783333333333339 28.216666666666672 26.866666666666671 29.783333333333339 22.950000000000003 26.750000000000004 26.950000000000003 19.950000000000006 20.250000000000004 23.850000000000005 28.550000000000004 24.850000000000005 22.750000000000004 29.550000000000004 28.750000000000004 23.650000000000002 26.150000000000002 24.850000000000005 27.950000000000003 25.450000000000003 28.150000000000002 23.250000000000004 29.350000000000005
decision_type=2 2 2 2 2 2 2 2 2 2 2 2 2 2 2 2 2 2 2 2 2 2 2 2 2 2 2 2 2 2
left_child=2 3 6 7 8 13 14 21 29 26 -6 12 15 16 -1 -7 -4 -13 -8 -15 -14 22 23 -2 25 -9 27 -5 -23 -3
right_child=1 4 5 9 10 11 18 24 -10 -11 -12 17 20 19 -16 -17 -18 -19 -20 -21 -22 28 -24 -25 -26 -27 -28 -29 -30 -31
leaf_value=-0.23394086533595113 -0.038527554238438677 0.036134769450914726 -0.20154265019252243 -0.0057096907575549596 0.11531767049154351 -0.22567648478653482 -0.17052248884056967 -0.021566539659226905 0.088216531560792108 0.039336445803100473 0.15335379849379832 -0.037768168053557503 -0.056100316249718223 -0.08190067857082664 -0.19553728815543597 -0.095832563755609904 -0.10652027742954623 0.012294035363721603 -0.13607648943232595 0.031292141600108757 -0.025292856770740564 -0.017350758396332332 -0.016188796501099275 -0.15579269749096658 0.021844640107357309 0.0018502031470531135 0.043477415599028034 0.020556435112114736 0.0059828346235715176 0.064671832044339753
leaf_weight=49979 93411 31210 4468 40577 187717 2976 47913 74476 217179 394182 60011 85255 233834 102956 99638 23914 114968 17073 76512 2798 38372 144481 160558 2805 54534 425067 42021 477367 62482 333299
leaf_count=49979 93411 31210 4468 40577 187717 2976 47913 74476 217179 394182 60011 85255 233834 102956 99638 23914 114968 17073 76512 2798 38372 144481 160558 2805 54534 425067 42021 477367 62482 333299
internal_value=-2.74089e-05 0.0325586 -0.101382 0.00939032 0.0876419 -0.0663145 -0.181566 -0.00824967 0.0719313 0.0282074 0.124532 -0.0499773 -0.057012 -0.0954373 -0.208366 -0.110203 -0.110075 -0.0294155 -0.149341 -0.0789059 -0.0517575 -0.0189076 -0.0258404 -0.0419462 0.000670568 -0.00164096 0.0203731 0.0184987 -0.0103064 0.0622284
internal_weight=3.70203e+06 2.80138e+06 900656 1.97196e+06 829416 626614 274042 1.01781e+06 581688 954147 247728 401424 299096 225190 149617 26890 119436 102328 124425 105754 272206 463737 256774 96216 554077 499543 559965 517944 206963 364509
internal_count=3702033 2801377 900656 1971961 829416 626614 274042 1017814 581688 954147 247728 401424 299096 225190 149617 26890 119436 102328 124425 105754 272206 463737 256774 96216 554077 499543 559965 517944 206963 364509
is_linear=0
shrinkage=0.1


Tree=11
num_leaves=31
num_cat=0
split_feature=22 22 3 22 22 3 22 22 3 22 18 1 22 28 3 1 18 18 3 22 1 27 16 3 19 18 3 3 18 18
split_gain=990517 286652 219017 54952.3 35890.2 24019.9 22159.4 8772.79 6976 6917.56 5715.22 5450.12 4851.44 4836.5 4669.51 4285.93 3619.34 3423.7 3341.96 3017.33 2973.47 2500.45 2476.04 2365.52 2199.42 2187.21 2718.31 2171.99 2142.15 2140.23
threshold=25.183333333333341 27.516666666666669 25.450000000000003 26.38333333333334 28.950000000000006 23.750000000000004 23.916666666666675 25.916666666666675 32.250000000000007 28.216666666666672 0.52247474747474765 23.350000000000005 30.016666666666669 2.7311101689089869 28.750000000000004 27.850000000000005 0.54045454545454563 0.48918128654970766 31.650000000000002 26.983333333333338 26.650000000000002 12.364285714285717 3.9499999999999997 20.650000000000002 22.250000000000004 0.50200000000000011 28.450000000000003 31.550000000000004 0.6340579710144929 0.30208333333333343
decision_type=2 2 2 2 2 2 2 2 2 2 2 2 2 2 2 2 2 2 2 2 2 2 2 2 2 2 2 2 2 2
left_child=2 3 5 7 9 11 15 18 10 -3 19 23 -6 29 16 21 -8 -16 20 -5 22 -4 -2 -1 -17 26 -22 28 -9 -7
right_child=1 4 6 8 12 13 14 27 -10 -11 -12 -13 -14 -15 17 24 -18 -19 -20 -21 25 -23 -24 -25 -26 -27 -28 -29 -30 -31
leaf_value=-0.26483646849713693 -0.042027473372203264 0.057595324377616525 -0.099064043907532887 0.022307959613475592 0.10803130362898386 -0.12464816998410769 -0.044287950522124961 0.0050101620325405721 0.045001111974539793 0.080092795780405665 0.0045473448293140732 -0.17004445171407576 0.14892151999288017 -0.092575282508692541 -0.012151839902218325 0.0399203318969098 -0.070301955719301285 -0.043368657682617183 0.057208126031563923 0.037313559553358557 -0.020576850607575744 -0.074105658105362501 -0.20814237352821136 -0.20029039003208224 -0.057933958091247378 -0.02201924584795692 -0.0021356559058313845 0.021243329099957558 -0.011997785749193725 -0.15651317625265918
leaf_weight=6204 25524 323523 109350 407553 194147 47982 206013 340825 180719 236646 135781 102654 34114 31056 66252 2484 72236 74799 6459 199648 124877 63422 930 66956 30501 194544 222087 62545 94610 37592
leaf_count=6204 25524 323523 109350 407553 194147 47982 206013 340825 180719 236646 135781 102654 34114 31056 66252 2484 72236 74799 6459 199648 124877 63422 930 66956 30501 194544 222087 62545 94610 37592
internal_value=-2.4668e-05 0.0296672 -0.0901369 0.00950254 0.080719 -0.161566 -0.0567176 -0.00589632 0.0273803 0.0670995 0.0230944 -0.184908 0.114142 -0.126379 -0.0435279 -0.083596 -0.0510414 -0.028706 -0.0143177 0.0272418 -0.0151311 -0.0899022 -0.0478673 -0.205764 -0.0505648 -0.0135318 -0.00877289 0.00381771 0.00131473 -0.138646
internal_weight=3.70203e+06 2.78453e+06 917501 1.9961e+06 788430 292444 625057 1.0724e+06 923701 560169 742982 175814 228261 116630 419300 205757 278249 141051 574421 607201 567962 172772 26454 73160 32985 541508 346964 497980 435435 85574
internal_count=3702033 2784532 917501 1996102 788430 292444 625057 1072401 923701 560169 742982 175814 228261 116630 419300 205757 278249 141051 574421 607201 567962 172772 26454 73160 32985 541508 346964 497980 435435 85574
is_linear=0
shrinkage=0.1


Tree=12
num_leaves=31
num_cat=0
split_feature=22 22 3 22 22 1 3 22 22 22 22 17 3 18 22 3 3 22 5 3 5 5 2 1 1 3 19 5 5 19
split_gain=803523 277995 117138 48417.9 46622.6 16385.4 10882.2 9391.13 8059.58 7433.53 6227.26 4562.36 4403.88 4289.16 4096.14 3712.22 2713.69 2599.62 2530.38 2401.56 2323.52 2301.43 2297.48 2802.13 2248.1 2238.67 2866.02 2220.16 1972.66 1936.95
threshold=24.616666666666671 27.083333333333339 25.350000000000005 28.416666666666675 25.950000000000006 24.050000000000004 26.750000000000004 29.283333333333339 25.350000000000001 26.483333333333338 27.616666666666671 2.8500000000000019 29.650000000000002 0.32886904761904767 21.716666666666672 20.950000000000003 31.350000000000005 30.31666666666667 5.8500000000000005 31.350000000000005 7.3500000000000005 4.0500000000000007 24.750000000000004 27.750000000000004 26.150000000000002 28.050000000000004 25.750000000000004 12.050000000000002 4.2500000000000009 26.350000000000005
decision_type=2 2 2 2 2 2 2 2 2 2 2 2 2 2 2 2 2 2 2 2 2 2 2 2 2 2 2 2 2 2
left_child=2 4 5 10 8 15 11 21 16 22 -3 -4 13 -8 -7 -1 20 -9 -12 24 25 -5 23 -6 -10 26 -2 29 -26 -11
right_child=1 3 6 7 9 14 12 17 19 27 18 -13 -14 -15 -16 -17 -18 -19 -20 -21 -22 -23 -24 -25 28 -27 -28 -29 -30 -31
leaf_value=-0.22453072134095292 -0.033613823507868172 0.037144584713213379 -0.066939326666333995 0.082329113012562932 -0.028245375249674794 -0.13979415167334383 -0.037457006986307127 0.10666737650877718 -0.076543699509187935 0.048869282512245982 0.059527907768457455 -0.10040321771938239 0.011936410336648721 -0.065215094380437127 -0.10579849587113005 -0.16802884606021373 0.074833051920866561 0.14878003200423379 0.032876077772417002 0.021848516796234903 -0.043200356230377962 0.047758661336715538 0.01786274688663738 0.0040143053525887821 -0.0048879355242364862 -0.016112548132368017 -0.14912108643073801 0.0015258163351548285 -0.017684042956497323 0.021971461797584108
leaf_weight=12863 100603 328667 81487 224131 28735 80657 98782 128126 5269 28399 303293 81479 10914 127537 63226 121120 2447 16552 40364 22483 104483 21067 113838 427640 257726 123729 2195 50617 226224 467380
leaf_count=12863 100603 328667 81487 224131 28735 80657 98782 128126 5269 28399 303293 81479 10914 127537 63226 121120 2447 16552 40364 22483 104483 21067 113838 427640 257726 123729 2195 50617 226224 467380
internal_value=-2.22012e-05 0.0220388 -0.0984079 0.0632439 -0.000271663 -0.148289 -0.0637747 0.0912806 -0.0179913 0.0131403 0.0469857 -0.0836705 -0.0501075 -0.0530995 -0.124856 -0.173453 -0.0300883 0.111485 0.0563975 -0.0101082 -0.0308639 0.0793589 0.00515335 0.00198312 -0.0115768 -0.0251739 -0.0360802 0.0214754 -0.0108695 0.0235122
internal_weight=3.70203e+06 3.02397e+06 678065 1.0622e+06 1.96177e+06 277866 400199 389876 845159 1.11661e+06 672324 162966 237233 226319 143883 133983 333457 144678 343657 511702 331010 245198 570213 456375 489219 226527 102798 546396 483950 495779
internal_count=3702033 3023968 678065 1062200 1961768 277866 400199 389876 845159 1116609 672324 162966 237233 226319 143883 133983 333457 144678 343657 511702 331010 245198 570213 456375 489219 226527 102798 546396 483950 495779
is_linear=0
shrinkage=0.1


Tree=13
num_leaves=31
num_cat=0
split_feature=3 23 3 3 23 17 17 3 3 3 3 17 6 17 3 5 17 2 3 17 17 3 17 3 3 17 3 1 4 17
split_gain=627977 195654 121291 38578 25610.6 24904.5 19948.1 14792.9 12746.7 11285.6 9678.13 12793.8 8628.26 7666.52 5889.8 5594.93 5298.36 4759.71 4630.88 4622.49 4310.55 4267.13 3858.23 3721.41 3348.83 3345.21 3048.54 2684.98 2674.16 2670.75
threshold=27.850000000000005 27.350000000000009 25.250000000000004 30.650000000000002 28.750000000000004 2.4999999999999987 3.8500000000000019 23.850000000000005 29.250000000000004 29.550000000000004 31.950000000000003 4.7999999999999998 4.5000000000000009 2.7500000000000004 26.450000000000003 0.75000000000000011 4.6999999999999984 25.650000000000002 26.450000000000003 1.7500000000000002 3.3500000000000019 21.950000000000003 3.9999999999999987 32.650000000000013 33.350000000000001 5.1000000000000005 31.450000000000003 34.250000000000007 54.000000000000007 1.2999999999999992
decision_type=2 2 2 2 2 2 2 2 2 2 2 2 2 2 2 2 2 2 2 2 2 2 2 2 2 2 2 2 2 2
left_child=2 3 7 6 12 18 8 21 13 -8 11 22 24 -2 -7 27 -11 23 29 -9 -16 -1 -5 -14 -3 -12 -13 -6 -23 -4
right_child=1 4 5 10 15 14 9 19 -10 16 25 26 17 -15 20 -17 -18 -19 -20 -21 -22 28 -24 -25 -26 -27 -28 -29 -30 -31
leaf_value=-0.17216205387890571 0.010558582714464774 0.055386759522154494 -0.020171394500980339 0.05377901677576144 0.089109092410627838 -0.089406716968353672 -0.045439778668429735 -0.049895085568035069 0.021659057145696364 -0.0042095778132331448 0.057897556912048148 -0.0071285297453572696 0.0065494013229899038 -0.019693454783433182 -0.047162155463260733 0.063962107302276014 -0.030055947125116944 0.04915831381123334 -0.013559396629972617 -0.11063390808710077 -0.077429044612196893 -0.12633720592003519 0.023269458406583361 0.040126027743646271 0.082021721582035675 0.029883145671498038 0.010819662203023682 0.1177409077700905 -0.15604787153836419 -0.061243187756290299
leaf_weight=58101 135975 274168 25634 49189 153493 97151 154906 14828 243058 231778 54323 213796 70103 218191 117405 81058 120571 132613 139523 80841 78526 69505 263425 62383 57023 197932 169791 41637 53700 41406
leaf_count=58101 135975 274168 25634 49189 153493 97151 154906 14828 243058 231778 54323 213796 70103 218191 117405 81058 120571 132613 139523 80841 78526 69505 263425 62383 57023 197932 169791 41637 53700 41406
internal_value=-1.99811e-05 0.0212008 -0.0799557 0.00434151 0.0608707 -0.0505318 -0.00836166 -0.133034 0.00402391 -0.022944 0.0191344 0.0130539 0.0492105 -0.00807879 -0.0692749 0.0860452 -0.013054 0.0357653 -0.0239382 -0.10122 -0.0592926 -0.149822 0.0280701 0.0223595 0.0599726 0.035916 0.00081606 0.0952186 -0.139287 -0.0455386
internal_weight=3.70203e+06 2.92541e+06 776620 2.05294e+06 872478 499645 1.10448e+06 276975 597224 507255 948456 696201 596290 354166 293082 276188 352349 265099 206563 95669 195931 181306 312614 132486 331191 252255 383587 195130 123205 67040
internal_count=3702033 2925413 776620 2052935 872478 499645 1104479 276975 597224 507255 948456 696201 596290 354166 293082 276188 352349 265099 206563 95669 195931 181306 312614 132486 331191 252255 383587 195130 123205 67040
is_linear=0
shrinkage=0.1


Tree=14
num_leaves=31
num_cat=0
split_feature=2 2 1 1 1 1 2 1 2 1 2 1 2 1 1 2 1 1 5 5 1 1 1 5 5 1 2 1 1 19
split_gain=488342 164758 103696 52044.9 32759.3 24829.9 24762.8 11398.9 10971.7 10168.1 6908.73 6782.29 5502.76 5307.76 3583.72 3549.71 3101.44 2883.6 2618.21 2596.62 2466.47 2362.62 2138.31 1996.86 1926.59 1923.19 1895.54 1859.75 1796.36 1660.5
threshold=21.850000000000005 25.250000000000004 25.950000000000003 30.050000000000004 31.150000000000002 29.650000000000002 23.850000000000005 32.150000000000013 18.950000000000003 28.150000000000002 26.350000000000005 28.250000000000004 26.650000000000002 28.050000000000004 23.950000000000003 23.950000000000003 31.350000000000005 32.95000000000001 3.1500000000000008 3.4500000000000006 34.150000000000013 29.250000000000004 21.750000000000004 7.1500000000000012 15.950000000000001 34.550000000000004 19.950000000000003 26.950000000000003 23.950000000000003 27.250000000000004
decision_type=2 2 2 2 2 2 2 2 2 2 2 2 2 2 2 2 2 2 2 2 2 2 2 2 2 2 2 2 2 2
left_child=2 3 8 6 10 13 9 15 14 27 21 24 17 26 22 18 -7 -6 -5 -11 -9 -3 -1 -13 -8 -14 -4 -2 -10 -19
right_child=1 4 5 7 12 16 11 20 28 19 -12 23 25 -15 -16 -17 -18 29 -20 -21 -22 -23 -24 -25 -26 -27 -28 -29 -30 -31
leaf_value=-0.19658189615402782 -0.050666689961154358 0.02226094090158413 -0.082081760106307189 0.01818124255589015 0.05996674538225924 -0.013412587030527549 -0.0031402609442718124 0.048304932057447028 -0.11816298526019363 -0.005664227829557277 0.056307970441790235 0.014536609513975288 0.090441219969786477 -0.042031210373476117 -0.11941935563209655 0.03032695482933297 0.022738274049363127 0.20032548213024626 -0.007265579688716545 -0.021765705737327206 0.084409471049335827 0.038304696196873239 -0.14432055626137927 0.0016945844417603985 -0.021164235570857337 0.12749249398037793 -0.060788664118739816 -0.031841807258117485 -0.089488261268134917 0.082638428649226853
leaf_weight=8561 77542 157396 63056 172553 133729 76187 234896 106658 29235 250838 161920 395664 112597 136497 71012 208311 34468 1219 52807 166728 23002 220197 91572 174476 79334 16000 124066 162369 86453 72690
leaf_count=8561 77542 157396 63056 172553 133729 76187 234896 106658 29235 250838 161920 395664 112597 136497 71012 208311 34468 1219 52807 166728 23002 220197 91572 174476 79334 16000 124066 162369 86453 72690
internal_value=-1.7983e-05 0.0178455 -0.0738624 0.00268225 0.0542959 -0.0430438 -0.00682174 0.0286948 -0.120523 -0.0215197 0.0390273 0.00410529 0.0787954 -0.057026 -0.136603 0.0209168 -0.00215193 0.0687277 0.0122185 -0.0120933 0.05471 0.031617 -0.148789 0.0106067 -0.00769079 0.0950511 -0.067964 -0.0379262 -0.0967345 0.0845795
internal_weight=3.70203e+06 2.98093e+06 721107 2.10518e+06 875748 434274 1.54185e+06 563331 286833 657477 539513 884370 336235 323619 171145 433671 110655 207638 225360 417566 129660 377593 100133 570140 314230 128597 187122 239911 115688 73909
internal_count=3702033 2980926 721107 2105178 875748 434274 1541847 563331 286833 657477 539513 884370 336235 323619 171145 433671 110655 207638 225360 417566 129660 377593 100133 570140 314230 128597 187122 239911 115688 73909
is_linear=0
shrinkage=0.1


Tree=15
num_leaves=31
num_cat=0
split_feature=22 22 3 22 22 1 3 17 2 1 2 18 1 2 1 28 2 2 19 2 1 22 3 3 18 19 1 1 3 2
split_gain=424456 121264 100876 23429.5 15456.2 11967 10905.9 6730.89 5354.58 5384.23 4373.48 4260.23 3811.75 3676.44 3540.38 3267.99 3164.75 3050.49 2802.2 2504.77 2427.59 2290.11 2194.21 2171.9 2331.76 2152.71 2020.79 1901 1730.76 1695.15
threshold=25.250000000000004 27.583333333333339 25.550000000000004 26.450000000000006 29.050000000000004 24.450000000000003 27.550000000000004 2.9999999999999987 24.550000000000004 28.950000000000003 25.650000000000002 0.50200000000000011 30.150000000000002 20.850000000000005 28.850000000000005 2.7179950858365554 18.450000000000003 26.050000000000004 22.550000000000004 23.650000000000002 31.750000000000004 30.150000000000006 20.150000000000002 32.650000000000013 0.22886904761904767 27.750000000000004 32.050000000000004 28.950000000000003 26.550000000000004 22.950000000000003
decision_type=2 2 2 2 2 2 2 2 2 2 2 2 2 2 2 2 2 2 2 2 2 2 2 2 2 2 2 2 2 2
left_child=2 3 5 8 12 16 7 28 9 13 14 18 -3 -2 25 -7 22 26 -8 -15 -12 -6 -1 24 -16 -5 -14 -10 -4 -13
right_child=1 4 6 10 21 15 11 -9 27 -11 20 29 17 19 23 -17 -18 -19 -20 -21 -22 -23 -24 -25 -26 -27 -28 -29 -30 -31
leaf_value=-0.21426636847165503 -0.14794690079133721 0.029224672265615065 -0.045851295530735782 0.0044899518590080052 0.073916282187921248 -0.092396363603525017 0.068710590858780396 -0.065360817553125297 0.0079417512303225253 0.0013252492132830663 0.035673720975054578 -0.042929306634294187 0.034719815186186019 -0.025918478603343228 0.023021320144677608 -0.057224812855388864 -0.10727279623536937 0.060378986136460068 -0.015084377509967238 -0.0087795198223927645 0.16906071163708536 0.106411019449265 -0.1320962212958369 0.033950197949038106 0.0096356862860140363 -0.086094023445854928 0.052054062267700145 0.035884311579305266 -0.025256074551204617 -0.020765880493698013
leaf_weight=3369 2046 113896 80597 153941 176348 99183 4077 139109 180934 467882 113649 103772 137811 118399 304979 36009 72494 167144 188825 304750 1381 24730 91808 91996 227004 2669 131355 28133 82645 51703
leaf_count=3369 2046 113896 80597 153941 176348 99183 4077 139109 180934 467882 113649 103772 137811 118399 304979 36009 72494 167144 188825 304750 1381 24730 91808 91996 227004 2669 131355 28133 82645 51703
internal_value=-3.43245e-06 0.0199377 -0.0574906 0.00705807 0.0541865 -0.105166 -0.0353016 -0.0491979 -0.00270423 -0.00607665 0.0190715 -0.0232412 0.0455155 -0.0142217 0.016389 -0.0830283 -0.123015 0.0497681 -0.0133134 -0.0135751 0.0372751 0.0779127 -0.135005 0.0197629 0.0173095 0.00294619 0.0431791 0.0117018 -0.0354245 -0.0355589
internal_weight=3.70264e+06 2.74905e+06 953591 1.99776e+06 751284 302863 650728 302351 1.10214e+06 893077 895619 348377 550206 425195 780589 135192 167671 436310 192902 423149 115030 201078 95177 623979 531983 156610 269166 209067 163242 155475
internal_count=3702638 2749047 953591 1997763 751284 302863 650728 302351 1102144 893077 895619 348377 550206 425195 780589 135192 167671 436310 192902 423149 115030 201078 95177 623979 531983 156610 269166 209067 163242 155475
is_linear=0
shrinkage=0.1


Tree=16
num_leaves=31
num_cat=0
split_feature=22 22 3 22 22 3 2 2 1 22 1 3 5 3 28 18 2 5 2 2 1 1 18 5 2 1 3 1 3 3
split_gain=344722 119805 52035.1 20857.7 20676.3 9926.47 4891.41 4467.16 4850.34 4195 4110.84 3938.98 4375.42 3528.13 3525.06 3241.61 2878.2 2864.15 2605.54 2400.3 2150.36 2108.11 2099.76 1991.36 1916.57 1900.18 1877.86 1868.09 1826.69 1668.55
threshold=24.616666666666671 27.116666666666671 24.250000000000004 28.516666666666669 25.950000000000006 26.450000000000003 24.950000000000003 23.250000000000004 28.550000000000004 29.650000000000006 28.750000000000004 33.250000000000007 0.8500000000000002 22.150000000000002 2.5610883344145821 0.4377976190476191 25.750000000000004 5.4500000000000011 20.050000000000004 21.950000000000003 31.450000000000003 30.450000000000003 0.35108695652173921 2.4500000000000006 24.150000000000002 29.550000000000004 29.550000000000004 31.350000000000005 28.250000000000004 20.150000000000002
decision_type=2 2 2 2 2 2 2 2 2 2 2 2 2 2 2 2 2 2 2 2 2 2 2 2 2 2 2 2 2 2
left_child=2 4 13 11 7 14 10 8 18 23 19 12 -3 29 -4 26 -14 25 -2 -6 24 -10 -15 -5 -12 -9 -7 -8 -17 -1
right_child=1 3 5 9 6 15 27 17 21 -11 20 -13 16 22 -16 28 -18 -19 -20 -21 -22 -23 -24 -25 -26 -27 -28 -29 -30 -31
leaf_value=-0.19213534825340153 -0.13596423683721789 0.037468166617133411 -0.077096192441350617 0.059167929964706226 -0.17822492734207254 -0.026195825719709111 0.019985240137322724 0.0011104083282124887 -0.015968285273186205 0.082063640228020984 0.0021142292731702885 0.04829240689341785 0.011990525498918119 -0.086232882121588736 -0.050373070814844517 -0.054607625361008508 0.032341586131804732 -0.011946350782502571 -0.033367371386559506 -0.0054670372413545346 0.025570728068590006 0.0065679492974077469 -0.11153413389439966 0.033905963735007649 0.013857277306319105 0.034360016236895927 0.034639367886081726 0.13422796944929047 -0.029538974972787194 -0.12137641798450421
leaf_weight=3508 2525 270298 96508 239415 807 143529 268612 172496 232940 78640 315187 119272 180337 75561 101044 82526 113064 241754 125781 235925 72658 50508 57962 35881 248608 19090 5260 1439 44872 66631
leaf_count=3508 2525 270298 96508 239415 807 143529 268612 172496 232940 78640 315187 119272 180337 75561 101044 82526 113064 241754 125781 235925 72658 50508 57962 35881 248608 19090 5260 1439 44872 66631
internal_value=-3.0892e-06 0.0144354 -0.0644847 0.0419924 6.45279e-05 -0.0463124 0.00883205 -0.0117961 -0.0192547 0.0616941 0.00519442 0.0317825 0.0282892 -0.106755 -0.0634278 -0.03407 0.0198329 -0.00470901 -0.0353864 -0.00605595 0.00937905 -0.0119525 -0.0972161 0.0558754 0.00729238 0.00442346 -0.0240452 0.020594 -0.045778 -0.124915
internal_weight=3.70264e+06 3.02524e+06 677401 1.03691e+06 1.98833e+06 473739 1.14324e+06 845094 411754 353936 873185 682971 563699 203662 197552 276187 293401 433340 128306 236732 636453 283448 133523 275296 563795 191586 148789 270051 127398 70139
internal_count=3702638 3025237 677401 1036907 1988330 473739 1143236 845094 411754 353936 873185 682971 563699 203662 197552 276187 293401 433340 128306 236732 636453 283448 133523 275296 563795 191586 148789 270051 127398 70139
is_linear=0
shrinkage=0.1


Tree=17
num_leaves=31
num_cat=0
split_feature=3 22 1 22 26 22 2 5 5 17 2 2 1 5 2 1 1 1 2 3 1 3 3 28 3 2 2 22 2 3
split_gain=281475 84575.1 59219.9 18534.6 10743 10421.5 8380.3 6330.95 3794.5 3717.99 3675.35 3297.62 3988.88 3067 3051.3 2663.78 2336.2 2328.11 2265.44 2108.44 2104.42 1947.97 1922.17 1900.29 1888.11 1831.6 1806.74 1765.67 1740.79 1664.62
threshold=28.150000000000002 27.583333333333339 25.750000000000004 26.31666666666667 13.266666666666687 29.083333333333339 19.650000000000002 10.050000000000002 2.9500000000000006 2.0500000000000012 23.550000000000004 24.150000000000002 29.650000000000002 1.0500000000000003 24.850000000000005 22.750000000000004 29.750000000000004 31.350000000000005 24.750000000000004 33.750000000000007 29.350000000000005 33.650000000000013 31.250000000000004 3.0750027876182671 26.850000000000005 22.750000000000004 24.750000000000004 30.516666666666669 25.950000000000003 26.850000000000005
decision_type=2 2 2 2 2 2 2 2 2 2 2 2 2 2 2 2 2 2 2 2 2 2 2 2 2 2 2 2 2 2
left_child=2 3 6 7 20 13 15 11 17 24 -9 12 25 21 22 -1 -13 18 -5 28 -4 -3 -10 -8 -6 -2 -19 -7 -15 -11
right_child=1 5 4 8 9 27 23 10 14 29 -12 16 -14 19 -16 -17 -18 26 -20 -21 -22 -23 -24 -25 -26 -27 -28 -29 -30 -31
leaf_value=-0.12290218425991624 -0.018762493071262973 0.04030126085485633 -0.053746780846190917 0.010464375611855807 -0.02028813978532551 0.062003619495062612 -0.066685135021365929 -0.032027283440196952 -0.013168731286435887 -0.042804803043724034 -0.0088599264579160755 0.0097343381336470192 0.009420277441013274 0.014362299049980241 0.015541182178318467 -0.092688765364319622 0.066439522900385725 0.030887610922536664 0.024330456304424996 0.046730432320129772 -0.022897622020587243 0.062934013957012841 0.0064780355581635822 -0.022189256891361548 0.0021652030025516343 -0.0040447702538397492 0.086296624036866817 0.10657093298178832 0.034120611287943789 -0.023899576790585013
leaf_weight=35441 125481 286777 176896 240491 75058 181980 78862 99246 80327 65721 220875 187722 173477 99069 236764 165206 7558 84383 231009 48577 25272 43842 131025 10928 74747 259269 6326 9346 81089 159874
leaf_count=35441 125481 286777 176896 240491 75058 181980 78862 99246 80327 65721 220875 187722 173477 99069 236764 165206 7558 84383 231009 48577 25272 43842 131025 10928 74747 259269 6326 9346 81089 159874
internal_value=-2.78027e-06 0.0152545 -0.0498283 0.00488743 -0.0313059 0.0440344 -0.0866622 -0.0042611 0.0146092 -0.0212974 -0.0160424 0.000744095 -0.00316864 0.0371434 0.00774481 -0.0980255 0.011929 0.0200805 0.017258 0.0282409 -0.0498905 0.0433025 -0.000988967 -0.0612697 -0.00908478 -0.00884476 0.0347518 0.0641807 0.0232555 -0.0294071
internal_weight=3.70264e+06 2.83463e+06 868005 2.08395e+06 577568 750680 290437 1.07363e+06 1.01032e+06 375400 320121 753507 558227 559354 448116 200647 195280 562209 471500 228735 202168 330619 211352 89790 149805 384750 90709 191326 180158 225595
internal_count=3702638 2834633 868005 2083953 577568 750680 290437 1073628 1010325 375400 320121 753507 558227 559354 448116 200647 195280 562209 471500 228735 202168 330619 211352 89790 149805 384750 90709 191326 180158 225595
is_linear=0
shrinkage=0.1


Tree=18
num_leaves=31
num_cat=0
split_feature=3 22 3 3 18 27 22 3 5 1 2 2 5 26 5 3 3 5 2 1 1 5 5 18 3 2 28 2 27 3
split_gain=228417 65671.8 52806.3 14540.8 10146.8 8746.44 8457.17 7175.26 4153.01 3681.19 3626.11 3422.12 2712.43 2484.34 2467.15 2183.31 2161.08 2153.14 2012.35 1728.18 1653.14 1618.14 1595.77 1555.29 1436.15 1395.56 1252.71 1219.17 1209.81 1158.91
threshold=28.350000000000005 27.583333333333339 25.550000000000004 31.350000000000005 0.48047619047619056 12.426785714285719 29.116666666666671 23.650000000000002 2.1500000000000008 30.550000000000004 24.550000000000004 24.150000000000002 4.8500000000000005 19.883333333333361 1.4500000000000002 20.650000000000002 33.650000000000013 2.3500000000000001 24.650000000000002 33.650000000000013 31.550000000000004 0.45000000000000007 6.9500000000000011 0.46742424242424246 30.050000000000004 26.750000000000004 3.5189793199236452 22.650000000000002 18.607142857142858 26.950000000000003
decision_type=2 2 2 2 2 2 2 2 2 2 2 2 2 2 2 2 2 2 2 2 2 2 2 2 2 2 2 2 2 2
left_child=2 3 7 4 9 17 12 15 29 10 27 24 16 23 20 -1 19 -4 -16 25 -5 -8 -17 -9 -6 -3 -24 -2 -10 -7
right_child=1 6 5 14 11 8 21 13 28 -11 -12 -13 -14 -15 18 22 -18 -19 -20 -21 -22 -23 26 -25 -26 -27 -28 -29 -30 -31
leaf_value=-0.13948280760482543 -0.011029506123985424 0.027965282871221131 -0.032709551846299388 0.024152532342224215 -0.026228416693666729 -0.01911523408492909 0.064308739207458929 -0.056172289878650632 -0.037955479988779128 0.020720700423869896 0.012259240717690864 -0.0024800594796690651 0.015381385164302633 -0.01439039143160307 0.0064170964587681283 -0.081450360058671817 0.050652938926168692 -0.054134013087676715 0.01994468206310087 0.057492594902970262 0.05328144045114333 0.043448616548191626 -0.10482827126643098 -0.080069126649637015 -0.011979858402949819 0.041831355745460541 0.063556629018398689 0.0006374639721344012 -0.021738261591398404 -0.0049402137165744436
leaf_weight=8631 116797 285144 87972 151482 146219 89620 130772 86035 91053 137529 272013 209588 71154 11102 200222 114154 86187 100494 243953 27401 22359 51962 47129 39850 137035 97370 446 384175 92969 161821
leaf_count=8631 116797 285144 87972 151482 146219 89620 130772 86035 91053 137529 272013 209588 71154 11102 200222 114154 86187 100494 243953 27401 22359 51962 47129 39850 137035 97370 446 384175 92969 161821
internal_value=-2.50224e-06 0.0143955 -0.0428491 0.00501883 -0.000609602 -0.0261362 0.0396674 -0.076777 -0.0183471 0.00564632 0.0029643 -0.0121673 0.0336403 -0.0597378 0.0177995 -0.0904782 0.0362591 -0.0441335 0.0138468 0.0332328 0.027899 0.058377 -0.087863 -0.063737 -0.0193351 0.0314949 -0.10325 -0.00208258 -0.0297624 -0.00999255
internal_weight=3.70264e+06 2.77136e+06 931276 2.02137e+06 1.40336e+06 623929 749990 307347 435463 910514 772985 492842 567256 136987 618016 170360 496102 188466 444175 409915 173841 182734 161729 125885 283254 382514 47575 500972 184022 251441
internal_count=3702638 2771362 931276 2021372 1403356 623929 749990 307347 435463 910514 772985 492842 567256 136987 618016 170360 496102 188466 444175 409915 173841 182734 161729 125885 283254 382514 47575 500972 184022 251441
is_linear=0
shrinkage=0.1


Tree=19
num_leaves=31
num_cat=0
split_feature=3 22 1 3 17 28 1 3 17 2 3 2 17 3 2 17 3 17 5 19 3 3 5 17 17 19 3 3 5 19
split_gain=185236 54223.8 41260.7 12552.7 9249.81 8986.59 6977.18 4713.57 4617.19 4428.45 3817.01 3734.82 3627.85 4952.75 3557.84 2693.71 2475.65 2350.48 1850.05 1833.15 1788.18 1713.69 1647.79 1510.93 1494.05 1403.95 1401.9 1377.65 1361.09 1340.17
threshold=28.250000000000004 27.583333333333339 25.450000000000003 30.950000000000003 4.2999999999999998 2.7047057070268123 32.050000000000004 29.950000000000003 3.1000000000000001 19.150000000000002 30.050000000000004 26.950000000000003 4.4999999999999991 32.050000000000004 26.550000000000004 2.0500000000000012 26.750000000000004 5.1999999999999984 1.9500000000000002 25.650000000000002 21.150000000000002 32.650000000000013 2.6500000000000008 4.7999999999999998 3.3500000000000019 26.550000000000004 26.350000000000005 28.950000000000003 9.7500000000000018 26.150000000000002
decision_type=2 2 2 2 2 2 2 2 2 2 2 2 2 2 2 2 2 2 2 2 2 2 2 2 2 2 2 2 2 2
left_child=2 3 9 4 7 16 14 8 -2 20 -6 22 25 17 21 26 -4 -14 -18 -15 -1 -3 -8 -12 -9 -5 -7 -10 -22 -29
right_child=1 6 5 12 10 15 11 24 27 -11 23 -13 13 19 -16 -17 18 -19 -20 -21 28 -23 -24 -25 -26 -27 -28 29 -30 -31
leaf_value=-0.11119759833259305 0.010647980383458794 0.011674341514569078 -0.051774253342990351 0.05699015784720371 -0.027746925184028815 -0.020076971028827027 0.045036127735262388 0.031036468232945438 -0.01821422134758189 -0.055059508661894387 -0.0012217548047482902 0.071221999238080633 0.01027639010186202 0.091798774327670918 0.038465030031310486 -0.023021579914589179 -0.019611952213760744 -0.0042085696861123879 -0.043255947705921706 0.020741933535583981 -0.073408662247225795 0.027904797794439974 0.020157921943931428 -0.015693752151873939 0.011754067376143755 0.025392755362958437 0.00044414202487302743 0.00095289416363198104 -0.09552403853044561 -0.016523466894816555
leaf_weight=19153 203674 125257 112054 16326 138659 48814 229051 51079 102159 90657 163571 53248 292590 3681 177349 241690 65395 181531 66998 265545 114818 135348 30125 129065 188373 101407 104678 151909 36732 61702
leaf_count=19153 203674 125257 112054 16326 138659 48814 229051 51079 102159 90657 163571 53248 292590 3681 177349 241690 65395 181531 66998 265545 114818 135348 30125 129065 188373 101407 104678 151909 36732 61702
internal_value=-2.25201e-06 0.0126819 -0.0394438 0.00426758 -0.00238623 -0.0257645 0.0356835 0.00425968 -0.00109118 -0.0729213 -0.0140802 0.0471003 0.0134645 0.0108813 0.0275392 -0.0164421 -0.0408354 0.0047304 -0.0315771 0.0217135 -0.0824074 0.0201038 0.0421444 -0.00760452 0.0158673 0.0297744 -0.00608205 -0.00866303 -0.0787689 -0.00409519
internal_weight=3.70264e+06 2.80165e+06 900989 2.05127e+06 1.19019e+06 639629 750378 758896 519444 261360 431295 312424 861080 743347 437954 395182 244447 474121 132393 269226 170703 260605 259176 292636 239452 117733 153492 315770 151550 213611
internal_count=3702638 2801649 900989 2051271 1190191 639629 750378 758896 519444 261360 431295 312424 861080 743347 437954 395182 244447 474121 132393 269226 170703 260605 259176 292636 239452 117733 153492 315770 151550 213611
is_linear=0
shrinkage=0.1


Tree=20
num_leaves=31
num_cat=0
split_feature=3 2 3 3 17 5 3 3 5 6 2 17 3 3 5 17 17 17 3 3 5 3 16 16 19 19 17 3 17 3
split_gain=150800 42619 38032.4 13293 8881.97 7471.47 5470.46 4915.42 3875.68 3740.41 3552.65 3067.79 2349.18 2254.5 1909.17 1762.69 1583.68 1561.9 1659.3 1385.66 1367.18 1315.69 1275.98 1151.91 1139.12 1129.08 1077.88 1046.88 1132.35 1028.05
threshold=28.550000000000004 25.550000000000004 25.650000000000002 31.650000000000002 2.7999999999999994 2.3500000000000001 22.850000000000005 34.150000000000013 1.0500000000000003 1.5000000000000002 24.150000000000002 1.2500000000000002 27.050000000000004 31.150000000000002 6.9500000000000011 2.7500000000000004 1.4000000000000006 3.6000000000000001 30.150000000000002 29.450000000000003 14.65 19.950000000000003 8.6500000000000004 7.4500000000000002 26.050000000000004 27.350000000000005 1.7000000000000013 32.95000000000001 5.2999999999999998 27.550000000000004
decision_type=2 2 2 2 2 2 2 2 2 2 2 2 2 2 2 2 2 2 2 2 2 2 2 2 2 2 2 2 2 2
left_child=2 3 6 5 12 17 21 9 22 13 20 -8 16 -3 24 -13 -4 19 -19 -2 -7 -1 -5 -15 29 -12 -14 28 -10 -6
right_child=1 7 4 8 14 10 11 -9 27 -11 25 15 26 23 -16 -17 -18 18 -20 -21 -22 -23 -24 -25 -26 -27 -28 -29 -30 -31
leaf_value=-0.14969229696323202 0.0065075842130370128 0.027826354832286182 -0.001898336901398437 0.025123104557400584 -0.031797183171039661 -0.0092890291585297803 -0.011027621771091463 0.053768911774674182 0.016635692020036053 0.023673613516627702 0.0011838386311373956 -0.046798220837225207 0.011024557247511805 0.043962041973431842 -0.041082328365202897 -0.0663985188376984 -0.025287522659643485 -0.0073824274395875942 0.0081702995747868334 0.020938320071633008 -0.022319257487486498 -0.077288260336418058 0.044164678450231989 0.068191421502557456 -0.076670302827594808 -0.022276428061884422 -0.0057958609851751688 0.02260534896828461 0.0039139578205081241 -0.017691911180153071
leaf_weight=2566 125808 90969 40997 139917 99501 295629 16970 104533 122966 348755 428494 104048 51052 116345 125923 82077 98511 93944 254258 141243 110667 114441 47017 23602 4267 21546 150137 75992 162330 107494
leaf_count=2566 125808 90969 40997 139917 99501 295629 16970 104533 122966 348755 428494 104048 51052 116345 125923 82077 98511 93944 254258 141243 110667 114441 47017 23602 4267 21546 150137 75992 162330 107494
internal_value=-2.25501e-05 0.0122388 -0.0332445 0.00493193 -0.0198298 -1.96286e-05 -0.061653 0.0338093 0.0182234 0.03021 -0.00605932 -0.0517304 -0.00844232 0.0400819 -0.0313359 -0.0554415 -0.0184142 0.00838667 0.00397421 0.01414 -0.0128382 -0.0788761 0.0299124 0.0480483 -0.0255265 6.06609e-05 -0.00152766 0.0121753 0.00939718 -0.0244722
internal_weight=3.702e+06 2.70402e+06 997984 2.01981e+06 677882 1.47159e+06 320102 684204 548222 579671 856336 203095 340697 230916 337185 186125 139508 615253 348202 267051 406296 117007 186934 139947 211262 450040 201189 361288 285296 206995
internal_count=3701999 2704015 997984 2019811 677882 1471589 320102 684204 548222 579671 856336 203095 340697 230916 337185 186125 139508 615253 348202 267051 406296 117007 186934 139947 211262 450040 201189 361288 285296 206995
is_linear=0
shrinkage=0.1


Tree=21
num_leaves=31
num_cat=0
split_feature=3 2 3 3 17 18 6 17 3 3 3 28 3 17 3 3 3 17 28 17 3 17 17 17 17 2 3 16 17 3
split_gain=122847 38056.6 24963.4 11798.8 7624.33 6259.93 4967.81 3557.36 3522.13 3059.55 2857.81 2434.36 2202.02 2175.64 2151.88 1754.03 1641.33 1622.66 1336.19 1158.24 1539.76 1432.3 1156.31 1082.93 968.33 952.925 937.591 880.555 877.855 868.485
threshold=28.050000000000004 25.450000000000003 24.250000000000004 31.450000000000003 2.5500000000000012 0.2340579710144928 2.5000000000000004 4.7999999999999998 31.550000000000004 30.150000000000002 26.050000000000004 2.806381538134517 33.050000000000004 4.8500000000000023 26.350000000000005 34.250000000000007 21.350000000000005 3.5500000000000012 2.3655488712929413 2.4000000000000008 29.450000000000003 3.9999999999999987 0.75000000000000011 1.4000000000000006 3.2500000000000004 26.350000000000005 32.350000000000001 6.8500000000000023 0.59999999999999976 19.150000000000002
decision_type=2 2 2 2 2 2 2 2 2 2 2 2 2 2 2 2 2 2 2 2 2 2 2 2 2 2 2 2 2 2
left_child=2 3 16 5 14 19 8 26 -3 11 24 -7 -9 -11 22 25 29 -12 -18 -2 -21 -22 -4 -16 -6 -8 -5 -10 -20 -1
right_child=1 6 4 7 10 9 15 12 27 13 17 -13 -14 -15 23 -17 18 -19 28 20 21 -23 -24 -25 -26 -27 -28 -29 -30 -31
leaf_value=-0.1936056996478355 0.017560363373395092 0.025550096159286707 0.00043025781025034194 0.023446171564127948 -0.040733271472239728 -0.022515445987606839 0.016219160770137863 0.0074236847418642895 0.041949138840683985 0.0049506633933408435 -0.02283514787642835 -0.0070892745543300051 0.024817399511353248 -0.0091868099558794786 0.00802698687382466 0.041233813445283901 -0.069375696429485295 -0.039825772324106029 0.026227010901411899 -0.0036848681116685338 0.014475599228081641 0.002311785355742934 -0.028477874809128403 -0.0096238001077948374 -0.061745762421399265 0.027975627375382062 0.041565268541766884 0.05626879932905321 -0.053321855021364856 -0.084155342542908948
leaf_weight=746 72658 139831 16714 91326 58524 174378 263189 393961 151635 237239 177187 247483 89278 201147 46921 40607 87749 82326 1409 173936 171574 222137 80379 134107 35076 93417 41553 59909 89869 25734
leaf_count=746 72658 139831 16714 91326 58524 174378 263189 393961 151635 237239 177187 247483 89278 201147 46921 40607 87749 82326 1409 173936 171574 222137 80379 134107 35076 93417 41553 59909 89869 25734
internal_value=-2.02951e-05 0.00982386 -0.0337297 0.00297012 -0.0238743 -0.00181396 0.0292032 0.0146217 0.0378646 -0.00738635 -0.0336279 -0.0134657 0.0106372 -0.00153611 -0.0114907 0.0215413 -0.0640015 -0.0282251 -0.0605645 0.00567251 0.00415089 0.00761261 -0.0235015 -0.00504886 -0.0486076 0.0192989 0.0291123 0.0460044 -0.0520939 -0.0872388
internal_weight=3.702e+06 2.86526e+06 836741 2.11667e+06 631234 1.50055e+06 748588 616118 351375 860247 353113 421861 483239 438386 278121 397213 205507 259513 179027 640305 567647 393711 97093 181028 93600 356606 132879 211544 91278 26480
internal_count=3701999 2865258 836741 2116670 631234 1500552 748588 616118 351375 860247 353113 421861 483239 438386 278121 397213 205507 259513 179027 640305 567647 393711 97093 181028 93600 356606 132879 211544 91278 26480
is_linear=0
shrinkage=0.1


Tree=22
num_leaves=31
num_cat=0
split_feature=3 2 3 3 6 5 17 6 3 26 3 3 17 3 16 3 5 17 17 17 3 22 3 3 17 22 23 26 3 2
split_gain=100159 34681.4 15107.1 10181.8 5864.96 5709.23 5311.34 4643.44 3178.85 2737.6 2136.73 1945.72 1348.48 1257.01 1237.37 1237.1 1234.44 1225.96 1185.54 1117.93 1035.53 1029.95 957.671 842.977 1028.81 832.364 823.145 804.413 799.405 781.127
threshold=27.450000000000003 25.150000000000002 24.050000000000004 30.550000000000004 2.5000000000000004 2.3500000000000001 1.8000000000000027 4.5000000000000009 31.150000000000002 14.56666666666669 32.45000000000001 26.150000000000002 3.2000000000000015 21.850000000000005 9.8000000000000007 29.350000000000005 14.050000000000002 3.199999999999998 3.6000000000000001 2.2500000000000004 29.050000000000004 30.416666666666675 34.45000000000001 32.250000000000007 5.0500000000000016 24.416666666666675 24.846428571428579 13.966666666666676 28.950000000000003 26.050000000000004
decision_type=2 2 2 2 2 2 2 2 2 2 2 2 2 2 2 2 2 2 2 2 2 2 2 2 2 2 2 2 2 2
left_child=2 3 13 5 8 12 -4 14 -3 -7 29 17 20 27 -5 -14 23 25 26 -15 -2 -10 -12 24 -9 -8 -13 -1 -11 -6
right_child=1 4 6 7 10 9 11 16 21 28 22 18 15 19 -16 -17 -18 -19 -20 -21 -22 -23 -24 -25 -26 -27 -28 -29 -30 -31
leaf_value=-0.084044244433070903 0.0020229128804694291 0.020039969430027695 -0.0059921306561102217 0.015840582734869331 0.0088638248742405647 -0.021815255493224876 -0.032743308672741986 0.0074060517391770567 0.037964267950693457 -0.013598666280249664 0.021831449091418448 -0.017226865730661258 -0.013264800614013961 -0.043842065880118714 0.035666000364461527 0.0015460668752353593 -0.0067373796798516038 -0.05335483894351431 -0.039797084093192416 -0.061702275213370295 0.014913853679921141 0.068656778029237059 0.04052504803385628 0.013128081345754106 -0.0020617229844579442 -0.099786660746332828 -0.033626762252774944 -0.059195522418450622 -0.004027083050142718 0.019975545753123949
leaf_weight=26683 192194 127144 107825 271181 238902 214356 105249 264100 251610 139842 192615 126626 89756 63141 35616 151731 103519 46585 43079 78764 92214 11430 31951 107099 202987 1885 40360 25457 232046 86052
leaf_count=26683 192194 127144 107825 271181 238902 214356 105249 264100 251610 139842 192615 126626 89756 63141 35616 151731 103519 46585 43079 78764 92214 11430 31951 107099 202987 1885 40360 25457 232046 86052
internal_value=-1.82656e-05 0.00768323 -0.0351482 0.000528284 0.0236471 -0.00602831 -0.0254849 0.00793491 0.0330226 -0.0128144 0.0169901 -0.0312625 0.00153652 -0.058634 0.0181421 -0.00395884 0.00331412 -0.0398118 -0.0250064 -0.0537553 0.00620256 0.039298 0.0244912 0.00512628 0.00329154 -0.0339229 -0.0211907 -0.071912 -0.00762631 0.0118064
internal_weight=3.702e+06 3.03634e+06 665654 2.09664e+06 939704 1.11214e+06 471609 984502 390184 586244 549520 363784 525895 194045 306797 241487 677705 153719 210065 141905 284408 263040 224566 574186 467087 107134 166986 52140 371888 324954
internal_count=3701999 3036345 665654 2096641 939704 1112139 471609 984502 390184 586244 549520 363784 525895 194045 306797 241487 677705 153719 210065 141905 284408 263040 224566 574186 467087 107134 166986 52140 371888 324954
is_linear=0
shrinkage=0.1


Tree=23
num_leaves=31
num_cat=0
split_feature=1 1 2 2 2 1 2 2 1 2 1 22 22 1 5 5 21 5 2 2 1 5 22 28 21 22 5 5 1 2
split_gain=80899.7 26533.3 17757.2 11430.9 6885.18 3113.1 2850.02 2622.81 2313.02 2292.67 1833.93 1540.69 1401.3 1219.3 1161.54 1079.2 1510.26 1031.92 983.51 912.299 833.969 793.064 792.773 785.346 752.18 737.415 730.085 725.562 718.142 716.433
threshold=27.750000000000004 30.550000000000004 20.550000000000004 23.750000000000004 25.550000000000004 24.250000000000004 23.450000000000003 25.750000000000004 32.650000000000013 22.450000000000003 33.550000000000004 28.31666666666667 24.983333333333338 21.350000000000005 10.350000000000003 10.450000000000001 10.850000000000003 4.2500000000000009 26.950000000000003 23.450000000000003 28.950000000000003 1.5500000000000003 27.350000000000001 2.3465905316554028 7.5500000000000007 26.650000000000006 8.6500000000000004 3.0500000000000003 35.350000000000001 19.950000000000003
decision_type=2 2 2 2 2 2 2 2 2 2 2 2 2 2 2 2 2 2 2 2 2 2 2 2 2 2 2 2 2 2
left_child=2 3 5 9 8 13 17 15 14 25 18 -12 -7 -1 19 16 20 -4 22 -3 -5 -11 -6 -15 -17 26 29 -10 -13 -2
right_child=1 4 6 7 10 12 -8 -9 27 21 11 28 -14 23 -16 24 -18 -19 -20 -21 -22 -23 -24 -25 -26 -27 -28 -29 -30 -31
leaf_value=-0.10349404437516346 -0.025220000052582917 0.0065424659349107425 -0.015675344212099585 0.001462656909738246 0.077042457252205293 -0.036342397668415918 -0.0076289280752351932 0.01673530799482412 0.029562412250925471 0.0014543420467284908 0.16478089280802796 0.041429528464227879 -0.13689045787241602 -0.06359139717773965 -0.0089681627452500457 -0.012431775888947569 0.020312053414084145 -0.028483569888757582 0.036719166326291734 0.016518562373852515 0.0081329543266225376 -0.0074175647322333449 0.024229496672605072 -0.048556738348626505 0.0018539082186707729 -0.13334731526489049 -0.027159996098994083 0.00072795836394691331 0.075307888358196365 -0.010824645901956469
leaf_weight=5381 40804 157907 109814 334895 2881 177144 226608 230823 102713 169972 1089 61242 1397 60785 27465 49269 72386 147246 105873 218525 425702 247429 211518 81097 146302 527 42317 9537 6969 226382
leaf_count=5381 40804 157907 109814 334895 2881 177144 226608 230823 102713 169972 1089 61242 1397 60785 27465 49269 72386 147246 105873 218525 425702 247429 211518 81097 146302 527 42317 9537 6969 226382
internal_value=-1.6439e-05 0.00780375 -0.0279607 0.00133716 0.021989 -0.0460068 -0.0158047 0.00710191 0.0144143 -0.00864317 0.0320249 0.0467748 -0.0371291 -0.0567699 0.0108852 0.00494003 0.00650957 -0.023012 0.0288333 0.0123338 0.00519599 -0.00380479 0.0249392 -0.0549979 -0.001745 -0.0151572 -0.014956 0.0271126 0.0448908 -0.0130231
internal_weight=3.702e+06 2.89253e+06 809472 1.98681e+06 905719 325804 483668 1.25938e+06 516147 727431 389572 69300 178541 147263 403897 1.02855e+06 832983 257060 320272 376432 760597 417401 214399 141882 195571 310030 309503 112250 68211 267186
internal_count=3701999 2892527 809472 1986808 905719 325804 483668 1259377 516147 727431 389572 69300 178541 147263 403897 1028554 832983 257060 320272 376432 760597 417401 214399 141882 195571 310030 309503 112250 68211 267186
is_linear=0
shrinkage=0.1


Tree=24
num_leaves=31
num_cat=0
split_feature=3 1 3 2 2 17 1 19 1 28 18 3 19 1 1 19 19 18 19 19 2 19 17 1 18 17 1 3 17 19
split_gain=66731.7 20220.2 16536.3 5687.14 5301.77 4594.6 2796.35 2104.97 1966.45 1629.89 1614.67 1456.09 1389.85 1354.44 1345.6 1233.79 1126.19 1099.12 1122.41 1022.5 1011.83 1007.09 966.101 936.962 869.984 864.294 850.696 757.028 712.78 913.895
threshold=28.550000000000004 30.350000000000005 25.650000000000002 24.650000000000002 25.850000000000005 2.9999999999999987 23.550000000000004 27.350000000000005 32.850000000000001 2.393329031016735 0.82041666666666679 26.850000000000005 25.850000000000005 32.250000000000007 28.950000000000003 27.350000000000005 25.150000000000002 1.0366028708133974 24.450000000000003 24.650000000000002 27.250000000000004 26.150000000000002 0.15000000000000038 28.650000000000002 0.71589473684210536 1.3500000000000016 21.150000000000002 30.250000000000004 1.5499999999999992 24.850000000000005
decision_type=2 2 2 2 2 2 2 2 2 2 2 2 2 2 2 2 2 2 2 2 2 2 2 2 2 2 2 2 2 2
left_child=2 3 6 10 8 11 26 -6 17 19 23 25 24 -9 15 -5 -10 18 -3 -8 -15 -16 -11 -2 -7 -4 -1 -12 -13 -30
right_child=1 4 5 14 7 12 9 13 16 22 27 28 -14 20 21 -17 -18 -19 -20 -21 -22 -23 -24 -25 -26 -27 -28 -29 29 -31
leaf_value=-0.099437701733049264 -0.0052507569022279136 0.080492310890889707 -0.00079425229485340304 0.0051508702918295485 0.097475165772065525 -0.017728025659556702 -0.042267470625161854 0.023301777493420543 0.16170863093796181 0.014149784570933535 -0.016608781879946768 0.0091746506540309261 -0.063907271227140405 0.031883802055316393 0.040127929610180892 -0.020096366793743138 0.025661968540156749 -0.0034968956347880215 0.012550491737432926 -0.10875621619122616 0.052871218552040883 0.011287967483779289 -0.028666630370627506 0.0017888200062888366 -0.029570591735348525 -0.019661889828369354 -0.053115048498152843 -0.0049901064571164656 0.0078222891487252418 -0.0078605210952014202
leaf_weight=4143 308410 2445 32346 283729 4500 181777 103186 202178 612 5528 107209 46812 8056 121950 12473 20773 105278 44881 441038 2366 28303 414020 112868 488631 94168 97347 92011 117585 47566 169810
leaf_count=4143 308410 2445 32346 283729 4500 181777 103186 202178 612 5528 107209 46812 8056 121950 12473 20773 105278 44881 441038 2366 28303 414020 112868 488631 94168 97347 92011 117585 47566 169810
internal_value=-1.47951e-05 0.00814173 -0.0221147 0.00177157 0.0198806 -0.0132692 -0.040847 0.0295138 0.0140945 -0.0347226 -0.00304617 -0.00627843 -0.0229647 0.028646 0.00850614 0.00342851 0.0264483 0.0114159 0.0129251 -0.0437578 0.0358372 0.0121314 -0.0266675 -0.0009351 -0.0217694 -0.0149562 -0.055111 -0.0105313 -0.0020184 -0.00442882
internal_weight=3.702e+06 2.70402e+06 997984 1.75283e+06 951185 677882 320102 356931 594254 223948 1.02184e+06 393881 284001 352431 730995 304502 105890 488364 443483 105552 150253 426493 118396 797041 275945 129693 96154 224794 264188 217376
internal_count=3701999 2704015 997984 1752830 951185 677882 320102 356931 594254 223948 1021835 393881 284001 352431 730995 304502 105890 488364 443483 105552 150253 426493 118396 797041 275945 129693 96154 224794 264188 217376
is_linear=0
shrinkage=0.1


Tree=25
num_leaves=31
num_cat=0
split_feature=3 1 1 2 2 26 5 19 5 19 1 1 17 1 2 19 19 19 2 19 1 2 19 13 3 21 2 19 3 3
split_gain=54786.4 19057.8 9624.86 6259.04 4684.49 3067.83 1985.3 1761.69 1713.04 1540.72 1483.69 1369.24 1299.17 1155.4 1141.26 1129.95 1124.25 1065.04 1064.72 898.477 948.059 860.108 826.417 756.831 750.668 745.435 715.144 934.417 687.193 683.608
threshold=27.750000000000004 30.350000000000005 24.750000000000004 24.450000000000003 25.450000000000003 13.5 15.65 26.850000000000005 2.3500000000000001 23.950000000000003 32.550000000000004 28.850000000000005 1.3500000000000016 32.850000000000001 22.850000000000005 27.450000000000003 27.350000000000005 25.950000000000003 18.150000000000002 26.550000000000004 28.650000000000002 27.150000000000002 25.550000000000004 4.5000000000000009 19.150000000000002 2.3500000000000001 26.950000000000003 28.650000000000002 32.850000000000001 30.750000000000004
decision_type=2 2 2 2 2 2 2 2 2 2 2 2 2 2 2 2 2 2 2 2 2 2 2 2 2 2 2 2 2 2
left_child=2 3 18 6 8 15 14 -6 9 -3 26 16 -7 25 -2 -4 -5 -13 24 20 -16 -12 -22 -8 -1 -11 27 -9 -10 -21
right_child=1 4 5 11 7 12 23 10 28 13 21 17 -14 -15 19 -17 -18 -19 -20 29 22 -23 -24 -25 -26 -27 -28 -29 -30 -31
leaf_value=-0.15220953453917632 -0.0084582692645221429 0.10855849039500541 -0.025642645077169582 0.0032783241297141812 0.092975572319323296 0.0012266523036544585 -0.0074518663388838773 0.021391140797109201 -0.0026636753314095239 0.0096008430345557033 0.029013099826978896 0.040382625277812612 -0.014300061069943025 0.02491867007578084 -0.0036660487662004411 -0.1498282821943388 -0.021918997768308746 0.0092819629763370819 -0.03717734764166581 -0.021462385330960912 0.015385292811420355 0.048520453555254139 0.0021150261720957321 -0.021452714580326326 -0.051207914283245906 0.024361257785270703 0.027277087348976065 0.0061668462865388076 0.012539488523697793 -0.0037290683312311427
leaf_weight=743 263533 1739 232368 353553 3794 68956 70697 133954 100300 271604 121907 11253 246648 80265 252421 735 18641 512006 122069 32013 57724 27747 250939 85065 76500 39146 98973 57672 42257 67731
leaf_count=743 263533 1739 232368 353553 3794 68956 70697 133954 100300 271604 121907 11253 246648 80265 252421 735 18641 512006 122069 32013 57724 27747 250939 85065 76500 39146 98973 57672 42257 67731
internal_value=5.43702e-06 0.00612534 -0.0241703 0.000470946 0.0175315 -0.0173338 -0.00465403 0.0251251 0.0112325 0.0146406 0.0245404 0.00665285 -0.0109076 0.0142229 -0.00289414 -0.0260342 0.00201634 0.0099508 -0.0429914 -0.000675203 0.000879468 0.0326299 0.00459674 -0.015098 -0.0521794 0.0114603 0.0203744 0.0168092 0.00184287 -0.00942061
internal_weight=3.70295e+06 2.95493e+06 748019 1.97558e+06 979358 548707 1.08012e+06 444047 535311 392754 440253 895453 315604 391015 924361 233103 372194 523259 199312 660828 561084 149654 308663 155762 77243 310750 290599 191626 142557 99744
internal_count=3702953 2954934 748019 1975576 979358 548707 1080123 444047 535311 392754 440253 895453 315604 391015 924361 233103 372194 523259 199312 660828 561084 149654 308663 155762 77243 310750 290599 191626 142557 99744
is_linear=0
shrinkage=0.1


Tree=26
num_leaves=31
num_cat=0
split_feature=3 1 3 3 3 26 26 17 26 5 19 19 5 3 1 5 5 17 3 19 19 19 17 3 19 17 19 19 19 19
split_gain=44758.4 17807.7 5207.67 4744.11 4522.43 2764.49 2564.56 2174.97 1737.51 1564.78 1431.72 1326.07 1209.37 1091.56 940.769 924.262 914.323 819.321 804.639 804.619 783.427 766.224 699.669 819.717 709.348 683.748 666.104 630.705 621.13 619.768
threshold=27.050000000000004 29.950000000000003 23.950000000000003 33.250000000000007 30.150000000000002 15.433333333333337 18.033333333333385 2.7000000000000015 14.166666666666686 0.45000000000000007 23.950000000000003 24.850000000000005 4.2500000000000009 30.550000000000004 22.050000000000004 1.4500000000000002 10.250000000000002 1.3500000000000016 31.650000000000002 29.050000000000004 26.750000000000004 27.050000000000004 4.0500000000000016 31.250000000000004 26.150000000000002 3.699999999999998 25.150000000000002 26.750000000000004 25.950000000000003 26.450000000000003
decision_type=2 2 2 2 2 2 2 2 2 2 2 2 2 2 2 2 2 2 2 2 2 2 2 2 2 2 2 2 2 2
left_child=2 4 14 6 5 16 10 17 -6 25 -3 -9 18 -8 -1 -7 20 -4 -12 22 -2 -15 24 27 -10 -5 -16 -24 -19 -11
right_child=1 3 7 9 8 15 13 11 19 29 12 -13 -14 21 26 -17 -18 28 -20 -21 -22 -23 23 -25 -26 -27 -28 -29 -30 -31
leaf_value=-0.063844798052151819 -0.0098679539961731063 0.072310360427389364 -0.0015258654515005927 0.060762679221424934 -0.0020708943287517374 0.0032963499430189898 0.0098136436685423781 -0.026008473659853284 0.03952661142943896 0.087805419964529008 0.0049687139511506309 -0.082466305120211969 -0.0021193871345226386 0.049997100031444114 -0.03643755711112965 -0.0052225968388029745 -0.02205839761513435 -0.015148273394920801 0.013247527600638038 -0.064017053197776633 -0.06703393437129089 0.020454110849744488 0.0028963343321271968 0.0090366273896078427 0.011205683120967546 0.031588050760446879 -0.077449866703756809 -0.011854417727791416 -0.069476005112256545 0.01833579792738875
leaf_weight=14580 226067 3304 53386 8637 380858 190686 119597 167794 9569 1294 262971 4266 133135 9161 169337 383478 97084 151995 212078 1612 2423 210555 202217 245316 116714 114899 4055 33837 2134 169914
leaf_count=14580 226067 3304 53386 8637 380858 190686 119597 167794 9569 1294 262971 4266 133135 9161 169337 383478 97084 151995 212078 1612 2423 210555 202217 245316 116714 114899 4055 33837 2134 169914
internal_value=4.89332e-06 0.00468243 -0.0258361 0.0139655 -0.00143575 -0.0065674 0.0105293 -0.0190952 0.00322746 0.0250501 0.00666061 -0.0274083 0.00630397 0.0175013 -0.0394481 -0.00239336 -0.0139285 -0.0122024 0.00866466 0.00653951 -0.0104742 0.0216859 0.00672668 0.00498868 0.0133517 0.0336278 -0.0373967 0.000781898 -0.0159005 0.0188609
internal_weight=3.70295e+06 3.13541e+06 567547 1.24554e+06 1.88986e+06 899738 950801 379575 990123 294744 611488 172060 608184 339313 187972 574164 325574 207515 475049 609265 228490 219716 607653 481370 126283 123536 173392 236054 154129 171208
internal_count=3702953 3135406 567547 1245545 1889861 899738 950801 379575 990123 294744 611488 172060 608184 339313 187972 574164 325574 207515 475049 609265 228490 219716 607653 481370 126283 123536 173392 236054 154129 171208
is_linear=0
shrinkage=0.1


Tree=27
num_leaves=31
num_cat=0
split_feature=3 1 3 2 17 2 3 19 19 18 28 19 19 18 2 19 1 1 19 3 19 17 19 3 28 28 28 3 1 3
split_gain=36965.4 10602.1 10101 4016.52 3337.26 2179.08 1737.72 1551 1342.2 1265.26 1255.15 1211.57 1202.32 1173.65 1153.68 972.617 952.151 929.993 914.845 901.312 732.573 958.354 761.784 1015.59 726.078 701.034 630.91 583.383 580.645 546.173
threshold=28.850000000000005 31.050000000000004 25.750000000000004 24.850000000000005 3.199999999999998 26.450000000000003 22.550000000000004 27.950000000000003 25.850000000000005 1.0366028708133974 2.2137389487888997 24.750000000000004 25.950000000000003 0.88811764705882357 25.750000000000004 27.350000000000005 33.650000000000013 29.350000000000005 27.850000000000005 26.950000000000003 24.750000000000004 2.199999999999998 26.150000000000002 27.750000000000004 3.1759661446427061 2.7631645246295542 2.5533362411465994 20.750000000000004 29.250000000000004 33.95000000000001
decision_type=2 2 2 2 2 2 2 2 2 2 2 2 2 2 2 2 2 2 2 2 2 2 2 2 2 2 2 2 2 2
left_child=2 3 6 13 19 9 25 -7 -6 11 -8 -3 -5 15 18 17 29 26 28 -4 -21 -22 23 -23 -12 27 -2 -1 -14 -13
right_child=1 5 4 12 8 7 10 -9 -10 -11 24 16 14 -15 -16 -17 -18 -19 -20 20 21 22 -24 -25 -26 -27 -28 -29 -30 -31
leaf_value=-0.07835814671920914 -0.0069384929151500817 0.097389275663796571 -0.010519843034122449 0.033591252159458823 -0.016471714315904079 0.11189718225725508 -0.035369680278640563 0.026518242003003047 -0.053428970139194315 -0.0044672352597104181 -0.021896822423131873 0.011925227011751027 0.0027583878150989958 -0.0073187608520105217 0.012893822767367544 -0.016669527458023504 0.026421780658489144 0.005210555631983884 -0.011772956155960209 0.0096206837842663061 0.0038789852584559244 -0.018283955448218536 -0.023573436750306327 8.4899078710354249e-05 0.0048335227393722993 -0.029852819890319765 0.00070131580433608742 -0.044547800035127767 0.010461727688431129 0.023376705258354211
leaf_weight=5614 142148 1808 152308 18877 267293 2156 81061 162064 10202 33487 143556 324362 230463 217218 290893 30929 66078 379348 31110 52312 114295 41988 26332 106303 10936 34670 451209 56104 170044 47785
leaf_count=5614 142148 1808 152308 18877 267293 2156 81061 162064 10202 33487 143556 324362 230463 217218 290893 30929 66078 379348 31110 52312 114295 41988 26332 106303 10936 34670 451209 56104 170044 47785
internal_value=4.40399e-06 0.00651201 -0.0153356 0.00287154 -0.00905656 0.0177132 -0.0299206 0.0276392 -0.0178304 0.0142708 -0.0252922 0.0156968 0.00867729 -0.000654115 0.00802636 0.000788324 0.0153598 0.00134343 0.00474588 -0.00412339 -0.00126833 -0.00323991 -0.0078994 -0.00511617 -0.0200047 -0.0412314 -0.00112892 -0.0476233 0.00602901 0.0133956
internal_weight=3.70295e+06 2.59998e+06 1.10297e+06 1.96224e+06 771033 637740 331941 164220 277495 473520 235553 440033 741387 1.22085e+06 722510 1.00363e+06 438225 972705 431617 493538 341230 288918 174623 148291 154492 96388 593357 61718 400507 372147
internal_count=3702953 2599979 1102974 1962239 771033 637740 331941 164220 277495 473520 235553 440033 741387 1220852 722510 1003634 438225 972705 431617 493538 341230 288918 174623 148291 154492 96388 593357 61718 400507 372147
is_linear=0
shrinkage=0.1


Tree=28
num_leaves=31
num_cat=0
split_feature=2 1 3 1 6 2 1 2 19 5 19 1 19 19 1 5 19 1 19 19 3 28 19 3 2 19 28 5 19 21
split_gain=30434 10281.2 7384.83 3030.4 2381.65 2378.79 1541.07 1318.21 1250.87 1196.53 1166.61 1017.22 976.713 919.71 1136.24 872.943 1017.92 809.959 794.665 780.315 716.087 715.306 683.464 745.954 653.889 859.406 646.847 611.562 563.293 558.446
threshold=22.450000000000003 29.850000000000005 26.150000000000002 32.250000000000007 4.5000000000000009 24.250000000000004 23.550000000000004 25.650000000000002 26.450000000000003 2.3500000000000001 25.750000000000004 34.850000000000001 27.850000000000005 24.750000000000004 27.350000000000005 16.750000000000004 25.550000000000004 31.650000000000002 27.350000000000005 28.550000000000004 34.150000000000013 2.0604932465842616 26.150000000000002 30.750000000000004 23.550000000000004 27.250000000000004 2.3655488712929413 15.450000000000001 26.950000000000003 6.6500000000000012
decision_type=2 2 2 2 2 2 2 2 2 2 2 2 2 2 2 2 2 2 2 2 2 2 2 2 2 2 2 2 2 2
left_child=2 5 6 7 17 13 26 10 -5 11 -3 20 21 -2 -15 16 -7 28 -9 29 -10 -8 -16 -24 -12 -26 -1 -6 -4 -18
right_child=1 3 4 8 27 15 12 18 9 -11 24 -13 -14 14 22 -17 19 -19 -20 -21 -22 -23 23 -25 25 -27 -28 -29 -30 -31
leaf_value=-0.047942380009443328 0.0053273878120394256 0.025086493837990716 -0.0038688637798102786 0.081344118412195812 -0.012859981021801995 0.021466185698584703 -0.032544105360745208 0.040308492806627821 0.017248155976354384 0.0029762150794426 -0.0010632466239437718 0.041008894486762787 -0.15533051255222732 -0.016785508120225435 -0.0019634463713489982 -0.0064457101071959044 0.0023196764269206097 0.010435521577596609 0.013486271913129453 -0.031313179243445614 0.029791590637214729 -0.020007142830725563 -0.018561864199046121 -0.0036954773107166525 0.011716785190415184 0.0023258514590385661 -0.031144601472849188 -0.024920794020881411 -0.05564980555412509 0.0082590053168318973
leaf_weight=37239 88584 31308 232542 3387 205954 33695 57701 11463 177624 35452 125814 26799 556 78836 421511 80838 559544 44091 303447 6308 61192 215403 59135 78633 203794 186749 59637 52826 2120 220771
leaf_count=37239 88584 31308 232542 3387 205954 33695 57701 11463 177624 35452 125814 26799 556 78836 421511 80838 559544 44091 303447 6308 61192 215403 59135 78633 203794 186749 59637 52826 2120 220771
internal_value=3.96359e-06 0.0051715 -0.0159008 0.0123347 -0.00841356 3.61172e-05 -0.0267625 0.00930727 0.0209119 0.0202321 0.00634292 0.0225352 -0.0229255 -0.00422078 -0.00554627 0.00346891 0.00444595 -0.00200012 0.0144626 0.00371688 0.0204622 -0.0226559 -0.00396199 -0.0100767 0.00520646 0.00722625 -0.0376016 -0.015322 -0.00433667 0.00400006
internal_weight=3.70295e+06 2.79488e+06 908069 1.16703e+06 537533 1.62786e+06 370536 862575 304454 301067 547665 265615 273660 726699 638115 901156 820318 278753 314910 786623 238816 273104 559279 137768 516357 390543 96876 258780 234662 780315
internal_count=3702953 2794884 908069 1167029 537533 1627855 370536 862575 304454 301067 547665 265615 273660 726699 638115 901156 820318 278753 314910 786623 238816 273104 559279 137768 516357 390543 96876 258780 234662 780315
is_linear=0
shrinkage=0.1


Tree=29
num_leaves=31
num_cat=0
split_feature=3 1 3 28 6 28 5 3 6 1 22 23 3 28 5 28 3 1 23 1 23 23 3 28 3 28 6 16 15 26
split_gain=25185.7 7824.43 6597.36 3125.93 2489.82 2021.67 1708.37 1347.31 849.07 838.612 825.856 759.665 948.825 759.083 754.024 745.633 784.082 731.528 699.369 601.072 593.381 517.572 494.844 479.682 456.045 453.273 434.869 427.64 418.201 414.821
threshold=29.350000000000005 26.150000000000002 32.250000000000007 3.0179798934972673 1.5000000000000002 2.7942232213214351 1.8500000000000003 22.850000000000005 5.5000000000000009 29.650000000000002 26.116666666666671 27.178571428571434 30.850000000000005 2.1575426144600001 0.15000000000000005 2.9932260026422193 34.050000000000004 34.750000000000007 24.846428571428579 21.250000000000004 26.046428571428574 28.521428571428576 30.850000000000005 2.6426160634996907 26.650000000000002 2.7376037666723927 3.5000000000000004 6.1499999999999995 1.0000000180025095e-35 26.733333333333348
decision_type=2 2 2 2 2 2 2 2 2 2 2 2 2 2 2 2 2 2 2 2 2 2 2 2 2 2 2 2 2 2
left_child=1 7 3 6 17 9 28 19 -7 18 -6 12 20 -9 27 16 21 -4 24 -1 23 -12 -16 -8 -3 -21 -26 -5 -2 -15
right_child=2 5 4 14 10 8 11 13 -10 -11 15 -13 -14 29 22 -17 -18 -19 -20 25 -22 -23 -24 -25 26 -27 -28 -29 -30 -31
leaf_value=-0.069116873180572122 -0.0050626714262872376 -0.018633198430729758 0.022145917970360862 0.01186473947083835 0.062404083739144668 0.001051227339496848 -0.0071025827784512137 -0.028365813221288918 -0.006633661476833648 -0.0027373712377353181 0.0083937581695824309 -0.013764683759906053 0.0016219486120474449 -0.0168598756091617 0.0041261179146436624 0.021785756555265989 0.018531188883710414 0.042845626470163184 -0.024181930695553064 -0.036114838150237173 -0.011447370844463156 -0.0031398957710508804 0.01173400139375004 0.0020446332553644086 -0.0011585851845936121 -0.022677801132507416 -0.012443542586710593 0.023513575722138462 0.0059783339085575362 0.011049338284321839
leaf_weight=4403 37348 74913 175632 94753 3061 288611 117348 70013 286477 75275 286704 56483 393501 157449 216777 50117 69195 18911 60173 72178 114516 45017 141172 112089 47595 38493 120859 47220 421158 5512
leaf_count=4403 37348 74913 175632 94753 3061 288611 117348 70013 286477 75275 286704 56483 393501 157449 216777 50117 69195 18911 60173 72178 114516 45017 141172 112089 47595 38493 120859 47220 421158 5512
internal_value=3.56723e-06 -0.011196 0.00607658 0.00288741 0.0146925 -0.00651332 0.00021902 -0.02403 -0.00277696 -0.0121856 0.0106372 -0.00258765 -0.00173158 -0.0196573 0.00957247 0.0102859 0.00884834 0.0241581 -0.0145286 -0.0328828 -0.0055682 0.00682856 0.0071266 -0.00263381 -0.0121419 -0.0314412 -0.00925509 0.0157391 0.00507898 -0.0159159
internal_weight=3.70295e+06 1.30195e+06 2.401e+06 1.75236e+06 648637 953903 1.25244e+06 348048 575088 378815 454094 793937 737454 232974 499922 451033 400916 194543 303540 115074 343953 331721 357949 229437 243367 110671 168454 141973 458506 162961
internal_count=3702953 1301951 2401002 1752365 648637 953903 1252443 348048 575088 378815 454094 793937 737454 232974 499922 451033 400916 194543 303540 115074 343953 331721 357949 229437 243367 110671 168454 141973 458506 162961
is_linear=0
shrinkage=0.1


Tree=30
num_leaves=31
num_cat=0
split_feature=2 3 3 5 5 6 21 18 2 19 19 19 3 17 3 19 3 17 19 19 19 2 5 19 6 19 2 19 19 19
split_gain=20615 6376.52 5503.21 2928.22 2197.06 1893.42 1444.8 1263.7 998.393 1645.12 923.908 876.159 800.319 698.648 794.891 1005.9 669.237 744.842 677.149 667.886 607.025 591.175 583.101 509.727 504.153 495.825 470.546 468.907 460.546 454.26
threshold=22.750000000000004 32.050000000000004 26.250000000000004 1.4500000000000002 0.45000000000000007 4.5000000000000009 3.0500000000000003 0.44564393939393948 24.750000000000004 26.750000000000004 25.950000000000003 26.250000000000004 22.150000000000002 4.9999999999999991 33.750000000000007 28.650000000000002 30.450000000000003 5.0500000000000016 24.650000000000002 25.750000000000004 26.550000000000004 26.750000000000004 15.250000000000002 24.050000000000004 1.5000000000000002 27.250000000000004 18.350000000000005 25.950000000000003 27.250000000000004 21.650000000000002
decision_type=2 2 2 2 2 2 2 2 2 2 2 2 2 2 2 2 2 2 2 2 2 2 2 2 2 2 2 2 2 2
left_child=2 3 7 6 21 29 23 10 9 16 12 -6 -1 28 15 -15 18 -18 -5 -10 22 27 -7 -2 -25 -11 -9 -3 -13 -4
right_child=1 4 5 8 11 20 -8 26 19 25 -12 13 -14 14 -16 -17 17 -19 -20 -21 -22 -23 -24 24 -26 -27 -28 -29 -30 -31
