tree
version=v4
num_class=1
num_tree_per_iteration=1
label_index=0
max_feature_idx=38
objective=regression
feature_names=station_lat station_lng distance_km temperature_2m_max temperature_2m_min apparent_temperature_mean weathercode rain_sum precipitation_hours location_lat location_lng elevation_x hour day month year day_of_year day_of_week is_weekend month_sin month_cos day_sin day_cos district_encoded keyword_encoded city_encoded temp_range apparent_diff rain_intensity temp_lag_1 temp_lag_7 rain_lag_1 wind_lag_1 wind_lag_7 temp_rolling_3 temp_rolling_7 wind_rolling_3 wind_rolling_7 wind_log
feature_infos=[6:9.7000050000000009] [79.800020000000004:81.800020000000004] [0.47972228134306388:15509.211184420628] [20.100000000000001:37] [13.4:29] [18.5:36.700000000000003] [0:65] [0:131.5] [0:24] [5.9195355000000003:25.9296854] [-80.154572200000004:81.877943900000005] [0:1281] none [1:31] [1:12] [2010:2023] [31:366] [0:6] [0:1] [-1:1] [-1:1] [-0.99999073973619013:0.99999073973619013] [-0.99996295911626554:1] [0:29] [0:11] [1:29] [1.0999999999999979:14.500000000000002] [-1.2999999999999972:7.0999999999999979] [0:7.7352941176470589] [18.199999999999999:31.100000000000001] [18.199999999999999:31.100000000000001] [0:131.5] [3.2000000000000002:43.200000000000003] [3.2000000000000002:43.200000000000003] [18.199999999999999:30.699999999999999] [19.128571428571426:29.814285714285713] [3.2000000000000002:42.799999999999997] [4.6285714285714281:38.071428571428569] [1.4350845252893227:3.7887247890836524]
tree_sizes=5514 5640 5647 5629 5640 5664 5650 5658 5644 5662 5661 5674 5680 5658 5680 5687 5663 5680 5689 5691 5711 5693 5691 5711 5705 5700 5730 5729 5731 5709 5719 5708 5741 5714 5698 5727 5725 5740 5720 5731 5735 5707 5736 5742 5718 5741 5743 5702 5737 5735 5702 5721 5717 5729 5731 5740 5736 5752 5729 5723 5756 5766 5770 5752 5754 5763 5791 5726 5761 5774 5809 5773 5760 5741 5776 5802 5799 5789 5820 5800 5805 5817 5811 5817 5812 5843 5821 5846 5859 5876 5853 5860 5875 5894 5884 5855 5868 5904 5853 5915 5889 5914 5902 5922 5879 5876 5945 5914 5933 5913 5917 5954 5887 5899 5929 5934 5927 5946 5951 5977 5946 5937 5937 5954 5955 5970 5935 5966 6002 5990 6006 6036 5988 5988 6010 6004 6048 6023 6015 6029 6028 6043 6032 6015 6075 6051 6024 6037 6041 6063 6021 6042 6055 6051 6079 6047 6070 6054 6102 6058 6113 6044 6091 6073

Tree=0
num_leaves=63
num_cat=0
split_feature=7 7 7 7 7 7 7 3 7 7 7 7 7 7 7 7 7 7 7 7 7 7 7 7 7 7 7 7 7 7 7 3 7 0 7 7 7 7 7 7 7 7 7 7 7 7 7 7 7 7 7 7 7 7 7 7 7 7 3 7 0 7
split_gain=2.66725e+07 5.97657e+06 5.29356e+06 1.45759e+06 877594 790342 751669 587299 136350 128642 112246 99226.2 91570 81698.2 74906.7 41884.4 20373.3 18449.1 16646.6 14508.6 12748.7 12065.7 11932 11675.5 11443.7 10292.7 9546.37 9494.71 9483.27 8221.93 4936.34 3138.73 2583.49 2091.6 2007.98 1947.22 1909.18 1837.33 1834.23 1809.74 1792.16 1751.44 1699.76 1607.98 1573.15 1559.94 1427.15 1424.74 1388.89 1378.3 1303.34 1036.31 1021.48 862.707 856.004 773.749 770.825 619.671 551.551 445.612 408.213 380.855
threshold=19.250000000000004 6.7500000000000009 45.100000000000009 72.15000000000002 29.950000000000003 2.4500000000000006 12.550000000000002 24.050000000000004 36.550000000000004 57.250000000000007 4.4500000000000011 24.100000000000005 0.95000000000000007 9.4500000000000011 15.750000000000002 84.600000000000009 40.95000000000001 26.850000000000005 52.600000000000009 32.850000000000001 8.1500000000000004 3.3500000000000001 10.850000000000003 5.5500000000000007 62.750000000000007 17.650000000000002 1.6500000000000001 21.850000000000005 0.35000000000000003 14.350000000000003 47.300000000000004 31.050000000000004 38.800000000000004 7.7999992500000008 31.550000000000001 20.750000000000004 11.750000000000002 28.700000000000006 3.8500000000000001 34.500000000000007 43.500000000000007 16.650000000000002 2.8500000000000001 7.4500000000000011 25.650000000000002 6.0500000000000007 2.0500000000000003 50.000000000000007 10.15 13.450000000000001 5.0500000000000007 1.3500000000000003 8.8500000000000032 0.65000000000000002 14.900000000000002 18.350000000000005 0.15000000000000005 22.750000000000004 25.350000000000005 42.050000000000004 6.8500022500000011 37.300000000000004
decision_type=2 2 2 2 2 2 2 2 2 2 2 2 2 2 2 2 2 2 2 2 2 2 2 2 2 2 2 2 2 2 2 2 2 2 2 2 2 2 2 2 2 2 2 2 2 2 2 2 2 2 2 2 2 2 2 2 2 2 2 2 2 2
left_child=1 5 4 9 11 12 13 -5 19 18 21 27 28 20 29 31 32 44 30 34 43 42 48 50 -11 41 51 35 56 49 -4 -9 61 -17 -6 -2 -24 -19 -23 -21 59 -16 -7 -3 -13 -25 -28 -32 -15 -8 -12 -14 -22 -30 -31 -27 -1 -29 -20 -18 -26 -10
right_child=2 6 3 7 8 10 14 15 16 24 23 17 26 22 25 33 40 37 58 39 52 38 36 45 60 55 46 57 53 54 47 -33 -34 -35 -36 -37 -38 -39 -40 -41 -42 -43 -44 -45 -46 -47 -48 -49 -50 -51 -52 -53 -54 -55 -56 -57 -58 -59 -60 -61 -62 -63
leaf_value=5.8079348403263893 6.8106815327498458 6.162780828933383 8.1496288873812031 12.382291192070905 7.3344624662475217 5.9388684062826469 6.4585515677465741 9.5859699082264367 7.6604992976247903 8.7601859449748929 6.0441955453642251 7.0483232059855556 5.8647983125759389 6.2968688496618617 6.619053619768426 10.227291268364851 7.8895337880839547 7.1966495922289297 8.6520232586341024 7.4839477655201296 6.2345664273287902 5.9864628878700863 6.3687798142626937 6.0964797795238841 9.14979111577696 6.7127870833765684 5.8993573443188119 6.9232435975463398 5.8324571335816788 6.5353034036708202 8.2698118237507234 9.847291344658796 7.8093478597934105 10.677291268364851 7.4188994364706922 6.8726781228648868 6.4144509031510752 7.2762669878143873 6.0135463501547992 7.5704694934484129 8.034483627049692 6.6662337960898528 5.962748211439151 6.1974923887751103 7.1206321890655975 6.1246912188883353 5.9205730114451525 8.355334129741653 6.3328643904044224 6.5009864329454228 6.0732881438532784 5.8821122341599095 6.2623123710242705 5.8474493200867039 6.5735620457949562 6.7493706274756651 5.8194613547120895 6.9662679796317226 8.5294872422286403 7.9552848192425127 9.2672910394830144 7.7156280164241755
leaf_weight=80836 2193 7046 693 268 1559 13156 3011 772 466 171 10027 2437 22097 6760 3742 332 437 1317 112 987 6663 13226 5626 8664 94 2803 17351 1281 21362 2211 1210 135 812 28 1284 2998 3857 1611 11855 1559 634 4147 17187 6337 1088 11279 14594 815 4440 5250 6249 14194 6606 17421 4316 2984 17676 2414 510 628 346 956
leaf_count=80836 2193 7046 693 268 1559 13156 3011 772 466 171 10027 2437 22097 6760 3742 332 437 1317 112 987 6663 13226 5626 8664 94 2803 17351 1281 21362 2211 1210 135 812 28 1284 2998 3857 1611 11855 1559 634 4147 17187 6337 1088 11279 14594 815 4440 5250 6249 14194 6606 17421 4316 2984 17676 2414 510 628 346 956
internal_value=6.11294 5.99731 7.54348 8.94823 7.23099 5.89622 6.39361 10.2558 7.6136 8.44024 6.01834 6.99846 5.84178 6.27152 6.59666 9.80598 7.83743 7.14769 8.31821 7.45023 6.21365 5.9736 6.34608 6.08679 9.10729 6.68101 5.88912 6.89009 5.81825 6.51866 8.26481 9.62487 7.73819 10.2623 7.3726 6.84649 6.38736 7.24046 5.99926 7.53693 7.96793 6.64385 5.95239 6.17922 7.07064 6.11244 5.90905 8.30423 6.31114 6.48552 6.05537 5.87157 6.24838 5.83919 6.5606 6.73165 5.81 6.95135 8.55155 7.92831 9.24219 7.69756
internal_weight=403120 372973 30147 5486 24661 297174 75799 1535 9322 3951 91643 15339 205531 47335 28464 1267 3933 6453 3340 5389 26652 55424 20683 36219 611 13676 68236 8886 137295 14788 2718 907 2234 360 2843 5191 9483 2928 25081 2546 1699 7889 30343 13383 3525 19943 31945 2025 11200 8261 16276 36291 13269 38783 6527 5787 98512 3695 622 1065 440 1422
internal_count=403120 372973 30147 5486 24661 297174 75799 1535 9322 3951 91643 15339 205531 47335 28464 1267 3933 6453 3340 5389 26652 55424 20683 36219 611 13676 68236 8886 137295 14788 2718 907 2234 360 2843 5191 9483 2928 25081 2546 1699 7889 30343 13383 3525 19943 31945 2025 11200 8261 16276 36291 13269 38783 6527 5787 98512 3695 622 1065 440 1422
is_linear=0
shrinkage=1


Tree=1
num_leaves=63
num_cat=0
split_feature=7 7 7 7 7 7 7 3 7 7 7 7 7 7 7 7 7 7 7 7 7 7 7 7 7 7 7 7 7 7 7 7 3 7 7 7 0 7 7 7 7 7 7 7 7 7 7 3 7 7 7 7 7 7 7 7 7 7 7 0 7 7
split_gain=2.40727e+07 5.21947e+06 4.92449e+06 1.31547e+06 855387 695564 653020 530037 147249 116099 96428.8 82675.9 78720.1 74463.4 62463.7 37800.6 18897.3 18386.9 15024.5 12496 12122.4 10919.1 10777.4 10694.2 10327.9 10163.7 9688.91 8361.94 6998.49 6176.78 3957.08 3034.92 2832.7 2331.6 2018.15 1924.51 1887.67 1831.12 1720.56 1617.42 1438.27 1427.56 1413.85 1411.55 1408.85 1395.21 1349.87 1329.3 1236.6 1205.59 1149.67 1145.04 1040.34 958.561 897 894.859 740.819 558.561 402.165 368.412 355.74 343.722
threshold=18.950000000000003 6.6500000000000012 45.100000000000009 72.15000000000002 29.150000000000002 2.4500000000000006 12.450000000000001 24.050000000000004 36.550000000000004 57.250000000000007 4.4500000000000011 0.8500000000000002 23.450000000000003 9.3500000000000032 15.750000000000002 84.600000000000009 32.250000000000007 40.95000000000001 51.250000000000007 8.0500000000000025 26.250000000000004 3.4500000000000006 1.5500000000000003 21.100000000000005 62.750000000000007 10.850000000000003 5.4500000000000011 14.15 17.350000000000005 0.25000000000000006 47.300000000000004 33.600000000000001 31.050000000000004 38.800000000000004 2.9500000000000006 22.300000000000001 7.7999992500000008 1.9500000000000002 30.800000000000001 43.500000000000007 5.9500000000000011 7.2500000000000009 11.550000000000002 28.050000000000004 10.050000000000002 19.950000000000003 13.250000000000002 26.650000000000002 16.650000000000002 3.9500000000000006 14.900000000000002 8.6500000000000004 24.750000000000004 1.1500000000000001 4.9500000000000011 50.000000000000007 0.55000000000000016 18.150000000000002 42.050000000000004 6.8500022500000011 7.6500000000000012 37.300000000000004
decision_type=2 2 2 2 2 2 2 2 2 2 2 2 2 2 2 2 2 2 2 2 2 2 2 2 2 2 2 2 2 2 2 2 2 2 2 2 2 2 2 2 2 2 2 2 2 2 2 2 2 2 2 2 2 2 2 2 2 2 2 2 2 2
left_child=1 5 4 9 12 11 13 -5 16 18 21 29 23 19 27 32 38 33 30 41 52 34 53 45 -11 44 54 46 48 -1 -4 -18 -9 61 -7 -25 -17 -24 -6 58 -28 -3 -27 -22 -15 -2 -8 -20 -16 -23 -29 -21 -14 -13 -12 -32 -31 -30 -19 -26 -43 -10
right_child=2 6 3 7 8 10 14 15 17 24 26 22 20 25 28 36 31 39 47 51 43 49 37 35 59 42 40 50 57 56 55 -33 -34 -35 -36 -37 -38 -39 -40 -41 -42 60 -44 -45 -46 -47 -48 -49 -50 -51 -52 -53 -54 -55 -56 -57 -58 -59 -60 -61 -62 -63
leaf_value=-0.28878616718771383 0.62651876660974704 0.037163229975636702 1.9348563110329544 5.9558853149414066 1.1377527162655077 -0.16290559216130485 0.31822313498102983 3.2993803152766255 1.4701831269161896 2.5148854908190277 -0.067524680974240456 -0.24327618751517979 0.86430301888766525 0.16918083725656785 0.48080973566566032 3.9086353302001955 1.2768339529455421 1.6877658961839481 2.3384108788626534 0.10598667690981281 1.0019316596076602 -0.11554779012032063 -0.20752645903097122 0.73917313978212695 2.8850103378295899 0.24060092673972072 -0.019683859013811717 0.39752382336585651 0.55592424988917188 -0.27138179477220897 2.049029954799936 1.377732130149405 3.5476356506347657 1.6115892537121703 -0.13828136317616677 0.79987733760977131 4.3361354827880865 -0.1852594159773468 1.2153093087373221 1.8254681918147235 0.0074111345503993344 0.062103165211411293 0.28064828261516322 1.0774002891739989 0.20405584841902025 0.68472600200754075 0.36178397282515423 2.2018424974169051 0.52223824884923775 -0.092055063048085736 0.43759277030425126 0.13601984052559327 0.91911952022243948 -0.22726750979940988 -0.042791736518253326 2.1211612681398866 -0.25769848659366507 0.58895243219827209 1.7502294212389904 2.9966352462768557 0.083215723865147362 1.5225554408388657
leaf_weight=90840 1773 5167 693 268 2144 16470 2689 772 466 171 8574 16904 1843 5600 3742 332 1255 437 490 4908 1470 12342 18561 2834 94 5036 8386 3059 2097 21863 1210 1835 135 812 16817 2421 28 18371 1073 634 11775 4925 3919 1071 5997 2455 5252 280 3473 9795 4316 8981 1632 20927 6404 667 18065 3286 628 346 3354 956
leaf_count=90840 1773 5167 693 268 2144 16470 2689 772 466 171 8574 16904 1843 5600 3742 332 1255 437 490 4908 1470 12342 18561 2834 94 5036 8386 3059 2097 21863 1210 1835 135 812 16817 2421 28 18371 1073 634 11775 4925 3919 1071 5997 2455 5252 280 3473 9795 4316 8981 1632 20927 6404 667 18065 3286 628 346 3354 956
internal_value=3.98622e-10 -0.111958 1.33344 2.69353 1.04355 -0.206734 0.258254 3.93571 1.39817 2.21094 -0.0912856 -0.257604 0.809264 0.146207 0.450472 3.50839 1.24844 1.63827 2.09501 0.0921442 0.950739 -0.132367 -0.215664 0.719513 2.84464 0.218113 -0.026489 0.382637 0.532941 -0.281582 2.03696 1.33675 3.33633 1.54399 -0.150465 0.76714 3.94189 -0.19645 1.16362 1.76224 -0.00385907 0.0577857 0.258127 1.03374 0.187215 0.660317 0.347033 2.28875 0.500752 -0.105153 0.420973 0.125407 0.890047 -0.234421 -0.0569499 2.07466 -0.265191 0.576086 1.7246 2.97279 0.0706563 1.50539
internal_weight=403120 371895 31225 5486 25739 296094 75801 1535 10240 3951 90563 205531 15499 47887 27914 1267 6307 3933 3340 27335 6016 55424 74763 9483 611 20552 35139 15316 12598 130768 2570 3090 907 2234 33287 5255 360 36932 3217 1699 20161 13446 8955 2541 11597 4228 7941 770 7215 22137 7375 13889 3475 37831 14978 1877 39928 5383 1065 440 8279 1422
internal_count=403120 371895 31225 5486 25739 296094 75801 1535 10240 3951 90563 205531 15499 47887 27914 1267 6307 3933 3340 27335 6016 55424 74763 9483 611 20552 35139 15316 12598 130768 2570 3090 907 2234 33287 5255 360 36932 3217 1699 20161 13446 8955 2541 11597 4228 7941 770 7215 22137 7375 13889 3475 37831 14978 1877 39928 5383 1065 440 8279 1422
is_linear=0
shrinkage=0.05


Tree=2
num_leaves=63
num_cat=0
split_feature=7 7 7 7 7 7 7 3 7 7 7 7 7 7 7 7 7 7 7 7 7 7 7 7 7 7 7 7 7 7 7 7 3 7 7 7 7 0 7 7 7 7 7 7 7 7 7 7 7 7 7 7 7 7 7 7 7 3 7 7 4 7
split_gain=2.17261e+07 4.62644e+06 4.515e+06 1.18722e+06 803246 615900 580602 478359 132893 104779 92142 76879.1 67106.2 65713.9 55445.4 34115.1 17054.8 16594.2 13605.5 11641.1 11498 10940.4 10647.2 9774 9320.97 8827.34 7632.51 7347.41 6294.38 5587.55 4014.26 2739.02 2556.51 2104.27 1940.95 1736.87 1719.05 1703.62 1552.81 1482.6 1459.73 1391.91 1386.4 1301.18 1298.36 1186.64 1152.15 1134.75 1073.08 1015.5 1008.56 992.499 941.115 938.902 865.101 648.507 634.171 482.775 362.954 351.628 333.574 310.208
threshold=18.750000000000004 6.5500000000000007 45.100000000000009 72.15000000000002 29.150000000000002 2.3500000000000001 12.250000000000002 24.050000000000004 36.550000000000004 57.250000000000007 4.3500000000000005 23.450000000000003 9.2500000000000018 0.8500000000000002 15.550000000000002 84.600000000000009 32.250000000000007 40.95000000000001 52.600000000000009 21.100000000000005 3.2500000000000004 26.250000000000004 7.9500000000000011 10.65 62.750000000000007 5.4500000000000011 1.5500000000000003 14.050000000000002 17.150000000000002 0.35000000000000003 47.300000000000004 33.600000000000001 31.050000000000004 38.800000000000004 3.7500000000000004 22.300000000000001 19.950000000000003 7.7999992500000008 30.800000000000001 9.9500000000000011 43.500000000000007 13.000000000000002 2.7500000000000004 7.0500000000000007 27.650000000000002 11.550000000000002 50.000000000000007 5.9500000000000011 17.950000000000003 14.900000000000002 1.9500000000000002 8.6500000000000004 4.8500000000000005 24.750000000000004 1.1500000000000001 0.15000000000000005 16.450000000000003 25.350000000000005 42.050000000000004 0.55000000000000016 24.050000000000004 37.300000000000004
decision_type=2 2 2 2 2 2 2 2 2 2 2 2 2 2 2 2 2 2 2 2 2 2 2 2 2 2 2 2 2 2 2 2 2 2 2 2 2 2 2 2 2 2 2 2 2 2 2 2 2 2 2 2 2 2 2 2 2 2 2 2 2 2
left_child=1 5 4 9 11 13 12 -5 16 18 20 19 22 29 27 32 38 33 30 36 42 53 43 39 -11 52 54 41 56 55 -4 -18 -9 61 -22 -21 -2 -17 -6 -14 58 -8 -7 -3 -23 -25 -32 -27 -30 -29 -28 -24 -12 -13 -15 -1 -16 -20 -19 -31 -26 -10
right_child=2 6 3 7 8 10 14 15 17 24 25 21 23 26 28 37 31 40 57 35 34 44 51 45 60 47 50 49 48 59 46 -33 -34 -35 -36 -37 -38 -39 -40 -41 -42 -43 -44 -45 -46 -47 -48 -49 -50 -51 -52 -53 -54 -55 -56 -57 -58 -59 -60 -61 -62 -63
leaf_value=-0.27531379000531481 0.59075270689481818 0.030659437083323179 1.8381134902932084 5.6580913543701179 1.0808650487839286 -0.16136373249297253 0.29428546956697382 3.1344112524714496 1.3966740059750276 2.3891412433825043 -0.068145185788780982 0.82108785988388022 0.15605448866437269 -0.23111237435334112 0.45094894127390966 3.7132038116455082 1.2129922285497903 1.6033775951551357 2.2952104296003069 0.7022144586668102 -0.11873297470386429 0.94280813626117177 0.098461873210330036 0.2265786074700914 2.8392041004947735 -0.018699665958070256 -0.19715013426957503 0.37501589918747097 0.51136427678803142 -0.25533055350910022 1.9465786303370454 1.3088454829639571 3.3702537536621096 1.531009838498872 -0.092536460013384794 0.75988345987193107 0.6504896953489534 4.1193286895751955 1.1545438515840016 0.19062144675154238 1.7341948840144306 0.33877773342729872 -0.14015320356238564 0.062853019380801428 1.0146028916899297 0.26405701381490632 2.0234856489684687 0.0057568598284950291 0.5517990704697342 0.41238146620990501 -0.17922918615438616 0.12604297739959539 -0.043709574674110269 0.8731635133425395 -0.21590412692059391 -0.26474129327634638 0.48497088282217993 2.1805685252769322 1.6627179771471934 -0.24481356628839246 2.6982599258422852 1.4464276255922837
leaf_weight=80836 2364 5001 693 268 2144 15632 2646 772 466 171 7471 1843 6628 16904 4068 332 1255 437 112 2834 15608 1152 5782 5672 393 8386 18561 3671 3096 14191 1210 1835 135 812 12927 2421 2455 28 1073 5831 634 5237 15191 8428 1389 3365 815 10918 3491 3603 13606 7483 8338 1632 20927 17676 2065 510 628 18065 47 956
leaf_count=80836 2364 5001 693 268 2144 15632 2646 772 466 171 7471 1843 6628 16904 4068 332 1255 437 112 2834 15608 1152 5782 5672 393 8386 18561 3671 3096 14191 1210 1835 135 812 12927 2421 2455 28 1073 5831 634 5237 15191 8428 1389 3365 815 10918 3491 3603 13606 7483 8338 1632 20927 17676 2065 510 628 18065 47 956
internal_value=-7.31042e-10 -0.107449 1.25397 2.55886 0.982085 -0.197035 0.24026 3.73892 1.32826 2.10039 -0.0917576 0.761772 0.135196 -0.246574 0.421882 3.33297 1.18602 1.55636 1.99026 0.677312 -0.129737 0.903202 0.0822484 0.200947 2.7024 -0.0275546 -0.207475 0.357284 0.498855 -0.267503 1.94198 1.26991 3.16951 1.46679 -0.106865 0.728783 0.621185 3.74479 1.10544 0.172232 1.67413 0.323844 -0.15091 0.050864 0.982054 0.240534 1.97753 -0.00486749 0.532794 0.393524 -0.18957 0.114021 -0.0552573 0.845545 -0.2227 -0.273417 0.462404 2.20121 1.63837 -0.249441 2.82415 1.43012
internal_weight=403120 371304 31816 5486 26330 295237 76067 1535 10240 3951 94471 16090 48190 200766 27877 1267 6307 3933 3340 10074 59358 6016 26694 21496 611 35113 69998 15157 12720 130768 2718 3090 907 2234 28535 5255 4819 360 3217 12459 1699 7883 30823 13429 2541 9037 2025 19304 6587 7274 32167 13265 15809 3475 37831 98512 6133 622 1065 32256 440 1422
internal_count=403120 371304 31816 5486 26330 295237 76067 1535 10240 3951 94471 16090 48190 200766 27877 1267 6307 3933 3340 10074 59358 6016 26694 21496 611 35113 69998 15157 12720 130768 2718 3090 907 2234 28535 5255 4819 360 3217 12459 1699 7883 30823 13429 2541 9037 2025 19304 6587 7274 32167 13265 15809 3475 37831 98512 6133 622 1065 32256 440 1422
is_linear=0
shrinkage=0.05


Tree=3
num_leaves=63
num_cat=0
split_feature=7 7 7 7 7 7 7 3 7 7 7 7 7 7 7 7 7 7 7 7 7 7 7 7 7 7 7 7 7 7 7 3 7 7 0 7 7 7 7 7 7 7 7 7 7 3 7 7 7 7 7 7 7 7 7 7 7 7 6 7 0 3
split_gain=1.96081e+07 4.3344e+06 3.9407e+06 1.07146e+06 666656 581114 538120 431719 105812 94563.5 75906.4 74618.2 71993.7 57214 55040.3 30788.9 15003.1 12288.4 11952 11884.5 9392.08 9042.39 8664.27 8412.17 8279.95 7922.8 6967.13 6805.55 6743.1 6674.25 3215.47 2307.25 1790.01 1732.21 1537.52 1505.83 1490.64 1363.79 1350.48 1214.19 1209.96 1196.68 1156.05 1110.17 1106.61 1100.81 1059.07 1015.96 994.367 975.93 964.382 921.787 880.222 773.626 768.509 719.511 665.494 639.904 591.191 586.356 310.763 280.37
threshold=19.150000000000002 6.7500000000000009 45.100000000000009 72.15000000000002 29.800000000000001 2.5500000000000003 12.450000000000001 24.050000000000004 36.550000000000004 57.250000000000007 4.5500000000000007 0.95000000000000007 24.100000000000005 9.4500000000000011 15.750000000000002 84.600000000000009 40.600000000000009 51.250000000000007 32.850000000000001 26.850000000000005 8.1500000000000004 3.5500000000000003 1.7500000000000002 62.750000000000007 21.350000000000005 10.950000000000001 0.35000000000000003 14.15 17.350000000000005 5.6500000000000012 47.300000000000004 31.050000000000004 42.050000000000004 31.550000000000001 7.7999992500000008 3.0500000000000003 10.15 34.500000000000007 22.300000000000001 1.3500000000000003 7.4500000000000011 38.800000000000004 25.650000000000002 20.400000000000002 13.250000000000002 26.650000000000002 28.050000000000004 4.0500000000000007 16.650000000000002 2.1500000000000008 6.1500000000000012 14.900000000000002 5.1500000000000012 8.8500000000000032 11.850000000000003 50.000000000000007 18.350000000000005 0.65000000000000002 27.000000000000004 44.150000000000006 6.8500022500000011 28.850000000000005
decision_type=2 2 2 2 2 2 2 2 2 2 2 2 2 2 2 2 2 2 2 2 2 2 2 2 2 2 2 2 2 2 2 2 2 2 2 2 2 2 2 2 2 2 2 2 2 2 2 2 2 2 2 2 2 2 2 2 2 2 2 2 2 2
left_child=1 5 4 9 12 11 13 -5 18 17 21 26 24 20 27 31 41 30 33 42 40 35 39 -11 43 36 58 44 48 52 -4 61 -18 -6 -17 -7 -15 -20 -26 -13 -3 -10 -14 -2 -8 -19 -21 -23 -16 -24 -31 -29 -12 -22 -27 -32 -30 -28 -1 -34 -25 -9
right_child=2 6 3 7 8 10 14 15 16 23 29 22 19 25 28 34 32 45 37 46 53 47 49 60 38 54 57 51 56 50 55 -33 59 -35 -36 -37 -38 -39 -40 -41 -42 -43 -44 -45 -46 -47 -48 -49 -50 -51 -52 -53 -54 -55 -56 -57 -58 -59 -60 -61 -62 -63
leaf_value=-0.26219174861907962 0.58696810127034693 0.04252608779214033 1.7462077056862748 5.3751865386962896 1.0438467058120169 -0.142181532394421 0.28710380230928806 2.9557182402837849 1.3586168672800401 2.2696841892443209 -0.053971309409147711 -0.21284121835415745 0.80198870656135191 0.157552581826258 0.43404586601868983 3.5275436401367188 1.5115124664247863 2.1111517660958428 1.1752169548196996 0.91840279115020784 0.10412603813965329 -0.099177013239346135 -0.17900067594165503 2.6023232460021974 0.67458137391675121 0.22714831481770204 -0.24052747539808306 0.35889683681673845 0.50938723277250242 -0.0099454284427215739 1.8492496813624362 3.2017410278320315 1.5912400471080435 1.1196291011441906 3.9133621215820313 -0.12063771290941804 0.19218624818841362 1.2503259187175955 0.72742129553604917 -0.1956723244968461 0.07263662838890704 1.4428193639119469 0.86397491097450263 0.63753322939049184 0.32654475632825158 1.9868734427860806 0.98441903293305966 -0.077343785567916074 0.47119573114792213 -0.16119877492878856 0.012933668230095695 0.39477547221541737 -0.029791215622011636 0.12827233235799215 0.26107088869972245 1.9139289835939881 0.5430472228397637 -0.22761556168701774 -0.25361178043042992 1.6654235635128321 2.704843330383301 3.0190120697021485
leaf_weight=70430 2286 7046 693 268 1827 15817 2689 504 1422 171 8512 22097 2437 6760 3742 332 649 490 987 939 6663 11828 14935 94 2073 5183 21362 3059 3477 9262 1210 135 880 1284 28 16648 5749 1559 2902 19285 6337 600 1088 2067 5252 280 1721 9696 3473 15890 9162 4316 6747 6606 2463 667 2542 17421 28082 382 346 268
leaf_count=70430 2286 7046 693 268 1827 15817 2689 504 1422 171 8512 22097 2437 6760 3742 332 649 490 987 939 6663 11828 14935 94 2073 5183 21362 3059 3477 9262 1210 135 880 1284 28 16648 5749 1559 2902 19285 6337 600 1088 2067 5252 280 1721 9696 3473 15890 9162 4316 6747 6606 2463 667 2542 17421 28082 382 346 268
internal_value=-4.93566e-10 -0.0999245 1.21694 2.43091 0.951639 -0.185808 0.238761 3.55197 1.27935 1.99537 -0.0777246 -0.231039 0.749049 0.134411 0.409842 3.16632 1.47854 1.89075 1.14087 0.881328 0.0863386 -0.114472 -0.189892 2.56728 0.661339 0.197979 -0.252679 0.345309 0.484527 -0.0188232 1.83825 3.01104 1.57899 1.07512 3.55755 -0.131134 0.17347 1.22121 0.705404 -0.20484 0.0567838 1.3836 0.821121 0.610979 0.313189 2.06596 0.961115 -0.0893417 0.451928 -0.169824 0.00143203 0.379894 -0.0432797 0.116147 0.238076 1.87223 0.523603 -0.234728 -0.259746 1.61369 2.68294 2.97769
internal_weight=403120 372531 30589 5486 25103 297174 75357 1535 9590 3951 87672 209502 15513 46807 28550 1267 3933 3340 5657 6185 26652 53989 72207 611 9328 20155 137295 15316 13234 33683 2570 907 1911 3111 360 32465 12509 2546 4975 41382 13383 2022 3525 4353 7941 770 2660 21524 7215 30825 18424 7375 15259 13269 7646 1877 6019 38783 98512 1262 440 772
internal_count=403120 372531 30589 5486 25103 297174 75357 1535 9590 3951 87672 209502 15513 46807 28550 1267 3933 3340 5657 6185 26652 53989 72207 611 9328 20155 137295 15316 13234 33683 2570 907 1911 3111 360 32465 12509 2546 4975 41382 13383 2022 3525 4353 7941 770 2660 21524 7215 30825 18424 7375 15259 13269 7646 1877 6019 38783 98512 1262 440 772
is_linear=0
shrinkage=0.05


Tree=4
num_leaves=63
num_cat=0
split_feature=7 7 7 7 7 7 7 3 7 7 7 7 7 7 7 7 7 7 7 7 7 7 7 7 7 7 7 7 7 7 7 3 7 7 7 0 7 7 7 7 7 7 7 7 7 7 7 7 7 7 7 7 7 7 7 7 7 7 3 7 4 3
split_gain=1.76966e+07 3.96524e+06 3.51155e+06 966994 582926 541277 481990 389626 85343.6 79710.2 76910.5 72914.2 67342.9 50525.3 49725.1 27787 11118.9 11024 10697.3 10052.9 9151.85 9136.96 8902.42 7819.5 7591.99 6331.81 6287.83 6007.51 5993.36 5979.21 3264.56 2082.3 1627.76 1530.09 1489.18 1387.61 1359.01 1207.76 1129.6 1114.54 1095.8 1085.09 1064.86 1041.12 992.977 986.447 961.477 954.906 943.212 880.777 825.832 741.052 700.083 679.18 593.122 577.514 542.527 509.538 422.93 282.877 281.099 253.034
threshold=19.250000000000004 6.8500000000000005 45.100000000000009 72.15000000000002 30.250000000000004 2.5500000000000003 12.550000000000002 24.050000000000004 57.250000000000007 37.300000000000004 24.750000000000004 4.6500000000000012 0.95000000000000007 9.6500000000000004 15.950000000000001 84.600000000000009 52.600000000000009 22.100000000000005 33.600000000000001 40.95000000000001 27.450000000000006 8.3500000000000032 3.5500000000000003 1.7500000000000002 62.750000000000007 17.650000000000002 0.35000000000000003 5.7500000000000009 14.350000000000003 11.050000000000002 47.300000000000004 31.050000000000004 23.450000000000003 31.850000000000005 20.750000000000004 7.7999992500000008 3.0500000000000003 43.500000000000007 39.300000000000004 28.700000000000006 1.3500000000000003 4.1500000000000012 35.600000000000009 7.6500000000000012 5.2500000000000009 9.0500000000000025 13.550000000000002 16.650000000000002 50.400000000000006 2.1500000000000008 10.350000000000003 6.2500000000000009 11.850000000000003 15.15 26.250000000000004 0.65000000000000002 0.15000000000000005 18.350000000000005 25.350000000000005 42.050000000000004 24.050000000000004 28.850000000000005
decision_type=2 2 2 2 2 2 2 2 2 2 2 2 2 2 2 2 2 2 2 2 2 2 2 2 2 2 2 2 2 2 2 2 2 2 2 2 2 2 2 2 2 2 2 2 2 2 2 2 2 2 2 2 2 2 2 2 2 2 2 2 2 2
left_child=1 5 4 8 10 12 13 -5 16 18 17 22 26 21 28 31 30 34 33 38 54 43 36 40 -10 47 56 44 46 50 -4 61 -19 -6 -2 -17 -7 59 -11 -22 -14 -24 -20 -3 -13 -23 -8 -16 -32 -25 -15 -29 -31 -30 -12 -28 -1 -27 -18 -21 -26 -9
right_child=2 6 3 7 9 11 14 15 24 19 20 27 23 29 25 35 58 32 42 37 39 45 41 49 60 57 55 51 53 52 48 -33 -34 -35 -36 -37 -38 -39 -40 -41 -42 -43 -44 -45 -46 -47 -48 -49 -50 -51 -52 -53 -54 -55 -56 -57 -58 -59 -60 -61 -62 -63
leaf_value=-0.24849373508204017 0.56821364519316697 0.047365478194013627 1.6588973024706821 5.1064273834228517 1.0135165444810734 -0.13507245834734299 0.28365246835433044 2.8079322905767534 2.1561999973497894 1.3115818998842554 0.78834811828884432 -0.048038136992075292 -0.20219915091260426 0.15738514240798029 0.41442454790084543 3.3511665344238284 2.0748922075544085 0.68086927293831145 1.1736726699692077 1.4476330874986454 0.8914681026443898 0.10626513557845836 -0.092902215087957277 -0.17005064513797463 2.5626148859659832 0.48864021396534896 -0.22850110974386384 -0.0045729859221576999 0.35025236088452011 0.21876884258386947 1.7622451705447699 3.0416540145874027 0.74090709313709846 1.0853771749362393 0.62137851563274982 3.7176940917968753 -0.1146058301465091 1.5656882087514981 1.3955253405369066 0.95474085385174323 -0.1858887142117604 -0.070680082596646251 1.2464421277418936 0.076124258237311754 -0.023676912641233436 0.1327192977682059 0.31814316850817626 0.45034087291245639 1.8366578269670359 -0.15313883876035317 0.18532246050440995 0.016227153117321091 0.25000850152347609 0.38158626169987092 0.84047181001523663 -0.21623478568617782 -0.23882363365904513 0.51832775206732051 1.9675907748353247 1.5000199943591077 2.4332307815551761 2.868061447143555
leaf_weight=80836 2193 7659 693 268 1317 15817 3523 504 171 1154 1632 8399 22097 4726 3342 332 112 2914 1559 437 1028 8975 13336 14935 393 2803 21362 8264 3336 4479 1416 135 1843 1693 3298 28 16648 634 614 2155 19285 9341 742 5342 8333 5802 4738 4147 609 15890 6008 8887 2991 3591 820 17421 17676 2984 510 628 47 268
leaf_count=80836 2193 7659 693 268 1317 15817 3523 504 171 1154 1632 8399 22097 4726 3342 332 112 2914 1559 437 1028 8975 13336 14935 393 2803 21362 8264 3336 4479 1416 135 1843 1693 3298 28 16648 634 614 2155 19285 9341 742 5342 8333 5802 4738 4147 609 15890 6008 8887 2991 3591 820 17421 17676 2984 510 628 47 268
internal_value=-7.81336e-10 -0.094185 1.16524 2.30937 0.91072 -0.175598 0.232281 3.37438 1.8956 1.23771 0.730001 -0.0723158 -0.219487 0.132183 0.393982 3.00801 1.79621 0.648414 1.11598 1.4242 0.878379 0.0897543 -0.107787 -0.180397 2.43892 0.464667 -0.240045 -0.01459 0.332196 0.196927 1.75257 2.86049 0.70413 1.05394 0.600145 3.37967 -0.124577 1.51105 1.34073 0.934306 -0.194598 -0.0837486 1.19714 0.0591822 -0.0359056 0.116652 0.303434 0.434313 1.78462 -0.161333 0.173022 0.00620486 0.231277 0.366496 0.805779 -0.222991 -0.246759 0.503948 1.98691 1.47852 2.54879 2.82881
internal_weight=403120 372973 30147 5486 24661 298527 74446 1535 3951 8778 15883 89025 209502 45982 28464 1267 3340 10248 5311 3467 5635 27778 55142 72207 611 13276 137295 33883 15188 18204 2718 907 4757 3010 5491 360 32465 1699 1768 3183 41382 22677 2301 13001 16732 14777 8261 7489 2025 30825 10734 17151 7470 6927 2452 38783 98512 5787 622 1065 440 772
internal_count=403120 372973 30147 5486 24661 298527 74446 1535 3951 8778 15883 89025 209502 45982 28464 1267 3340 10248 5311 3467 5635 27778 55142 72207 611 13276 137295 33883 15188 18204 2718 907 4757 3010 5491 360 32465 1699 1768 3183 41382 22677 2301 13001 16732 14777 8261 7489 2025 30825 10734 17151 7470 6927 2452 38783 98512 5787 622 1065 440 772
is_linear=0
shrinkage=0.05


Tree=5
num_leaves=63
num_cat=0
split_feature=7 7 7 7 7 7 7 3 7 7 7 7 7 7 7 7 7 7 7 7 7 7 7 7 7 7 7 7 7 7 7 7 3 7 7 7 7 0 7 7 7 7 7 7 7 3 7 7 7 7 7 7 7 7 7 7 7 7 7 7 0 6
split_gain=1.59718e+07 3.4013e+06 3.31873e+06 872712 590816 452921 426589 351638 97629.3 77022.5 67689.1 56413.6 49337.8 48321.6 40779.6 25077.7 12562.7 12224.6 10038.3 8579.35 8486.96 7977.43 7845.93 7235.26 6851.77 6479.47 5630.88 5465.6 4645.54 4122.03 2614.65 1990.03 1879.27 1471.68 1432.19 1276.08 1263.63 1252.32 1135.68 1096.85 1092.09 1026.03 986.655 977.793 937.654 916.176 915.639 904.231 881.269 787.681 785.083 738.465 703.244 647.292 596.145 504.214 490.872 469.065 452.972 266.354 262.143 246.716
threshold=18.750000000000004 6.5500000000000007 45.100000000000009 72.15000000000002 29.150000000000002 2.3500000000000001 12.250000000000002 24.050000000000004 36.550000000000004 57.250000000000007 4.3500000000000005 23.450000000000003 9.2500000000000018 0.8500000000000002 15.550000000000002 84.600000000000009 32.250000000000007 40.600000000000009 51.250000000000007 21.100000000000005 3.2500000000000004 26.250000000000004 7.8500000000000005 10.65 62.750000000000007 5.3500000000000005 1.5500000000000003 13.950000000000001 17.150000000000002 0.25000000000000006 47.300000000000004 33.600000000000001 31.050000000000004 43.500000000000007 3.7500000000000004 19.950000000000003 22.300000000000001 7.7999992500000008 30.800000000000001 9.8500000000000032 5.9500000000000011 2.7500000000000004 8.4500000000000011 38.800000000000004 27.650000000000002 26.650000000000002 14.550000000000002 11.350000000000003 13.000000000000002 7.0500000000000007 17.950000000000003 1.8500000000000003 24.750000000000004 1.1500000000000001 50.000000000000007 41.70000000000001 0.55000000000000016 4.7500000000000009 16.350000000000005 34.800000000000004 6.8500022500000011 27.000000000000004
decision_type=2 2 2 2 2 2 2 2 2 2 2 2 2 2 2 2 2 2 2 2 2 2 2 2 2 2 2 2 2 2 2 2 2 2 2 2 2 2 2 2 2 2 2 2 2 2 2 2 2 2 2 2 2 2 2 2 2 2 2 2 2 2
left_child=1 5 4 9 11 13 12 -5 16 18 20 19 22 29 27 32 38 43 30 35 41 52 49 39 -11 57 53 48 58 61 -4 -18 -9 55 -22 -2 -21 -17 -6 -14 -27 -7 -24 -10 -23 -20 -29 -25 -8 -3 -30 -28 -13 -15 -32 -19 -31 -12 -16 -33 -26 -1
right_child=2 6 3 7 8 10 14 15 17 24 25 21 23 26 28 37 31 33 45 36 34 44 42 47 60 40 51 46 50 56 54 59 -34 -35 -36 -37 -38 -39 -40 -41 -42 -43 -44 -45 -46 -47 -48 -49 -50 -51 -52 -53 -54 -55 -56 -57 -58 -59 -60 -61 -62 -63
leaf_value=-0.2366574764251709 0.50635680361649305 0.026229224281772524 1.5759525215126908 4.8511058807373049 0.92685847820630718 -0.13839663122699594 0.25199379985835274 2.6873657928229613 1.2261742205559454 2.0483899769030121 -0.061028937746114766 0.70386174492259035 0.13226872196419479 -0.19824853714500848 0.38446745382040415 3.1836080551147461 1.0405177428712882 1.3511057517867595 1.9059883335658485 0.60228572869351327 -0.10175733079151397 0.80824358169403343 0.079579652964207145 0.19075284097596384 2.3473109245300292 -0.017896623833848335 -0.17122569407875687 0.31625695853022279 0.43852896041956368 -0.221018949088471 1.6686748827784517 1.0918463913170067 2.8895713806152346 1.4874038118669288 -0.079254524712128405 0.55782492284133822 0.65147476076144217 3.5318096160888675 0.98986863761112609 0.16195734626273056 0.0049047750026348621 -0.12014982069969241 0.10652570306722915 1.3022871850331625 0.86925572120001893 1.7926105867113387 0.3504978516067252 0.22238696258234075 0.2881796714677049 0.05187478712505892 0.47311463741203053 -0.15592634226905716 0.74893070839199372 -0.18509338451547186 1.7275487213477918 1.4171124590958337 -0.20988064199215881 -0.042411059974760766 0.41187790907139993 1.1341677439058921 2.4414703369140627 -0.23041428748209769
leaf_weight=70430 2364 5001 693 268 2144 15632 2646 772 1422 171 5654 1843 6015 16904 3466 332 1255 443 490 2834 15608 1152 5603 4570 94 10118 13854 3547 3096 21863 1210 518 135 634 12927 2455 2421 28 1073 6444 10918 15191 8629 600 1389 280 4343 4467 4621 7461 3491 18313 1632 20927 667 834 18065 8423 2667 1317 346 20410
leaf_count=70430 2364 5001 693 268 2144 15632 2646 772 1422 171 5654 1843 6015 16904 3466 332 1255 443 490 2834 15608 1152 5603 4570 94 10118 13854 3547 3096 21863 1210 518 135 634 12927 2455 2421 28 1073 6444 10918 15191 8629 600 1389 280 4343 4467 4621 7461 3491 18313 1632 20927 667 834 18065 8423 2667 1317 346 20410
internal_value=-1.6301e-09 -0.092127 1.07516 2.1939 0.842059 -0.168941 0.206009 3.20566 1.13895 1.80082 -0.0786609 0.653111 0.115951 -0.211423 0.361689 2.85761 1.01703 1.33446 1.7064 0.580761 -0.111213 0.774263 0.0705516 0.172329 2.31697 -0.0236327 -0.177895 0.306289 0.427702 -0.229369 1.65895 1.08904 2.71746 1.42513 -0.0915631 0.532577 0.624947 3.21069 0.947875 0.147624 -0.00606236 -0.129404 0.0959173 1.24876 0.841595 1.86476 0.335105 0.20639 0.275004 0.0415832 0.456859 -0.162516 0.725028 -0.190971 1.6896 1.39421 -0.21598 -0.0498889 0.396387 1.12222 2.42135 -0.235255
internal_weight=403120 371304 31816 5486 26330 295237 76067 1535 10240 3951 94471 16090 48190 200766 27877 1267 6307 3933 3340 10074 59358 6016 26694 21496 611 35113 69998 15157 12720 130768 2570 3090 907 1911 28535 4819 5255 360 3217 12459 21036 30823 14232 2022 2541 770 7890 9037 7267 12462 6587 32167 3475 37831 1877 1277 39928 14077 6133 1835 440 90840
internal_count=403120 371304 31816 5486 26330 295237 76067 1535 10240 3951 94471 16090 48190 200766 27877 1267 6307 3933 3340 10074 59358 6016 26694 21496 611 35113 69998 15157 12720 130768 2570 3090 907 1911 28535 4819 5255 360 3217 12459 21036 30823 14232 2022 2541 770 7890 9037 7267 12462 6587 32167 3475 37831 1877 1277 39928 14077 6133 1835 440 90840
is_linear=0
shrinkage=0.05


Tree=6
num_leaves=63
num_cat=0
split_feature=7 7 7 7 7 7 7 3 7 7 7 7 7 7 7 7 7 7 7 7 7 7 7 7 7 7 7 7 7 7 7 3 7 7 7 7 0 7 7 7 7 7 7 7 7 7 7 7 7 7 7 7 7 7 7 7 3 7 7 7 7 4
split_gain=1.44146e+07 3.12537e+06 2.94819e+06 787623 512690 416795 390799 317353 81962.5 69512.9 63502.2 53236.8 44646.8 43610.3 37405.8 22632.7 11037 9783.49 9086.09 7659.48 7610.85 7501.28 7490.76 6264.67 6183.72 6124.44 5082.63 5017.91 4195.45 3720.13 2654.94 1696.04 1472.5 1435.47 1295.99 1194.71 1130.22 990.488 981.474 959.526 925.991 894.754 894.355 884.236 872.466 865.986 848.028 828.432 773.492 727.111 720.553 690.544 636.335 618.115 443.013 408.287 370.786 345.377 315.725 237.711 237.279 236.87
threshold=18.950000000000003 6.6500000000000012 45.100000000000009 72.15000000000002 29.650000000000002 2.3500000000000001 12.450000000000001 24.050000000000004 36.550000000000004 57.250000000000007 4.3500000000000005 24.100000000000005 9.3500000000000032 0.8500000000000002 15.750000000000002 84.600000000000009 40.95000000000001 32.850000000000001 52.600000000000009 3.2500000000000004 21.350000000000005 26.850000000000005 8.0500000000000025 5.4500000000000011 62.750000000000007 10.850000000000003 1.4500000000000002 14.15 17.350000000000005 0.25000000000000006 47.300000000000004 31.050000000000004 30.800000000000001 39.300000000000004 3.8500000000000001 20.250000000000004 7.7999992500000008 34.800000000000004 43.500000000000007 22.300000000000001 2.7500000000000004 7.3500000000000005 1.8500000000000003 6.0500000000000007 25.250000000000004 11.550000000000002 10.050000000000002 13.250000000000002 50.400000000000006 8.7500000000000018 16.650000000000002 15.050000000000002 4.9500000000000011 28.050000000000004 0.55000000000000016 1.1500000000000001 25.350000000000005 18.250000000000004 37.300000000000004 42.050000000000004 19.550000000000004 24.050000000000004
decision_type=2 2 2 2 2 2 2 2 2 2 2 2 2 2 2 2 2 2 2 2 2 2 2 2 2 2 2 2 2 2 2 2 2 2 2 2 2 2 2 2 2 2 2 2 2 2 2 2 2 2 2 2 2 2 2 2 2 2 2 2 2 2
left_child=1 5 4 9 11 13 12 -5 17 18 19 20 22 29 27 31 33 32 30 40 35 44 41 52 -11 46 55 47 50 -1 -4 -9 -6 58 -21 60 -17 -19 59 -22 -7 -3 -28 -25 -13 -27 -14 -8 -32 -24 -16 -29 -12 -23 -31 -15 -20 -30 -10 -18 -2 -26
right_child=2 6 3 7 8 10 14 15 16 24 23 21 25 26 28 36 38 37 56 34 39 53 49 43 61 45 42 51 57 54 48 -33 -34 -35 -36 -37 -38 -39 -40 -41 -42 -43 -44 -45 -46 -47 -48 -49 -50 -51 -52 -53 -54 -55 -56 -57 -58 -59 -60 -61 -62 -63
leaf_value=-0.22349201032686003 0.48005447523837258 0.032757717706010978 1.4971548950173295 4.608550643920899 0.88592427374962102 -0.13147679422901012 0.2458949142780921 2.5529974685431762 1.1352786469357208 1.9459705051622895 -0.053303089015094729 0.68410145449872661 0.13086378047721728 -0.18833610962281225 0.37221228304806403 3.0244276046752931 1.3061404226028128 1.0150491946494318 1.8758481706891741 -0.095439569948469916 0.57896169346424331 0.78724872723174177 0.085256967336311273 -0.013578727333777475 2.3129736640677807 0.18618517328198703 -0.1639217249824316 0.3105150817762985 0.43207081682157561 -0.20996800952853448 1.5902709232211789 2.7450927734375004 0.95199878978080488 1.2597918923592335 -0.073555130791054232 0.54296773802791853 3.3552188873291016 1.0774593126619958 1.4130336183854835 0.62350131231369765 -0.11414233075804162 0.058630803191882776 -0.1481300189696492 0.0073652020711183312 0.73501422659464466 0.21752724801438533 0.15792122946315079 0.28002035257385965 1.6576569777991386 0.10814814922678682 0.40383628230942037 0.34111494560007832 -0.032868777439323982 0.83929860127521894 -0.19938660449279566 -0.17739648440186798 1.7753790043849571 0.45747784756249871 1.1840411412653933 1.354163423161598 0.51042410832077045 2.194203758239746
leaf_weight=90840 1401 7241 693 268 1762 15632 2689 772 466 171 9405 2137 5600 16904 3742 332 437 1229 112 17511 2073 939 6732 9962 393 5036 17566 3705 2482 21863 1416 135 1617 614 11024 2399 28 1317 634 2902 15191 6205 18313 10199 1388 3919 5997 5252 609 7157 3473 3670 6404 1453 18065 17215 510 2901 1154 628 1189 47
leaf_count=90840 1401 7241 693 268 1762 15632 2689 772 466 171 9405 2137 5600 16904 3742 332 437 1229 112 17511 2073 939 6732 9962 393 5036 17566 3705 2482 21863 1416 135 1617 614 11024 2399 28 1317 634 2902 15191 6205 18313 10199 1388 3919 5997 5252 609 7157 3473 3670 6404 1453 18065 17215 510 2901 1154 628 1189 47
internal_value=-3.15239e-10 -0.0866355 1.03184 2.0842 0.807543 -0.159974 0.19984 3.04537 1.09078 1.71078 -0.0738844 0.631728 0.113162 -0.200851 0.348539 2.71473 1.26773 0.973315 1.62108 -0.105652 0.561182 0.750524 0.0712994 -0.0214612 2.20112 0.16884 -0.169 0.296045 0.412358 -0.217901 1.58163 2.58159 0.917544 1.19469 -0.0869849 0.517545 3.05016 1.04733 1.36378 0.604942 -0.122934 0.0446975 -0.155861 -0.00298366 0.704149 0.199901 0.144856 0.268465 1.61054 0.0970528 0.387435 0.325742 -0.0450254 0.818866 -0.205181 -0.182816 1.79347 0.445763 1.17001 1.33446 0.493996 2.30029
internal_weight=403120 371895 31225 5486 25739 296094 75801 1535 9858 3951 95328 15881 47887 200766 27914 1267 3933 5925 3340 59358 9964 5917 27335 35970 611 20552 69998 15316 12598 130768 2718 907 3379 2234 28535 4989 360 2546 1699 4975 30823 13446 35879 20161 3525 8955 11597 7941 2025 13889 7215 7375 15809 2392 39928 34119 622 5383 1620 1065 2590 440
internal_count=403120 371895 31225 5486 25739 296094 75801 1535 9858 3951 95328 15881 47887 200766 27914 1267 3933 5925 3340 59358 9964 5917 27335 35970 611 20552 69998 15316 12598 130768 2718 907 3379 2234 28535 4989 360 2546 1699 4975 30823 13446 35879 20161 3525 8955 11597 7941 2025 13889 7215 7375 15809 2392 39928 34119 622 5383 1620 1065 2590 440
is_linear=0
shrinkage=0.05


Tree=7
num_leaves=63
num_cat=0
split_feature=7 7 7 7 7 7 7 7 7 7 7 7 7 7 7 7 7 7 7 7 7 7 7 7 7 7 7 7 7 7 7 7 3 4 7 7 7 0 7 7 7 7 7 7 7 7 7 7 7 7 7 7 7 7 7 17 7 7 7 3 3 6
split_gain=1.30094e+07 2.7705e+06 2.70356e+06 756894 443765 358358 358346 324775 75282.9 54979.3 38993.2 37288.9 36672.2 36522 29533.8 23313.3 11223.8 8466.43 6667.44 6326.06 6199.54 6041.15 5933.15 5611.74 4919.17 4911.17 4765.99 4738.24 4719.14 4565.13 2569.85 1842.44 1530.68 1340.57 1312.37 1240.12 1091.52 1020.02 838.359 811.315 774.032 748.34 745.347 740.393 738.771 711.331 709.07 701.851 690.84 686.791 598.326 591.73 566.614 560.074 553.071 524.33 517.688 514.18 274.88 242.577 228.364 222.659
threshold=18.750000000000004 6.4500000000000011 44.150000000000006 68.450000000000017 28.700000000000006 2.2500000000000004 12.15 114.45000000000002 35.600000000000009 4.2500000000000009 9.0500000000000025 15.350000000000003 23.150000000000002 0.75000000000000011 84.600000000000009 52.600000000000009 31.850000000000005 39.300000000000004 3.1500000000000008 7.7500000000000009 72.15000000000002 20.750000000000004 5.3500000000000005 10.450000000000001 17.050000000000004 62.750000000000007 47.300000000000004 25.650000000000002 1.4500000000000002 13.750000000000002 0.25000000000000006 33.600000000000001 31.050000000000004 23.850000000000005 41.70000000000001 21.850000000000005 3.6500000000000008 7.7999992500000008 30.250000000000004 11.250000000000002 8.4500000000000011 2.6500000000000008 5.8500000000000005 13.000000000000002 17.950000000000003 9.7500000000000018 50.000000000000007 27.450000000000006 7.0500000000000007 14.550000000000002 1.8500000000000003 4.7500000000000009 37.300000000000004 1.0500000000000003 19.550000000000004 4.5000000000000009 16.150000000000002 24.350000000000005 0.45000000000000007 24.750000000000004 28.850000000000005 27.000000000000004
decision_type=2 2 2 2 2 2 2 2 2 2 2 2 2 2 2 2 2 2 2 2 2 2 2 2 2 2 2 2 2 2 2 2 2 2 2 2 2 2 2 2 2 2 2 2 2 2 2 2 2 2 2 2 2 2 2 2 2 2 2 2 2 2
left_child=1 5 4 15 12 13 10 14 16 18 19 29 21 30 20 26 38 52 41 48 -5 54 51 45 56 33 55 57 53 43 61 -18 60 59 -19 -23 -20 -16 -6 -25 -21 -7 -24 -8 -26 -12 -28 -29 -3 -31 -30 -11 -10 -15 -2 -4 -13 -14 -32 -17 -22 -1
right_child=2 6 3 7 8 9 11 -9 17 22 23 24 27 28 37 25 31 34 36 40 32 35 42 39 44 -27 46 47 50 49 58 -33 -34 -35 -36 -37 -38 -39 -40 -41 -42 -43 -44 -45 -46 -47 -48 -49 -50 -51 -52 -53 -54 -55 -56 -57 -58 -59 -60 -61 -62 -63
leaf_value=-0.21364998817443848 0.45325770816171024 0.021987205784429205 1.3568162093652745 2.2037481307983398 0.81845381130475181 -0.12774852807441506 0.2235227997357869 4.378123092651367 1.0688339050889337 -0.057137205336058754 0.11467015465821706 0.33502323951834012 0.61626723062353972 -0.18203182370424992 2.8732063293457033 1.8707771301269531 0.93081372486932423 1.2049354539679353 -0.095291767705458816 0.070172015413443992 2.4055173964727494 0.53032030057239088 -0.017452827316394286 0.16282781432485233 0.39450711550712586 2.1172659873962405 1.505727609524057 0.70949846678396544 -0.15572564179650558 0.28180645839265539 -0.20175710266578042 1.0061476294546268 2.6078382492065431 1.6866101867077399 1.2880249982380736 0.5769144126771788 -0.075868316018273485 3.1874580383300781 0.86908968539516762 0.19152040859412878 0.09399687151431442 -0.11210232391739205 0.0020413039432105105 0.2557456704512075 0.42701477055152143 0.13911847162145466 1.5660607088709171 0.7640976948496897 0.045171965368781722 0.31180162763746005 -0.14226803551797526 -0.038192067797826815 1.1248390424189576 -0.1699128421478816 0.49111950282744554 1.4281511743065012 0.36280139215297946 0.65632639082257827 -0.19272722862396782 1.7780961629506704 2.4626401901245121 -0.20771898451884085
leaf_weight=70430 1992 6270 428 346 2155 14813 3781 268 742 8071 6282 2874 1289 16550 332 135 1693 845 15515 6474 504 2998 9012 4908 3500 94 1210 1377 17566 4795 14134 1559 135 510 1086 2727 13550 28 1317 4947 7201 15787 10755 3373 3491 5652 815 1028 6590 3170 15589 8423 1154 22487 1870 647 4028 2116 20876 148 268 20410
leaf_count=70430 1992 6270 428 346 2155 14813 3781 268 742 8071 6282 2874 1289 16550 332 135 1693 845 15515 6474 504 2998 9012 4908 3500 94 1210 1377 17566 4795 14134 1559 135 510 1086 2727 13550 28 1317 4947 7201 15787 10755 3373 3491 5652 815 1028 6590 3170 15589 8423 1154 22487 1870 647 4028 2116 20876 148 268 20410
internal_value=8.5402e-10 -0.0831456 0.970339 1.93956 0.751155 -0.153198 0.183137 2.7663 1.00094 -0.0738772 0.0997429 0.322044 0.579987 -0.191619 2.4985 1.54951 0.90018 1.17797 -0.103387 0.0590431 2.38382 0.519915 -0.0253213 0.149308 0.381178 1.77554 1.48484 0.67911 -0.163269 0.267706 -0.207882 0.966929 2.45251 1.73504 1.25167 0.552515 -0.0862366 2.89765 0.837661 0.177231 0.0827177 -0.119676 -0.00684629 0.238715 0.41074 0.126249 1.53001 0.732837 0.033868 0.293744 -0.149398 -0.0474625 1.10292 -0.175051 0.471591 1.39975 0.351235 0.641162 -0.196373 1.82231 2.42535 -0.212317
internal_weight=403120 371304 31816 5868 25948 293968 77336 1881 10551 95926 48324 29012 15397 198042 1613 3987 6724 3827 59665 26535 1253 9587 36261 21789 13893 887 3100 5810 72192 15119 125850 3252 907 793 1931 5725 29065 360 3472 9855 13675 30600 19767 7154 6991 11934 2025 2405 12860 7965 33155 16494 1896 39037 3862 1075 6902 3405 35010 283 772 90840
internal_count=403120 371304 31816 5868 25948 293968 77336 1881 10551 95926 48324 29012 15397 198042 1613 3987 6724 3827 59665 26535 1253 9587 36261 21789 13893 887 3100 5810 72192 15119 125850 3252 907 793 1931 5725 29065 360 3472 9855 13675 30600 19767 7154 6991 11934 2025 2405 12860 7965 33155 16494 1896 39037 3862 1075 6902 3405 35010 283 772 90840
is_linear=0
shrinkage=0.05


Tree=8
num_leaves=63
num_cat=0
split_feature=7 7 7 7 7 7 7 3 7 7 7 7 7 7 7 7 7 7 7 7 7 7 7 7 7 7 7 7 7 7 7 3 7 7 7 0 7 7 7 7 7 7 7 7 3 7 7 7 7 7 7 7 7 7 7 7 7 6 7 7 1 3
split_gain=1.1741e+07 2.5955e+06 2.35923e+06 641534 399748 339588 330728 258486 63268.5 56611.9 46993.8 43027.2 40330.2 36375 32966.6 18434.4 9031.96 7436.04 7183.08 7028.95 6531.4 6352.18 5040.77 5030.28 4768.09 4456.58 4268.98 4188.73 3753.05 3671.48 1916.3 1381.44 1097.3 1018.26 992.931 920.569 910.468 869.688 845.858 812.918 783.648 739.242 728.628 711.665 701.623 663.303 650.908 643.917 642.352 624.34 522.508 503.343 491.506 477.61 453.42 449.271 385.266 376.098 358.206 269.524 259.734 206.097
threshold=19.150000000000002 6.6500000000000012 45.100000000000009 72.15000000000002 29.800000000000001 2.4500000000000006 12.450000000000001 24.050000000000004 36.550000000000004 57.250000000000007 4.5500000000000007 24.100000000000005 0.95000000000000007 9.4500000000000011 15.950000000000001 84.600000000000009 40.600000000000009 51.250000000000007 32.850000000000001 26.850000000000005 3.4500000000000006 8.0500000000000025 62.750000000000007 21.350000000000005 10.950000000000001 14.350000000000003 1.6500000000000001 0.35000000000000003 17.650000000000002 5.6500000000000012 47.300000000000004 31.050000000000004 43.500000000000007 31.550000000000001 2.9500000000000006 7.7999992500000008 10.15 4.0500000000000007 13.450000000000001 34.500000000000007 22.750000000000004 7.2500000000000009 38.400000000000006 25.250000000000004 26.650000000000002 20.400000000000002 2.0500000000000003 16.950000000000003 8.7500000000000018 28.700000000000006 5.1500000000000012 1.2500000000000002 11.750000000000002 6.1500000000000012 15.15 49.500000000000007 0.65000000000000002 27.000000000000004 41.70000000000001 18.350000000000005 80.500000000000014 28.850000000000005
decision_type=2 2 2 2 2 2 2 2 2 2 2 2 2 2 2 2 2 2 2 2 2 2 2 2 2 2 2 2 2 2 2 2 2 2 2 2 2 2 2 2 2 2 2 2 2 2 2 2 2 2 2 2 2 2 2 2 2 2 2 2 2 2
left_child=1 5 4 9 11 12 13 -5 18 17 20 23 27 21 25 31 42 30 33 43 34 41 -11 45 36 38 51 57 47 50 -4 61 58 -6 -7 -17 -15 -22 -8 -20 -25 -3 -10 -13 -19 -2 -28 -16 -23 -21 -12 -14 -26 -31 -27 -32 -29 -1 -18 -30 -44 -9
right_child=2 6 3 7 8 10 14 15 16 22 29 19 26 24 28 35 32 44 39 49 37 48 -24 40 52 54 46 56 59 53 55 -33 -34 -35 -36 -37 -38 -39 -40 -41 -42 -43 60 -45 -46 -47 -48 -49 -50 -51 -52 -53 -54 -55 -56 -57 -58 -59 -60 -61 -62 -63
leaf_value=-0.20296750068664551 0.45390814687740566 0.025469104909610768 1.3511263324412779 4.1592170715332033 0.80813985870520022 -0.11390171289082072 0.22604633537043486 2.285241708301363 1.0456177881984983 1.7561086253116007 -0.041814515885679908 0.61738093221751011 -0.16629641447385299 0.12178917383653878 0.34075409839332843 2.7295459747314457 1.1591056386719438 1.6353956985473634 0.90986271310359879 0.71868785327369733 -0.078782676684965469 0.076959969754100063 2.0760088357058439 0.52679983592973656 0.17321604614542788 0.28529556239251613 -0.14172126083413597 -0.18611831802987461 0.39789764453290494 -0.0077012421228023764 1.424045806123446 2.4774461746215821 1.2759082959653452 0.86624280968187761 -0.096629583100866556 3.0280851364135746 0.1488564234232774 -0.059562653028360106 0.25767411083948044 0.96785109295456595 0.56650560301201547 0.04957102856128915 1.0872292148788698 0.66336320624914924 1.5361777864183699 0.49299330589098811 -0.1273933878145235 0.37029224417327644 0.098199805299346341 0.76713747917851327 -0.023184716047110941 -0.15451475304354617 0.19878446300239599 0.0089317101514599789 0.31089746600172047 1.4729701486883318 -0.17609956291388251 -0.19612409184014865 1.2147404828517558 0.42038006544300743 1.1471346855163576 2.3395082473754885
leaf_weight=70430 2286 5167 693 268 1827 16470 3539 504 1197 171 8512 2137 17632 6760 4196 332 443 490 987 1317 14977 6732 440 2561 4317 3336 17351 21362 2803 9262 942 135 634 1284 16817 28 5749 9696 5250 1559 2414 8279 557 1388 280 2067 14594 3293 7554 1343 6747 18659 3329 8082 3591 935 17421 28082 834 2542 268 268
leaf_count=70430 2286 5167 693 268 1827 16470 3539 504 1197 171 8512 2137 17632 6760 4196 332 443 490 987 1317 14977 6732 440 2561 4317 3336 17351 21362 2803 9262 942 135 634 1284 16817 28 5749 9696 5250 1559 2414 8279 557 1388 280 2067 14594 3293 7554 1343 6747 18659 3329 8082 3591 935 17421 28082 834 2542 268 268
internal_value=-2.31203e-10 -0.0773226 0.94168 1.88099 0.736405 -0.144378 0.182432 2.74845 0.990174 1.54397 -0.0637117 0.579527 -0.179923 0.102126 0.317129 2.45004 1.1442 1.46302 0.88309 0.68179 -0.0907251 0.0649752 1.98648 0.511721 0.153242 0.268576 -0.148505 -0.195537 0.376585 -0.0156886 1.42218 2.32988 1.22214 0.832121 -0.105176 2.75277 0.134229 -0.0712296 0.244939 0.945371 0.546066 0.0403092 1.07054 0.635487 1.59932 0.472468 -0.135176 0.353742 0.0881909 0.743149 -0.0335771 -0.160239 0.184348 4.94221e-05 0.298568 1.44842 -0.181618 -0.201017 1.19544 0.40859 1.10669 2.30408
internal_weight=403120 372531 30589 5486 25103 296094 76437 1535 9590 3951 90563 15513 205531 47887 28550 1267 3933 3340 5657 6185 57960 27732 611 9328 20155 15716 68236 137295 12834 32603 2570 907 1911 3111 33287 360 12509 24673 8789 2546 4975 13446 2022 3525 770 4353 31945 7489 14286 2660 15259 36291 7646 17344 6927 1877 38783 98512 1277 5345 825 772
internal_count=403120 372531 30589 5486 25103 296094 76437 1535 9590 3951 90563 15513 205531 47887 28550 1267 3933 3340 5657 6185 57960 27732 611 9328 20155 15716 68236 137295 12834 32603 2570 907 1911 3111 33287 360 12509 24673 8789 2546 4975 13446 2022 3525 770 4353 31945 7489 14286 2660 15259 36291 7646 17344 6927 1877 38783 98512 1277 5345 825 772
is_linear=0
shrinkage=0.05


Tree=9
num_leaves=63
num_cat=0
split_feature=7 7 7 7 7 7 7 7 7 7 7 7 7 7 7 7 7 7 7 7 7 7 7 7 7 7 7 7 7 7 7 3 4 7 7 7 7 0 7 7 7 7 7 7 7 7 7 7 7 7 7 7 7 7 17 7 7 7 7 3 3 6
split_gain=1.05965e+07 2.2567e+06 2.20225e+06 616681 361500 291951 291870 264473 58018 44777.5 33177.4 31807.8 30380.1 29758.3 24030.3 18953.9 8239.64 6860.86 5573.05 5444.3 5010.16 4928.19 4874.56 4832.1 4169.66 3994.85 3921.73 3859.88 3847.3 3736.61 2097.8 1246.75 1119.08 1060.27 999.336 982.592 895.139 830.814 737.774 730.853 716.625 707.306 688.556 612.887 609.035 602.642 593.826 578.788 556.936 552.141 546.077 487.015 469.789 454.165 427.491 420.922 409.795 371.633 224.66 196.801 186.002 177.285
threshold=18.750000000000004 6.4500000000000011 44.150000000000006 68.450000000000017 29.000000000000004 2.2500000000000004 12.15 114.45000000000002 35.600000000000009 4.2500000000000009 23.150000000000002 9.1500000000000004 15.350000000000003 0.75000000000000011 84.600000000000009 52.600000000000009 32.250000000000007 39.300000000000004 7.7500000000000009 3.1500000000000008 72.15000000000002 20.950000000000003 26.250000000000004 5.2500000000000009 10.550000000000002 17.050000000000004 62.750000000000007 47.300000000000004 1.4500000000000002 13.750000000000002 0.25000000000000006 31.050000000000004 23.850000000000005 41.70000000000001 33.600000000000001 30.550000000000004 3.6500000000000008 7.7999992500000008 21.850000000000005 5.8500000000000005 8.4500000000000011 19.950000000000003 24.750000000000004 2.6500000000000008 12.850000000000003 17.650000000000002 50.400000000000006 9.8500000000000032 14.550000000000002 7.0500000000000007 11.250000000000002 1.8500000000000003 37.300000000000004 1.0500000000000003 4.5000000000000009 16.150000000000002 27.450000000000006 4.7500000000000009 0.45000000000000007 24.750000000000004 28.850000000000005 27.000000000000004
decision_type=2 2 2 2 2 2 2 2 2 2 2 2 2 2 2 2 2 2 2 2 2 2 2 2 2 2 2 2 2 2 2 2 2 2 2 2 2 2 2 2 2 2 2 2 2 2 2 2 2 2 2 2 2 2 2 2 2 2 2 2 2 2
left_child=1 5 4 15 10 13 11 14 16 19 21 18 29 30 20 27 35 52 49 43 -5 41 42 57 47 55 32 54 53 44 61 60 59 -19 -18 -6 -21 -16 -23 -25 -20 -2 -12 -7 -8 -27 -29 -13 -31 -3 -26 -30 -10 -15 -4 -14 -24 -11 -32 -17 -22 -1
right_child=2 6 3 7 8 9 12 -9 17 23 22 24 25 28 37 26 34 33 40 36 31 38 56 39 50 45 -28 46 51 48 58 -33 -34 -35 -36 -37 -38 -39 -40 -41 -42 -43 -44 -45 -46 -47 -48 -49 -50 -51 -52 -53 -54 -55 -56 -57 -58 -59 -60 -61 -62 -63
leaf_value=-0.19281911849975586 0.41229342634706123 0.019894761345223 1.2247757613101853 1.9897603988647461 0.74563927814115627 -0.1153249631273765 0.19937502483428993 3.9512561798095707 0.96455765207501443 -0.051553667871840694 0.56779173589059728 0.10690886291448845 0.30242177858565034 -0.16427644910553071 2.5930686950683595 1.6894329071044922 0.84801744027916648 1.0874931721433381 0.063389085991389232 -0.08600277205801303 2.1709795088995074 0.48244999556845808 0.65074681712359927 -0.016832395473544575 0.14839756869177353 0.35308850907798101 1.9076022148132326 1.3630109913605082 -0.14053651733237194 0.25440874434362737 -0.18209177293753176 2.3535739898681642 1.5217938071606207 1.1621770237032221 0.90796105168888863 0.79896914973844679 -0.068413216571526339 2.8766809463500977 0.52067598716042007 0.0018637435063667794 0.085769289983283828 0.4519416180039163 0.61014227320750558 -0.10116540810256458 0.22867664310545172 0.38292573238241268 1.422054480566767 0.12921818890160766 0.28141979278450135 0.040621888974005975 0.17285976753539456 -0.12839507780659917 1.0155536066514781 -0.15336329616944522 1.2891872842308176 0.32746961562493826 0.69561715200710084 -0.035965272573791368 -0.17392834777186991 1.6059534730138005 2.2225326538085937 -0.1875268202187792
leaf_weight=70430 2364 6270 428 346 2156 14813 3248 268 742 8071 2330 6651 2874 16550 332 135 1255 845 6474 15515 504 2350 820 10170 4234 2873 94 1416 17566 4795 14134 135 510 1086 1559 1441 13550 28 2727 10755 7993 2146 1632 15787 3906 4118 609 5165 3170 6590 4947 15589 1154 22487 647 4028 1341 7265 20876 148 268 20410
leaf_count=70430 2364 6270 428 346 2156 14813 3248 268 742 8071 2330 6651 2874 16550 332 135 1255 845 6474 15515 504 2350 820 10170 4234 2873 94 1416 17566 4795 14134 135 510 1086 1559 1441 13550 28 2727 10755 7993 2146 1632 15787 3906 4118 609 5165 3170 6590 4947 15589 1154 22487 647 4028 1341 7265 20876 148 268 20410
internal_value=9.2518e-10 -0.07504 0.875743 1.7505 0.677921 -0.138264 0.165286 2.49675 0.909103 -0.0666687 0.527264 0.0900234 0.290648 -0.172943 2.25508 1.39843 0.81714 1.06316 0.0544653 -0.0932999 2.15164 0.469195 0.618184 -0.0228487 0.136301 0.344024 1.60224 1.34012 -0.147352 0.241601 -0.187622 2.21339 1.56604 1.1295 0.881227 0.767004 -0.0778026 2.61513 0.502982 -0.00722298 0.0757541 0.431159 0.585236 -0.10802 0.215373 0.370664 1.38077 0.116661 0.265159 0.0305162 0.161579 -0.134828 0.995596 -0.15799 1.26354 0.31704 0.678591 -0.0441691 -0.177224 1.64578 2.18888 -0.19163
internal_weight=403120 371304 31816 5868 25948 293968 77336 1881 10238 95926 15710 48324 29012 198042 1613 3987 6411 3827 27327 59665 1253 9587 6123 36261 20997 13893 887 3100 72192 15119 125850 907 793 1931 2814 3597 29065 360 5077 20925 14467 4510 3962 30600 7154 6991 2025 11816 7965 12860 9181 33155 1896 39037 1075 6902 2161 15336 35010 283 772 90840
internal_count=403120 371304 31816 5868 25948 293968 77336 1881 10238 95926 15710 48324 29012 198042 1613 3987 6411 3827 27327 59665 1253 9587 6123 36261 20997 13893 887 3100 72192 15119 125850 907 793 1931 2814 3597 29065 360 5077 20925 14467 4510 3962 30600 7154 6991 2025 11816 7965 12860 9181 33155 1896 39037 1075 6902 2161 15336 35010 283 772 90840
is_linear=0
shrinkage=0.05


Tree=10
num_leaves=63
num_cat=0
split_feature=7 7 7 7 7 7 7 3 7 7 7 7 7 7 7 7 7 7 7 7 7 7 7 7 7 7 7 7 7 7 7 3 7 7 0 7 7 7 7 7 7 7 3 7 7 7 7 7 7 7 7 7 7 7 7 7 7 7 7 7 1 4
split_gain=9.56364e+06 2.14306e+06 1.89721e+06 522545 315557 292734 260452 210538 48678.3 46102 39350 36379.9 35556.6 27371 26840 15015 7382.13 6079.28 5865.56 5224.99 4958.41 4868.27 4230.74 4110.79 3988.44 3411.39 3409.9 3277.44 3257.09 3220.68 1560.53 1125.19 909.602 841.443 749.81 736.296 714.32 697.131 614.998 611.934 611.2 596.827 585.796 585.062 542.942 536.78 520.507 512.966 493.447 454.336 428.047 402.914 397.293 392.051 380.469 316.262 316.233 298.205 293.142 289.263 212.447 186.571
threshold=19.250000000000004 6.8500000000000005 45.100000000000009 72.15000000000002 29.950000000000003 2.5500000000000003 12.550000000000002 24.050000000000004 36.550000000000004 57.250000000000007 4.6500000000000012 0.95000000000000007 24.350000000000005 9.6500000000000004 15.950000000000001 84.600000000000009 40.600000000000009 51.250000000000007 27.450000000000006 33.150000000000013 8.3500000000000032 3.5500000000000003 1.7500000000000002 62.750000000000007 21.850000000000005 0.35000000000000003 17.650000000000002 5.7500000000000009 14.450000000000001 11.050000000000002 47.300000000000004 31.050000000000004 43.500000000000007 31.550000000000001 7.7999992500000008 3.0500000000000003 20.400000000000002 25.650000000000002 1.2500000000000002 13.65 4.0500000000000007 38.400000000000006 26.650000000000002 7.5500000000000007 8.9500000000000011 16.650000000000002 5.1500000000000012 34.800000000000004 2.1500000000000008 10.350000000000003 6.3500000000000005 28.700000000000006 11.850000000000003 23.150000000000002 49.500000000000007 0.65000000000000002 0.15000000000000005 15.250000000000002 42.050000000000004 18.350000000000005 80.500000000000014 24.050000000000004
decision_type=2 2 2 2 2 2 2 2 2 2 2 2 2 2 2 2 2 2 2 2 2 2 2 2 2 2 2 2 2 2 2 2 2 2 2 2 2 2 2 2 2 2 2 2 2 2 2 2 2 2 2 2 2 2 2 2 2 2 2 2 2 2
left_child=1 5 4 9 12 11 13 -5 19 17 21 25 24 20 28 31 41 30 37 33 43 35 38 -11 36 56 45 46 39 49 -4 -9 58 -6 -17 -7 -2 -14 -13 -8 -23 -10 -19 -3 -22 -16 -12 -21 -24 -15 -29 -20 -31 -26 -32 -27 -1 -30 -18 -28 -43 -25
right_child=2 6 3 7 8 10 14 15 16 23 27 22 18 29 26 34 32 42 51 47 44 40 48 61 53 55 59 50 57 52 54 -33 -34 -35 -36 -37 -38 -39 -40 -41 -42 60 -44 -45 -46 -47 -48 -49 -50 -51 -52 -53 -54 -55 -56 -57 -58 -59 -60 -61 -62 -63
leaf_value=-0.18274620942178973 0.41403415151376788 0.033037237088065344 1.2193244080866916 3.7536933898925784 0.73258265659853461 -0.099335349702334652 0.21049212205079504 2.0794324578398871 0.94355183308983015 1.5847102817736174 -0.036425745982501083 -0.15015544478059789 0.56284970511560861 0.11569491668469918 0.30437723683568979 2.4634151458740234 1.0552897234359766 1.4765743555341448 0.65517758274820537 0.83099187723670787 0.075944244580292697 -0.069279318759680839 -0.12513774204541497 1.8848574305915347 0.49464220420143568 -0.1679925110487219 0.35885648299573453 -0.001468581299103793 0.26104761400441218 0.16062533396592921 1.2846929122941004 2.2358951568603516 1.152118143749538 0.78509331158046902 2.7328468322753907 -0.084270636390058662 0.45278967256719832 0.6085586938116978 -0.13782922610282897 0.23701430072476992 -0.052846811612483738 0.98122474851899344 1.3859152003696986 0.054254963640383819 0.095118515425844152 0.33130560161580458 -0.018658968279885214 0.87823847283353929 -0.11247938408425502 0.13641671422873927 0.014860570358296799 0.69524133650876219 0.18415887385696442 0.52810552288525969 1.329715506405754 -0.15891521719948487 -0.17536336632976979 0.28255395492968466 1.1032081275988537 0.38122475204774586 1.0354032516479492 1.7794496536254885
leaf_weight=80836 1844 6630 693 268 1559 15817 4184 772 1197 171 7359 17632 2116 4726 3342 332 649 490 1028 1019 7204 11828 14935 393 2727 21362 2803 10745 3449 4479 942 135 634 1494 28 16648 3347 1377 23750 4529 10849 557 280 6371 7573 4147 9373 1317 15890 6008 6406 1611 2991 1289 935 17421 17676 3026 628 2984 268 47
leaf_count=80836 1844 6630 693 268 1559 15817 4184 772 1197 171 7359 17632 2116 4726 3342 332 649 490 1028 1019 7204 11828 14935 393 2727 21362 2803 10745 3449 4479 942 135 634 1494 28 16648 3347 1377 23750 4529 10849 557 280 6371 7573 4147 9373 1317 15890 6008 6406 1611 2991 1289 935 17421 17676 3026 628 2984 268 47
internal_value=6.3476e-10 -0.0692385 0.856606 1.69758 0.669525 -0.12909 0.170766 2.48048 0.898954 1.39342 -0.0531359 -0.161366 0.530094 0.0971849 0.289633 2.21116 1.0327 1.32037 0.623374 0.801345 0.0659562 -0.0791936 -0.132636 1.79275 0.467968 -0.176476 0.341564 -0.010729 0.244239 0.144838 1.28345 2.10272 1.10316 0.758279 2.48437 -0.0916102 0.439023 0.580869 -0.143081 0.224278 -0.0614178 0.966104 1.44361 0.0434348 0.0857708 0.319289 -0.0264731 0.857629 -0.118612 0.127293 0.00463045 0.679635 0.170048 0.505383 1.30712 -0.163915 -0.181422 0.271098 1.07885 0.37039 0.998825 1.8736
internal_weight=403120 372973 30147 5486 24661 298527 74446 1535 9322 3951 89025 209502 15339 45982 28464 1267 3933 3340 6132 5389 27778 55142 72207 611 9207 137295 13276 33883 15188 18204 2570 907 1911 3053 360 32465 5191 3493 41382 8713 22677 2022 770 13001 14777 7489 16732 2336 30825 10734 17151 2639 7470 4016 1877 38783 98512 6475 1277 5787 825 440
internal_count=403120 372973 30147 5486 24661 298527 74446 1535 9322 3951 89025 209502 15339 45982 28464 1267 3933 3340 6132 5389 27778 55142 72207 611 9207 137295 13276 33883 15188 18204 2570 907 1911 3053 360 32465 5191 3493 41382 8713 22677 2022 770 13001 14777 7489 16732 2336 30825 10734 17151 2639 7470 4016 1877 38783 98512 6475 1277 5787 825 440
is_linear=0
shrinkage=0.05


Tree=11
num_leaves=63
num_cat=0
split_feature=7 7 7 7 7 7 7 3 7 7 7 7 7 7 7 7 7 7 7 7 7 7 7 7 7 7 7 7 7 7 7 7 3 7 7 7 7 0 7 7 7 3 7 7 7 7 7 7 7 7 7 7 7 7 7 7 7 7 3 7 4 3
split_gain=8.63134e+06 1.87147e+06 1.76498e+06 471597 307359 244876 238853 190011 49022.9 41607 36597.9 31832.6 26753.9 26141.1 23724.4 13551 6668.37 5860.81 5486.55 4598.71 4423.25 4326.8 4208.15 3996.33 3928.08 3709.99 3080.72 3018.16 2925.75 2222.69 1408.38 1068.49 1015.48 840.548 724.926 704.66 692.541 676.703 608.841 602.625 584.087 528.682 525.276 478.418 477.246 469.772 462.381 460.126 438.651 428.638 413.23 409.922 384.441 376.128 359.951 353.768 346.543 275.138 172.553 170.391 168.38 167.868
threshold=18.950000000000003 6.5500000000000007 45.100000000000009 72.15000000000002 29.650000000000002 2.3500000000000001 12.250000000000002 24.050000000000004 36.550000000000004 57.250000000000007 4.2500000000000009 24.100000000000005 9.1500000000000004 0.8500000000000002 15.550000000000002 84.600000000000009 40.95000000000001 32.250000000000007 51.250000000000007 21.350000000000005 26.850000000000005 5.3500000000000005 10.550000000000002 7.8500000000000005 3.1500000000000008 62.750000000000007 1.5500000000000003 13.950000000000001 17.250000000000004 0.25000000000000006 47.300000000000004 33.600000000000001 31.050000000000004 38.800000000000004 3.6500000000000008 20.250000000000004 11.350000000000003 7.7999992500000008 43.500000000000007 5.9500000000000011 22.300000000000001 26.650000000000002 25.250000000000004 14.900000000000002 13.000000000000002 9.7500000000000018 8.4500000000000011 30.800000000000001 18.050000000000004 7.2500000000000009 1.9500000000000002 2.7500000000000004 4.7500000000000009 28.050000000000004 1.2500000000000002 16.450000000000003 50.000000000000007 0.55000000000000016 25.350000000000005 35.250000000000007 24.050000000000004 28.850000000000005
decision_type=2 2 2 2 2 2 2 2 2 2 2 2 2 2 2 2 2 2 2 2 2 2 2 2 2 2 2 2 2 2 2 2 2 2 2 2 2 2 2 2 2 2 2 2 2 2 2 2 2 2 2 2 2 2 2 2 2 2 2 2 2 2
left_child=1 5 4 9 11 13 12 -5 17 18 24 19 23 29 27 32 33 47 30 35 42 52 45 49 51 -11 54 44 55 -1 -4 -19 61 -10 -26 -2 -24 -17 -18 -23 -21 58 -13 -29 -8 -14 -25 -6 -30 -3 -28 -7 -12 -22 -15 -16 -32 -31 -20 -33 -27 -9
right_child=2 6 3 7 8 10 14 15 16 25 21 20 22 26 28 37 38 31 41 40 53 39 36 46 34 60 50 43 48 57 56 59 -34 -35 -36 -37 -38 -39 -40 -41 -42 -43 -44 -45 -46 -47 -48 -49 -50 -51 -52 -53 -54 -55 -56 -57 -58 -59 -60 -61 -62 -63
leaf_value=-0.17295188451065258 0.38222191859396271 0.020871080127934302 1.158358196159462 3.5660087585449221 0.68573020308296473 -0.10185229345057981 0.18495320501601437 1.958458909534273 0.90111038983287362 1.5054747280321623 -0.046449004455786071 0.52947280352284098 0.09459495469086375 -0.14411130331176328 0.28404834688354502 2.3402444839477541 1.032625306447347 0.76544575014912275 1.4572548593793597 0.44797276606378039 0.60845539643487745 -0.013236152137114047 0.13768064284817869 0.058643058960977761 -0.077594906317200396 1.7906145717048159 -0.12424644395764434 0.23526030001118658 0.32579662053312786 -0.16257063985138087 1.225813290304389 0.81452255717275968 2.1241004943847659 0.96487282908021532 -0.061765798490425766 0.41983175514240278 0.16382630935098494 2.5962045669555667 1.0945122670676055 0.0037016123688497766 0.48272295098400053 1.3166194125584194 0.56897726900639378 0.25997774007417679 0.21158225230906491 0.11458427675758553 0.077376196046026482 0.72726212938811774 0.3516781246269855 0.039427371449946763 -0.11277534335076274 -0.089635229943157688 -0.031178596651881038 0.64905788552244204 -0.13395909840004566 0.30761992325062509 1.2707007512517241 -0.15423170583452045 1.3865947839444277 0.84682578107077766 1.6904771804809571 2.0074344635009767
leaf_weight=90840 2590 6024 693 268 1762 15632 2646 504 1422 171 8071 2137 5490 24159 4068 332 1065 1255 112 2073 939 10118 5849 5603 15515 393 18561 4287 2951 21863 1210 1222 135 812 13550 2399 4467 28 634 10918 2902 280 1388 3603 4621 6326 7993 1073 3677 6438 13606 12244 8423 1453 13672 2615 667 18065 378 613 47 268
leaf_count=90840 2590 6024 693 268 1762 15632 2646 504 1422 171 8071 2137 5490 24159 4068 332 1065 1255 112 2073 939 10118 5849 5603 15515 393 18561 4287 2951 21863 1210 1222 135 812 13550 2399 4467 28 634 10918 2902 280 1388 3603 4621 6326 7993 1073 3677 6438 13606 12244 8423 1453 13672 2615 667 18065 378 613 47 268
internal_value=-7.47803e-11 -0.0670399 0.798456 1.6127 0.624908 -0.124194 0.153079 2.35645 0.844209 1.32375 -0.0578111 0.488778 0.0852438 -0.15543 0.26791 2.1006 0.981063 0.753366 1.25435 0.434227 0.58064 -0.0194782 0.125668 0.0509097 -0.0830765 1.70311 -0.13077 0.225135 0.316616 -0.16863 1.21927 0.800998 1.99758 0.924286 -0.0702154 0.400307 0.149002 2.36015 1.05572 -0.0044452 0.468243 1.37143 0.545028 0.246548 0.201886 0.105297 0.0696561 0.701449 0.340155 0.0304575 -0.119394 -0.0964862 -0.0386509 0.633119 -0.140442 0.293272 1.24176 -0.158798 1.40275 0.825314 1.77992 1.97546
internal_weight=403120 371895 31225 5486 25739 295237 76658 1535 9858 3951 94471 15881 48190 200766 28468 1267 3933 5925 3340 9964 5917 37530 22132 26058 56941 611 69998 15157 13311 130768 2570 3090 907 2234 29065 4989 10316 360 1699 21036 4975 770 3525 7890 7267 11816 13596 2835 6628 12462 32167 27876 16494 2392 37831 6683 1877 39928 490 1835 440 772
internal_count=403120 371895 31225 5486 25739 295237 76658 1535 9858 3951 94471 15881 48190 200766 28468 1267 3933 5925 3340 9964 5917 37530 22132 26058 56941 611 69998 15157 13311 130768 2570 3090 907 2234 29065 4989 10316 360 1699 21036 4975 770 3525 7890 7267 11816 13596 2835 6628 12462 32167 27876 16494 2392 37831 6683 1877 39928 490 1835 440 772
is_linear=0
shrinkage=0.05


Tree=12
num_leaves=63
num_cat=0
split_feature=7 7 7 7 7 7 7 7 7 7 7 7 7 7 7 7 7 7 7 7 7 7 7 7 7 7 7 7 7 7 7 3 3 7 7 7 7 0 7 7 7 7 7 7 7 7 7 7 7 7 7 7 7 7 7 17 7 7 7 1 3 6
split_gain=7.7901e+06 1.64051e+06 1.63511e+06 453330 272257 214682 209899 194382 42639.5 32911.6 25611 22996.4 21899.3 21850.3 17651.5 13927.5 6051.84 5024.03 4278.87 4049.75 3662.68 3594.35 3526.63 3399.53 3234.04 3141.25 2839.91 2839.1 2804.04 2707.88 1533.34 916.475 862.496 787.368 734.995 730.947 728.7 610.724 538.941 512.423 505.311 490.11 456.893 455.764 450.644 437.802 435.101 408.691 407.36 397.474 379.714 365.556 354.131 338.131 328.042 315.586 286.288 254.076 172.955 172.405 151.5 148.69
threshold=18.650000000000002 6.4500000000000011 44.150000000000006 68.450000000000017 29.000000000000004 2.2500000000000004 11.850000000000003 114.45000000000002 35.600000000000009 4.1500000000000012 23.150000000000002 15.350000000000003 0.75000000000000011 8.9500000000000011 84.600000000000009 52.600000000000009 32.250000000000007 39.300000000000004 5.2500000000000009 20.750000000000004 72.15000000000002 26.250000000000004 10.350000000000003 3.1500000000000008 13.65 7.7500000000000009 1.4500000000000002 62.750000000000007 47.300000000000004 16.950000000000003 0.25000000000000006 31.050000000000004 25.350000000000005 41.70000000000001 21.850000000000005 30.550000000000004 33.600000000000001 7.7999992500000008 5.8500000000000005 24.550000000000004 14.550000000000002 11.050000000000002 3.6500000000000008 2.6500000000000008 50.400000000000006 17.650000000000002 12.850000000000003 19.550000000000004 7.0500000000000007 9.5500000000000025 4.6500000000000012 37.300000000000004 1.8500000000000003 1.0500000000000003 8.3500000000000032 4.5000000000000009 27.450000000000006 16.150000000000002 0.45000000000000007 81.150008000000014 28.850000000000005 27.000000000000004
decision_type=2 2 2 2 2 2 2 2 2 2 2 2 2 2 2 2 2 2 2 2 2 2 2 2 2 2 2 2 2 2 2 2 2 2 2 2 2 2 2 2 2 2 2 2 2 2 2 2 2 2 2 2 2 2 2 2 2 2 2 2 2 2
left_child=1 5 4 15 10 12 13 14 16 23 19 24 30 25 20 28 35 51 50 47 -5 39 49 43 46 48 53 32 55 57 61 60 -17 -19 -21 -6 -18 -16 -20 -12 -26 -24 -25 -7 59 -31 -8 -2 -3 -15 -11 -10 -28 -14 -27 -4 -23 -13 -32 -30 -22 -1
right_child=2 6 3 7 8 9 11 -9 17 18 21 29 26 22 37 27 36 33 38 34 31 56 41 42 40 54 52 -29 44 45 58 -33 -34 -35 -36 -37 -38 -39 -40 -41 -42 -43 -44 -45 -46 -47 -48 -49 -50 -51 -52 -53 -54 -55 -56 -57 -58 -59 -60 -61 -62 -63
leaf_value=-0.1653932571411133 0.34914739033933417 0.017039181071035029 1.0505012481012077 1.7064987182617188 0.63921379220286645 -0.09889045966304888 0.16918447761023478 3.3877082824707032 0.82632098519255859 -0.04651353189265265 0.48201927335164174 0.25923855352003539 -0.14089602946010601 0.084420397429110713 2.2232322692871094 1.4204976583781996 0.72717346468769695 0.93208691173756619 -0.014449123910160309 0.41040834254467784 1.8605360121954058 0.55863698372026771 0.12311165333786278 -0.073715159725535884 0.21631083460101658 0.051528572792702537 -0.12043969501643359 1.6335870742797853 1.1714519527184704 0.30181068957775081 -0.15625897918038312 2.0178955078125003 1.3078971827859844 0.99644552585608848 0.4462791955204381 0.68521049613343776 0.77836068308146977 2.4663942337036135 0.0016057817741487259 0.51813679620651143 0.24133501142357427 0.14496343160319686 -0.060444873078344709 -0.086680068097649499 1.219690096593647 0.32679551703770959 0.1939925543701615 0.38044139233502478 0.034842588734192624 0.10241912887132283 -0.031862617238729761 0.87130533380359676 -0.11008634905794019 -0.13147960520524343 0.068508875993872148 1.1058437783714425 0.5961409910502139 0.27916497691243292 -0.14909628100677524 1.0730424880981446 1.9070627212524416 -0.16054651601708211
leaf_weight=70430 2360 6270 428 346 2156 14813 4022 268 742 9341 1798 2874 16550 6451 332 247 1255 845 10170 2998 504 820 6008 15515 5548 4700 17566 94 1370 3293 14134 135 546 1086 2727 1441 1559 28 10755 2164 3170 4479 11146 15787 609 3750 3153 1870 6590 5848 8399 1154 15589 22487 7204 647 1341 3608 20876 46 268 20410
leaf_count=70430 2360 6270 428 346 2156 14813 4022 268 742 9341 1798 2874 16550 6451 332 247 1255 845 10170 2998 504 820 6008 15515 5548 4700 17566 94 1370 3293 14134 135 546 1086 2727 1441 1559 28 10755 2164 3170 4479 11146 15787 609 3750 3153 1870 6590 5848 8399 1154 15589 22487 7204 647 1341 3608 20876 46 268 20410
internal_value=7.70162e-10 -0.0647433 0.746198 1.50092 0.577908 -0.118547 0.140754 2.14075 0.779446 -0.0571531 0.449574 0.245729 -0.148285 0.0758078 1.93356 1.19906 0.700608 0.911515 -0.0215123 0.400082 1.84491 0.530039 0.111142 -0.0812192 0.204948 0.0432955 -0.126332 1.37377 1.14908 0.293651 -0.160878 1.89771 1.34297 0.968282 0.427495 0.657641 0.755532 2.24214 -0.00619725 0.501746 0.22541 0.132445 -0.0681673 -0.0925909 1.18372 0.315114 0.180086 0.362982 0.0261624 0.0929785 -0.0395771 0.853701 -0.115572 -0.135472 0.0618046 1.08381 0.58191 0.27033 -0.151988 1.16826 1.87669 -0.164304
internal_weight=403120 370936 32184 5868 26316 293968 76968 1881 10238 95926 16078 29418 198042 47550 1613 3987 6411 3827 38665 9955 1253 6123 22786 57261 15893 24764 72192 887 3100 13525 125850 907 793 1931 5725 3597 2814 360 20925 3962 8718 10487 26661 30600 2025 7043 7175 4230 12860 12299 17740 1896 33155 39037 11904 1075 2161 6482 35010 1416 772 90840
internal_count=403120 370936 32184 5868 26316 293968 76968 1881 10238 95926 16078 29418 198042 47550 1613 3987 6411 3827 38665 9955 1253 6123 22786 57261 15893 24764 72192 887 3100 13525 125850 907 793 1931 5725 3597 2814 360 20925 3962 8718 10487 26661 30600 2025 7043 7175 4230 12860 12299 17740 1896 33155 39037 11904 1075 2161 6482 35010 1416 772 90840
is_linear=0
shrinkage=0.05


Tree=13
num_leaves=63
num_cat=0
split_feature=7 7 7 7 7 7 7 3 7 7 7 7 7 7 7 7 7 7 7 7 7 7 7 7 7 7 7 7 7 7 7 7 3 0 7 7 7 7 7 7 3 7 7 7 7 7 7 7 7 7 7 7 7 7 7 7 7 7 7 4 3 7
split_gain=7.03063e+06 1.57543e+06 1.39449e+06 384131 232112 215251 191438 154765 35791.6 33984.8 28898.9 26769.7 26109.9 20108 19730 11037.4 5222.9 4458.7 4277.26 3999.99 3637.84 3310.72 3138.31 2981.19 2924.45 2745.2 2582.86 2493.93 2413.78 2370.87 1147.92 964.1 827.119 551.179 545.54 525.193 506.853 492.968 479.44 457.183 435.871 419.592 417.449 407.401 396.242 393.121 388.821 370.042 363.521 339.207 335.765 308.929 307.437 297.595 296.438 292.798 267.789 224.095 218.907 141.882 136.728 132.728
threshold=19.250000000000004 6.8500000000000005 45.100000000000009 72.15000000000002 29.950000000000003 2.5500000000000003 12.550000000000002 24.050000000000004 37.300000000000004 57.250000000000007 4.5500000000000007 1.0500000000000003 24.350000000000005 9.6500000000000004 15.950000000000001 84.600000000000009 33.600000000000001 51.250000000000007 27.450000000000006 40.95000000000001 8.1500000000000004 3.4500000000000006 0.45000000000000007 62.750000000000007 21.650000000000002 5.6500000000000012 1.7500000000000002 17.650000000000002 14.350000000000003 11.050000000000002 47.300000000000004 31.850000000000005 31.050000000000004 7.7999992500000008 3.9500000000000006 25.650000000000002 43.500000000000007 8.9500000000000011 6.2500000000000009 22.950000000000003 26.650000000000002 39.300000000000004 35.600000000000009 2.9500000000000006 13.550000000000002 16.650000000000002 0.15000000000000005 20.400000000000002 2.1500000000000008 7.5500000000000007 10.450000000000001 5.0500000000000007 1.3500000000000003 28.700000000000006 49.500000000000007 11.850000000000003 15.15 0.75000000000000011 18.350000000000005 24.050000000000004 28.850000000000005 42.050000000000004
decision_type=2 2 2 2 2 2 2 2 2 2 2 2 2 2 2 2 2 2 2 2 2 2 2 2 2 2 2 2 2 2 2 2 2 2 2 2 2 2 2 2 2 2 2 2 2 2 2 2 2 2 2 2 2 2 2 2 2 2 2 2 2 2
left_child=1 5 4 9 12 11 13 -5 16 17 21 22 24 20 28 32 31 30 35 41 49 43 46 -11 47 51 52 45 44 50 -4 -6 60 -17 -23 -14 61 -22 -27 -26 -19 -10 -18 -7 -8 -16 -1 -2 -28 -3 -15 -12 -13 -20 -32 -31 -30 -24 -29 -25 -9 -21
right_child=2 6 3 7 8 10 14 15 19 23 25 26 18 29 27 33 42 40 53 36 37 34 57 59 39 38 48 58 56 55 54 -33 -34 -35 -36 -37 -38 -39 -40 -41 -42 -43 -44 -45 -46 -47 -48 -49 -50 -51 -52 -53 -54 -55 -56 -57 -58 -59 -60 -61 -62 -63
leaf_value=-0.15672284319515342 0.35513477937001214 0.028284204108907446 1.0453317704138818 3.21832275390625 0.63260849548372644 -0.086695708119017542 0.17845116991093984 1.7675092787969682 0.82774006051868465 1.3603613953841363 -0.03336633753870441 -0.12626841092611998 0.48248110119471699 0.10146053288780782 0.26103651463664418 2.112070655822754 0.73944266474040532 1.2659266417367119 0.56144237898667038 0.9107096809544335 0.063864121992653664 -0.062434859202700525 -0.14164146848007236 1.6161949356700327 0.41676617119243348 -0.0049268761239398559 -0.107281117021818 0.30746642364334559 0.22097093034133636 0.13771525645900129 1.100835328395706 0.68475055424193976 1.9170007705688477 2.3430746078491214 -0.047565159683060874 0.5221549121382969 0.98833587899193032 0.081569864303483591 0.01072353863879272 0.44897541948046005 1.1877247769492014 0.87890090227903694 0.78500492283597467 -0.074777207293337186 0.20059295424734708 0.2840814108902614 -0.14949127008687968 0.38432782873505666 -0.096416320822162407 0.045164547715474061 0.11932928818870969 -0.01913525933278945 -0.11704415509266219 0.59587404907008723 1.1405762255255552 0.15791825706924495 0.24064608640705304 -0.13385123360769266 0.32692519965663996 1.52427396774292 1.8117095947265627 0.94659411011228145
leaf_weight=80836 1844 6630 693 268 1861 12499 3523 504 1154 171 7491 16992 2116 6132 3342 332 1559 490 1028 437 8175 12342 20876 393 2974 10890 14935 2803 3336 4479 942 1693 135 28 12331 1377 634 7573 8887 1750 280 614 742 16817 4738 4147 24138 2639 15890 5400 4602 7768 19285 1611 935 2991 3591 16550 2984 47 268 628
leaf_count=80836 1844 6630 693 268 1861 12499 3523 504 1154 171 7491 16992 2116 6132 3342 332 1559 490 1028 437 8175 12342 20876 393 2974 10890 14935 2803 3336 4479 942 1693 135 28 12331 1377 634 7573 8887 1750 280 614 742 16817 4738 4147 24138 2639 15890 5400 4602 7768 19285 1611 935 2991 3591 16550 2984 47 268 628
internal_value=-1.14916e-09 -0.0593654 0.734457 1.45545 0.574067 -0.110682 0.146414 2.1267 0.770836 1.19467 -0.045551 -0.138359 0.454484 0.0833304 0.248323 1.89579 0.695445 1.13195 0.534418 0.898155 0.0565638 -0.0684998 -0.150628 1.53752 0.401247 -0.0101879 -0.112322 0.292847 0.209403 0.124174 1.10033 0.657447 1.80282 2.13004 -0.0550033 0.498121 0.952941 0.0723786 0.0021058 0.428698 1.23749 0.845507 0.754135 -0.0798587 0.19115 0.273798 -0.15506 0.37232 -0.10168 0.0358614 0.109121 -0.0261216 -0.121365 0.582461 1.12063 0.145805 0.231171 -0.138197 0.3175 1.60638 1.78285 0.93187
internal_weight=403120 372973 30147 5486 24661 298527 74446 1535 9322 3951 89025 209502 15339 45982 28464 1267 5855 3340 6132 3467 27778 53989 142400 611 9207 35036 67102 13276 15188 18204 2570 3554 907 360 24673 3493 1699 15748 19777 4724 770 1768 2301 29316 8261 7489 104974 4483 30825 12030 10734 15259 36277 2639 1877 7470 6927 37426 5787 440 772 1065
internal_count=403120 372973 30147 5486 24661 298527 74446 1535 9322 3951 89025 209502 15339 45982 28464 1267 5855 3340 6132 3467 27778 53989 142400 611 9207 35036 67102 13276 15188 18204 2570 3554 907 360 24673 3493 1699 15748 19777 4724 770 1768 2301 29316 8261 7489 104974 4483 30825 12030 10734 15259 36277 2639 1877 7470 6927 37426 5787 440 772 1065
is_linear=0
shrinkage=0.05


Tree=14
num_leaves=63
num_cat=0
split_feature=7 7 7 7 7 7 7 7 7 7 7 7 7 7 7 7 7 7 7 7 7 7 7 7 7 7 7 7 7 7 7 3 3 7 7 7 7 0 7 7 7 7 7 7 7 7 7 7 7 7 7 7 7 7 7 17 7 6 7 1 3 7
split_gain=6.3453e+06 1.33631e+06 1.33193e+06 369246 221736 174891 170927 158312 34694.8 25431.6 20858.8 19217 19083.3 17404.6 14371.8 11340.7 4949.64 4082.11 3332.02 3313.75 2974.67 2934.87 2905.53 2885.17 2494.94 2294.1 2275.48 2269.9 2269.11 2207.1 1637.69 746.473 732.705 640.503 603.61 585.765 498.157 497.439 454.8 448.344 430.481 428.467 423.842 402.902 375.777 366.657 352.916 350.796 347.45 323.825 304.588 297.748 288.945 268.91 258.303 257.925 234.945 222.167 205.699 153.315 123.397 111.617
threshold=18.650000000000002 6.4500000000000011 44.150000000000006 68.450000000000017 29.000000000000004 2.3500000000000001 12.15 114.45000000000002 35.600000000000009 4.2500000000000009 23.150000000000002 0.8500000000000002 9.1500000000000004 15.350000000000003 84.600000000000009 52.600000000000009 32.250000000000007 39.300000000000004 7.8500000000000005 20.950000000000003 72.15000000000002 26.250000000000004 3.2500000000000004 5.3500000000000005 10.550000000000002 62.750000000000007 1.5500000000000003 47.300000000000004 13.850000000000003 16.950000000000003 0.35000000000000003 31.050000000000004 24.850000000000005 41.70000000000001 30.550000000000004 33.600000000000001 19.550000000000004 7.7999992500000008 13.000000000000002 22.100000000000005 24.750000000000004 2.8500000000000001 3.7500000000000004 7.0500000000000007 50.400000000000006 5.8500000000000005 17.950000000000003 9.8500000000000032 8.6500000000000004 11.250000000000002 1.9500000000000002 37.300000000000004 4.8500000000000005 1.2500000000000002 14.550000000000002 4.5000000000000009 27.650000000000002 27.000000000000004 16.250000000000004 81.150008000000014 28.850000000000005 0.55000000000000016
decision_type=2 2 2 2 2 2 2 2 2 2 2 2 2 2 2 2 2 2 2 2 2 2 2 2 2 2 2 2 2 2 2 2 2 2 2 2 2 2 2 2 2 2 2 2 2 2 2 2 2 2 2 2 2 2 2 2 2 2 2 2 2 2
left_child=1 5 4 15 10 11 12 14 16 22 19 30 18 28 20 27 34 51 43 36 -5 40 41 52 47 32 53 55 38 58 57 60 -17 -19 -6 -18 -2 -16 -8 -21 -12 -7 -24 -3 59 -25 -31 -14 -20 -26 -28 -10 -11 -13 -30 -4 -23 -1 -15 -29 -22 -32
right_child=2 6 3 7 8 9 13 -9 17 23 21 26 24 29 37 25 35 33 48 39 31 56 42 45 49 -27 50 44 54 46 61 -33 -34 -35 -36 -37 -38 -39 -40 -41 -42 -43 -44 -45 -46 -47 -48 -49 -50 -51 -52 -53 -54 -55 -56 -57 -58 -59 -60 -61 -62 -63
leaf_value=-0.14928745031356813 0.31515071536524819 0.015411440991875278 0.94825309281037229 1.5403640747070313 0.576728444462141 -0.086630609779045006 0.15584016568255279 3.0574066162109377 0.74575469204679012 -0.038508970999312636 0.43900763947564647 -0.12360909839276274 0.082730687606461947 0.23667998882005784 2.0064670562744142 1.2946396414913348 0.65657727522679066 0.84110274681678188 0.051622644138788365 0.37514242839813239 1.6791338057745073 0.50980911130706474 -0.064188733719086899 -0.012215771806115079 0.11491789337200098 1.4733960628509521 -0.10651430953557967 1.0571500993993161 0.19880110123290345 0.27441046955634135 -0.13812625813825247 1.8211505889892579 1.1841523550652171 0.89914954679007908 0.61852708607395024 0.70247052347453609 0.34712420777729147 2.2259208679199221 0.17991636895864355 0.40488794103393744 0.47249385673625799 -0.074680922359777899 -0.051199999826505686 0.032605902706229838 1.1011039145082873 0.0014569364858662208 0.29694016934815332 0.1000988496757777 0.067609079528833382 0.1337554085994456 -0.096665909885922108 0.78635307473987603 -0.025003270959848712 -0.11483420501454943 0.21781473260572659 0.99828495573960652 0.5428543052068433 -0.14402774185649045 0.25485299029717079 0.96434860229492192 1.7211240768432619 -0.13220089698807869
leaf_weight=70430 2360 6270 428 346 2156 17921 3781 268 742 9888 2330 24159 6651 3882 332 201 1255 845 6749 2650 504 1152 15608 9012 4234 94 18561 1370 4092 3920 14191 135 592 1086 1441 1559 2518 28 4076 2427 1632 12902 10510 7461 609 10755 3123 5165 6847 4947 13606 1154 6606 13672 3170 647 1009 28082 2600 46 268 18065
leaf_count=70430 2360 6270 428 346 2156 17921 3781 268 742 9888 2330 24159 6651 3882 332 201 1255 845 6749 2650 504 1152 15608 9012 4234 94 18561 1370 4092 3920 14191 135 592 1086 1441 1559 2518 28 4076 2427 1632 12902 10510 7461 609 10755 3123 5165 6847 4947 13606 1154 6606 13672 3170 647 1009 28082 2600 46 268 18065
internal_value=5.85522e-10 -0.0584318 0.673455 1.35462 0.521566 -0.106992 0.127036 1.93207 0.703447 -0.0503892 0.40575 -0.133269 0.0696698 0.223816 1.7451 1.08219 0.632332 0.822579 0.0421277 0.361085 1.6651 0.478366 -0.0712318 -0.01766 0.105515 1.23984 -0.112125 1.03709 0.186953 0.265023 -0.144586 1.71268 1.21216 0.873748 0.593473 0.682003 0.331655 2.02354 0.16833 0.389362 0.452801 -0.0816287 -0.058962 0.0247544 1.06826 -0.00477661 0.284401 0.0903226 0.0596735 0.125068 -0.102349 0.770465 -0.0330998 -0.120438 0.207101 0.978365 0.525238 -0.147788 0.243969 1.05414 1.69371 -0.134808
internal_weight=403120 370936 32184 5868 26316 293968 76968 1881 10238 93202 16078 200766 48324 28644 1613 3987 6411 3827 27327 9955 1253 6123 56941 36261 20997 887 69998 3100 15119 13525 130768 907 793 1931 3597 2814 4878 360 7857 5077 3962 30823 26118 13731 2025 19767 7043 11816 13596 9181 32167 1896 16494 37831 7262 1075 2161 98512 6482 1416 772 32256
internal_count=403120 370936 32184 5868 26316 293968 76968 1881 10238 93202 16078 200766 48324 28644 1613 3987 6411 3827 27327 9955 1253 6123 56941 36261 20997 887 69998 3100 15119 13525 130768 907 793 1931 3597 2814 4878 360 7857 5077 3962 30823 26118 13731 2025 19767 7043 11816 13596 9181 32167 1896 16494 37831 7262 1075 2161 98512 6482 1416 772 32256
is_linear=0
shrinkage=0.05


Tree=15
num_leaves=63
num_cat=0
split_feature=7 7 7 7 7 7 7 7 7 7 7 7 7 7 7 7 7 7 7 7 7 7 7 7 7 7 7 7 7 7 7 3 7 7 7 7 3 0 7 7 7 7 7 7 7 7 7 7 7 7 7 7 7 7 7 7 7 17 7 7 1 3
split_gain=5.72664e+06 1.21956e+06 1.19029e+06 333244 195314 162500 152930 142877 29098.4 22063.5 20265.9 19687 16404.9 16067.7 12970.5 10277.9 3851.32 3684.1 3123.13 2814.57 2712.92 2684.64 2639.03 2306.95 2256.2 2199.2 2172.46 2114.63 2047.88 2037.82 1814.45 673.694 584.172 547.427 535.045 515.238 487.462 448.938 410.457 409.145 407.972 372.602 361.335 358.661 351.14 325.797 320.299 313.782 280.061 268.717 265.047 259.708 259.397 241.749 236.605 234.219 233.118 232.777 201.515 190.596 138.367 111.367
threshold=18.750000000000004 6.5500000000000007 44.150000000000006 68.450000000000017 29.150000000000002 2.4500000000000006 12.15 114.45000000000002 35.600000000000009 4.4500000000000011 23.450000000000003 0.95000000000000007 15.350000000000003 9.1500000000000004 84.600000000000009 54.050000000000004 32.250000000000007 39.300000000000004 21.250000000000004 26.250000000000004 3.3500000000000001 72.15000000000002 7.9500000000000011 47.300000000000004 10.450000000000001 5.5500000000000007 17.050000000000004 1.6500000000000001 13.850000000000003 0.35000000000000003 62.750000000000007 31.050000000000004 42.050000000000004 19.950000000000003 34.500000000000007 50.400000000000006 24.850000000000005 7.7999992500000008 13.000000000000002 30.800000000000001 3.9500000000000006 2.8500000000000001 22.300000000000001 7.2500000000000009 11.250000000000002 18.050000000000004 28.050000000000004 2.0500000000000003 4.9500000000000011 37.300000000000004 6.1500000000000012 9.7500000000000018 24.750000000000004 8.6500000000000004 1.2500000000000002 16.250000000000004 14.550000000000002 4.5000000000000009 0.15000000000000005 0.65000000000000002 81.150008000000014 28.850000000000005
decision_type=2 2 2 2 2 2 2 2 2 2 2 2 2 2 2 2 2 2 2 2 2 2 2 2 2 2 2 2 2 2 2 2 2 2 2 2 2 2 2 2 2 2 2 2 2 2 2 2 2 2 2 2 2 2 2 2 2 2 2 2 2 2
left_child=1 5 4 15 10 11 13 14 16 20 18 29 28 22 21 23 39 49 33 52 41 -5 43 57 51 48 55 54 38 58 36 61 -19 -2 -18 60 -17 -16 -8 -6 -22 -7 -20 -3 -26 -28 -21 -29 -11 -10 -27 -15 -12 -24 -13 -14 -30 -4 -1 -31 -25 -23
right_child=2 6 3 7 8 9 12 -9 17 25 19 27 26 24 37 30 34 32 42 46 40 31 53 35 44 50 45 47 56 59 -32 -33 -34 -35 -36 -37 -38 -39 -40 -41 -42 -43 -44 -45 -46 -47 -48 -49 -50 -51 -52 -53 -54 -55 -56 -57 -58 -59 -60 -61 -62 -63
leaf_value=-0.14145617483099776 0.30293230654422809 0.016973153044869148 0.9008404112307824 1.4633459091186525 0.5551974701792447 -0.080904257302499547 0.14804815450883738 2.904536247253418 0.70846696221282224 -0.033019155993838673 0.42149713646117209 -0.11612816018858646 0.22484599886205872 0.077079602307309217 1.9061437606811524 1.2299076621212177 0.62794415413515781 0.80489644668535554 0.36286366090251659 0.4884386247842491 -0.057451343308268114 1.5951769919622514 0.050343568732853131 1.0042925907051476 0.10819139988711918 -0.0064087159372572455 0.26291922224926434 -0.098879984545574423 0.18886104754863248 -0.13003350916387393 1.3997262477874757 1.7300931930541994 0.8601155016639016 0.3354893878725585 0.67171917816483218 1.0528872341923063 1.1365684471959654 2.1146247863769534 0.17092054986684668 0.59301751017681592 -0.044380358357767845 -0.069723794891300608 0.3901169130399374 0.033402817562011189 0.12706764027738368 0.28465647466446931 0.52438846636219194 -0.088931978814027174 -0.019882741972506127 0.7470354191765215 0.0059676054256700729 0.092348473175822302 0.44886916674235294 0.064228625942255022 -0.1080504920029156 0.24341281980078741 0.20692399478485157 0.94837069106065153 -0.13556266790818619 -0.12298673877526654 0.9161312103271485 1.6350679397583008
leaf_weight=80836 2364 6024 428 346 2144 13156 3781 268 742 8574 1843 17632 3882 5490 332 201 1531 1051 2444 1470 15286 504 5782 1370 4908 10781 3905 17351 4092 21362 94 135 880 2845 1283 741 460 28 4076 1073 9795 17187 2421 7405 4947 3086 1071 14594 7702 1154 7225 5652 1632 6847 18659 3020 3170 647 17676 17421 46 268
leaf_count=80836 2364 6024 428 346 2144 13156 3781 268 742 8574 1843 17632 3882 5490 332 201 1531 1051 2444 1470 15286 504 5782 1370 4908 10781 3905 17351 4092 21362 94 135 880 2845 1283 741 460 28 4076 1073 9795 17187 2421 7405 4947 3086 1071 14594 7702 1154 7225 5652 1632 6847 18659 3020 3170 647 17676 17421 46 268
internal_value=6.0222e-10 -0.0551647 0.643791 1.28689 0.498357 -0.101161 0.123358 1.83547 0.673611 -0.045012 0.390983 -0.125667 0.213647 0.0676906 1.65784 1.02809 0.605181 0.78145 0.347619 0.463597 -0.064514 1.58184 0.0414634 0.989285 0.100239 -0.0134829 0.252869 -0.103717 0.177605 -0.136577 1.19418 1.62705 0.830061 0.320714 0.647903 1.01911 1.16495 1.92236 0.159914 0.567812 -0.0523467 -0.0745714 0.376426 0.0260328 0.117667 0.272515 0.503591 -0.0943353 -0.0268028 0.731942 -0.00144265 0.084825 0.434352 0.0578716 -0.111975 0.23297 0.196746 0.929447 -0.140399 -0.126868 1.00143 1.60903
internal_weight=403120 371304 31816 5868 25948 295237 76067 1881 9858 89706 16090 205531 29012 47055 1613 3987 6031 3827 10074 6016 55424 1253 26058 3232 20997 34282 13893 68236 15119 137295 755 907 1931 5209 2814 2157 661 360 7857 3217 25081 30343 4865 13429 9855 6991 2541 31945 16276 1896 18006 11142 3475 12629 36291 6902 7262 1075 98512 38783 1416 772
internal_count=403120 371304 31816 5868 25948 295237 76067 1881 9858 89706 16090 205531 29012 47055 1613 3987 6031 3827 10074 6016 55424 1253 26058 3232 20997 34282 13893 68236 15119 137295 755 907 1931 5209 2814 2157 661 360 7857 3217 25081 30343 4865 13429 9855 6991 2541 31945 16276 1896 18006 11142 3475 12629 36291 6902 7262 1075 98512 38783 1416 772
is_linear=0
shrinkage=0.05


Tree=16
num_leaves=63
num_cat=0
split_feature=7 7 7 7 7 7 7 3 7 7 7 7 7 7 7 7 7 7 7 7 7 7 7 7 7 7 7 7 7 7 7 3 7 7 7 7 0 7 7 7 7 7 7 7 7 7 7 7 7 7 7 7 7 7 7 7 7 7 7 1 4 3
split_gain=5.16841e+06 1.14258e+06 1.03805e+06 282394 176349 153392 141815 113767 27820.4 25079 21743.7 18948.9 17767.5 15954.8 13758 8113.49 4068.71 3309.46 3187.39 3020.34 2918.83 2835.47 2235.71 2151.7 1977.75 1908.45 1839.64 1809.83 1804.02 1633.67 724.79 608.008 513.17 509.269 439.194 437.952 405.167 392.784 384.92 355.719 352.572 348.52 347.933 320.055 287.396 286.249 285.175 283.188 281.534 272.004 261.395 234.658 225.623 223.85 221.554 213.536 180.544 157.855 154.245 152.838 111.745 106.421
threshold=19.150000000000002 6.7500000000000009 45.100000000000009 72.15000000000002 29.800000000000001 2.4500000000000006 12.550000000000002 24.050000000000004 36.550000000000004 57.250000000000007 4.5500000000000007 24.100000000000005 0.95000000000000007 9.5500000000000025 15.750000000000002 84.600000000000009 40.600000000000009 51.100000000000009 32.850000000000001 26.850000000000005 3.4500000000000006 8.1500000000000004 21.350000000000005 62.750000000000007 11.050000000000002 1.6500000000000001 0.45000000000000007 5.6500000000000012 17.350000000000005 14.15 47.300000000000004 31.050000000000004 54.050000000000004 43.500000000000007 31.550000000000001 2.9500000000000006 7.7999992500000008 3.9500000000000006 34.800000000000004 22.750000000000004 38.250000000000007 7.4500000000000011 10.15 25.250000000000004 8.8500000000000032 20.400000000000002 0.15000000000000005 2.0500000000000003 6.2500000000000009 28.050000000000004 16.450000000000003 15.050000000000002 11.750000000000002 5.0500000000000007 13.450000000000001 1.2500000000000002 18.250000000000004 42.050000000000004 49.500000000000007 80.500000000000014 24.050000000000004 25.350000000000005
decision_type=2 2 2 2 2 2 2 2 2 2 2 2 2 2 2 2 2 2 2 2 2 2 2 2 2 2 2 2 2 2 2 2 2 2 2 2 2 2 2 2 2 2 2 2 2 2 2 2 2 2 2 2 2 2 2 2 2 2 2 2 2 2
left_child=1 5 4 9 11 12 13 -5 18 17 20 22 26 21 29 31 40 30 34 43 35 41 45 -11 42 55 46 53 50 54 -4 -9 -19 57 -6 -7 -17 -22 -20 -24 -10 -3 -15 -13 -23 -2 -1 -27 -29 -21 -16 -31 -26 -12 -8 -14 -30 -18 -32 -42 -25 -34
right_child=2 6 3 7 8 10 14 15 16 23 27 19 25 24 28 36 33 32 38 49 37 44 39 60 52 47 -28 48 56 51 58 -33 61 -35 -36 -37 -38 -39 -40 -41 59 -43 -44 -45 -46 -47 -48 -49 -50 -51 -52 -53 -54 -55 -56 -57 -58 -59 -60 -61 -62 -63
leaf_value=-0.13438336847266036 0.30106443762257762 0.021418244664494098 0.89605620413115528 2.7593093872070313 0.53646060701400511 -0.075621996786497406 0.15156629767302301 1.5285739137718715 0.68816597079053343 1.1682615079377827 -0.02855433985807759 0.4097925449343669 -0.11032175332740518 0.082703492417724719 0.22170201941858286 1.8108366012573243 0.77613767357930563 1.0113531576848664 0.60752454083367424 0.47086325971463244 -0.053439646755020546 0.053256838228293558 0.3493421275463946 1.3859805349781922 0.11593311836011451 -0.093935984831352098 -0.11931722246107904 -0.0042452821214114637 0.25864548643782292 0.18637882612012177 0.94316321492448241 1.6435884475708009 1.1280292391777038 0.84824966165921678 0.57461956765421451 -0.064151039549986424 2.0088935852050782 -0.040822354929936931 0.64643045203108274 0.37609354064991973 0.7187869717093075 0.037578464065118042 0.099901912243037794 0.44062905256617652 0.067330272211496164 0.32674047672408296 -0.12819019272171558 -0.084485378038871781 0.0083265988327283942 0.50431937819508055 0.24078283768861405 0.2042166386768019 0.13332164679162081 -0.01644035789091236 0.16916685190215972 -0.10264796786698263 0.27623710302703958 0.81130119858274041 0.97340799884121199 0.76254014968872075 1.3044041633605958 1.0725378152554628
leaf_weight=80836 2286 7046 693 268 1827 16470 3011 772 972 171 7491 2137 17632 5403 3355 332 649 452 1229 939 12342 6663 2561 393 3613 17351 32321 10890 2482 3705 942 135 112 634 1284 16817 28 12331 1317 2414 782 6337 6453 1388 7963 2067 24138 14594 7534 1721 3860 3670 3857 7768 4402 18659 3537 628 763 268 47 378
leaf_count=80836 2286 7046 693 268 1827 16470 3011 772 972 171 7491 2137 17632 5403 3355 332 649 452 1229 939 12342 6663 2561 393 3613 17351 32321 10890 2482 3705 942 135 112 634 1284 16817 28 12331 1317 2414 782 6337 6453 1388 7963 2067 24138 14594 7534 1721 3860 3670 3857 7768 4402 18659 3537 628 763 268 47 378
internal_value=5.08689e-10 -0.0513018 0.624784 1.24785 0.48862 -0.0953968 0.122589 1.82338 0.657171 1.02425 -0.0416002 0.384423 -0.119384 0.0698141 0.211737 1.62541 0.759306 0.970367 0.586163 0.452287 -0.0601666 0.0457013 0.339425 1.31877 0.104761 -0.098531 -0.129748 -0.00965198 0.248771 0.178594 0.939173 1.54569 1.04978 0.811617 0.55221 -0.0698267 1.82624 -0.0471338 0.62765 0.362323 0.709866 0.0290703 0.0920643 0.421935 0.060919 0.313257 -0.132959 -0.0896185 0.000895651 0.492509 0.23191 0.195255 0.124911 -0.0223874 0.162018 -0.106376 0.268983 0.79343 0.956698 0.729954 1.37727 1.08522
internal_weight=403120 372531 30589 5486 25103 297174 75357 1535 9590 3951 91643 15513 205531 47335 28022 1267 3933 3340 5657 6185 57960 28009 9328 611 19326 68236 137295 33683 13234 14788 2398 907 942 1911 3111 33287 360 24673 2546 4975 2022 13383 11856 3525 14626 4353 104974 31945 18424 2660 7215 7375 7470 15259 7413 36291 6019 1277 1705 1050 440 490
internal_count=403120 372531 30589 5486 25103 297174 75357 1535 9590 3951 91643 15513 205531 47335 28022 1267 3933 3340 5657 6185 57960 28009 9328 611 19326 68236 137295 33683 13234 14788 2398 907 942 1911 3111 33287 360 24673 2546 4975 2022 13383 11856 3525 14626 4353 104974 31945 18424 2660 7215 7375 7470 15259 7413 36291 6019 1277 1705 1050 440 490
is_linear=0
shrinkage=0.05


Tree=17
num_leaves=63
num_cat=0
split_feature=7 7 7 7 7 7 7 7 7 7 7 7 7 7 7 7 7 7 7 7 7 7 7 7 7 7 7 7 7 7 7 7 3 3 7 7 0 7 7 7 7 7 7 7 7 7 7 7 7 7 7 7 7 7 7 7 17 7 1 21 1 3
split_gain=4.66469e+06 982417 979145 271433 163013 131196 123302 116365 26966.9 18159.9 14468.4 13864.9 13771.9 13150.5 10560.6 8368.44 4074.82 3006.72 2466.72 2208.52 2180.45 2144.18 2043.07 2023.84 1907.29 1888.56 1698.96 1694.8 1668.47 1653.05 916.273 647.641 552.886 548.727 458.327 393.932 365.663 329.222 307.275 291.434 281.576 276.136 274.921 274.63 273.41 261.363 245.983 243.79 227.604 223.595 222.509 219.926 216.139 210.465 199.6 195.18 190.699 175.179 137.936 118.155 114.194 100.509
