tree
version=v4
num_class=1
num_tree_per_iteration=1
label_index=0
max_feature_idx=38
objective=regression
feature_names=station_lat station_lng distance_km temperature_2m_max temperature_2m_min apparent_temperature_mean weathercode rain_sum precipitation_hours location_lat location_lng elevation_x hour day month year day_of_year day_of_week is_weekend month_sin month_cos day_sin day_cos district_encoded keyword_encoded city_encoded temp_range apparent_diff rain_intensity temp_lag_1 temp_lag_7 rain_lag_1 wind_lag_1 wind_lag_7 temp_rolling_3 temp_rolling_7 wind_rolling_3 wind_rolling_7 wind_log
feature_infos=[6:9.7000050000000009] [79.800020000000004:81.800020000000004] [0.47972228134306388:15509.211184420628] [20.100000000000001:37] [13.4:29] [18.5:36.700000000000003] [0:65] [0:131.5] [0:24] [5.9195355000000003:25.9296854] [-80.154572200000004:81.877943900000005] [0:1281] none [1:31] [1:12] [2010:2023] [31:366] [0:6] [0:1] [-1:1] [-1:1] [-0.99999073973619013:0.99999073973619013] [-0.99996295911626554:1] [0:30] [0:11] [0:29] [1.0999999999999979:14.500000000000002] [-1.2999999999999972:7.0999999999999979] [0:7.7352941176470589] [18.199999999999999:31.100000000000001] [18.199999999999999:31.100000000000001] [0:131.5] [3.2000000000000002:43.200000000000003] [3.2000000000000002:43.200000000000003] [18.5:30.5] [19.399999999999999:29.74285714285714] [3.2000000000000002:43.200000000000003] [4.3285714285714301:40.057142857142864] [1.4350845252893227:3.7887247890836524]
tree_sizes=5581 5682 5701 5716 5680 5682 5719 5701 5703 5708 5710 5690 5690 5734 5709 5729 5734 5703 5742 5738 5749 5723 5734 5741 5730 5741 5744 5751 5759 5761 5765 5746 5768 5745 5758 5747 5757 5773 5780 5775 5764 5782 5764 5778 5764 5741 5792 5800 5775 5774 5790 5774 5800 5797 5805 5832 5785 5821 5794 5817 5804 5792 5780 5786 5769 5810 5756 5768 5798 5789 5822 5819 5799 5824 5811 5804 5838 5809 5836 5853 5842 5834 5847 5834 5869 5853 5888 5887 5878 5867 5896 5879 5874 5930 5921 5944 5946 5922 5942 5928 5973 5944 5925 5935 5933 5963 5968 5924 5927 5930 5971 5965 5920 5962 5975 5936 5984 6013 5998 5975 5982 5969 5962 6000 5983 5982 5955 6021 5988 6008 6009 6047 5999 6041 6028 6027 6016 6044 5980 5971 5999 6049 6033 6017

Tree=0
num_leaves=63
num_cat=0
split_feature=7 7 7 7 7 7 7 7 7 7 7 7 7 7 7 7 7 7 7 0 7 7 7 7 7 7 7 7 7 7 7 7 0 7 7 7 7 7 7 7 7 7 7 17 7 7 7 7 7 7 7 7 7 7 7 7 7 7 7 7 3 3
split_gain=4.10044e+07 9.0158e+06 8.85952e+06 2.81873e+06 1.37137e+06 1.20382e+06 1.06393e+06 411079 325060 167815 148400 116809 111079 107132 42627.8 39624.3 38326.5 38265.9 32902.1 30942.3 19331.8 17560.6 16357.2 16039 15674.3 13459.1 13209.4 12963.4 12031.8 11019.7 9401.66 8414.02 6265.32 5416.88 5414.49 3994.77 3410.03 3141.81 2876.61 2559.92 2519.86 2459.31 2382.67 1985.36 1889.76 1844.63 1696.17 1667.63 1639.95 1638.83 1582.43 1573.02 1475.2 1243.25 1158.8 1129.41 952.068 935.214 921.58 799.446 533.243 518.737
threshold=19.550000000000004 57.250000000000007 6.8500000000000005 34.800000000000004 92.90000000000002 2.5500000000000003 12.550000000000002 26.250000000000004 44.150000000000006 4.5500000000000007 0.95000000000000007 15.750000000000002 78.600000000000009 9.6500000000000004 39.300000000000004 72.15000000000002 30.800000000000001 22.300000000000001 50.400000000000006 7.7999992500000008 8.1500000000000004 3.5500000000000003 1.7500000000000002 17.650000000000002 5.6500000000000012 0.35000000000000003 11.050000000000002 62.750000000000007 14.250000000000002 47.300000000000004 28.850000000000005 24.100000000000005 7.3500022500000011 36.550000000000004 52.600000000000009 41.70000000000001 20.950000000000003 3.0500000000000003 32.650000000000006 1.3500000000000003 16.750000000000004 8.9500000000000011 6.2500000000000009 4.5000000000000009 2.1500000000000008 4.0500000000000007 13.450000000000001 5.1500000000000012 11.850000000000003 10.350000000000003 7.5500000000000007 14.900000000000002 18.650000000000002 0.65000000000000002 0.15000000000000005 29.800000000000001 37.850000000000009 26.850000000000005 33.600000000000001 25.100000000000005 25.350000000000005 28.850000000000005
decision_type=2 2 2 2 2 2 2 2 2 2 2 2 2 2 2 2 2 2 2 2 2 2 2 2 2 2 2 2 2 2 2 2 2 2 2 2 2 2 2 2 2 2 2 2 2 2 2 2 2 2 2 2 2 2 2 2 2 2 2 2 2 2
left_child=2 3 5 7 12 10 13 17 14 21 25 28 15 20 33 27 30 36 29 -6 50 37 39 40 47 54 49 -3 46 43 57 -19 -14 -5 -20 -16 -2 -7 -18 -12 -13 -22 -26 -10 -24 -23 -8 -11 -28 -15 -4 -30 -25 -27 -1 -32 -35 -9 -40 -33 -36 -17
right_child=1 4 6 8 19 9 11 16 18 24 22 23 32 26 35 61 38 31 34 -21 41 45 44 52 42 53 48 -29 51 -31 55 59 -34 56 60 -37 -38 -39 58 -41 -42 -43 -44 -45 -46 -47 -48 -49 -50 -51 -52 -53 -54 -55 -56 -57 -58 -59 -60 -61 -62 -63
leaf_value=5.8672494519424347 6.8823455534850009 8.8195429887395047 6.2280379150189145 7.6412867845613484 12.441648045100653 6.0064413998359081 6.5185694302576902 7.1978934703870738 8.1107483650923502 6.108987262011933 5.9239738934396655 6.6796784306919479 10.286648121394599 6.3663625961610295 7.9005430477502072 9.6232405370982654 7.4583956457682081 7.021778593142681 8.432626748664223 10.736648121394598 6.2976370262979815 6.0565784718932161 5.9631372905341529 6.7778054455851651 6.1637757916728555 5.8917084471534222 6.4403516983596845 9.3094440445741533 6.5931918210793876 8.3385489979700598 7.3317122314269811 7.0974021902431019 9.9066481976885434 7.7264867442644034 8.7113803023987124 8.0172800692885957 6.9479598939728406 6.031706736592688 7.5209394001876326 5.9442296813257984 6.7271556500505723 6.3302401494492786 6.192000849801957 8.2140139095896991 5.9835993349513403 6.0812235362789266 6.5580808430143884 6.1367931484223606 6.4794086739308394 6.3996095426277577 6.2597082412155345 6.6328536353469536 6.819150408524016 5.9067658781229877 5.8788535979651844 7.3799394101684292 7.7926706793452718 7.2620115794809657 7.5892699506224748 7.1403787597244586 8.5942098484219684 9.6866481213945974
leaf_weight=117965 3535 171 8984 1577 536 23885 4354 783 789 12317 32582 5399 552 6932 1321 810 1837 4449 884 28 11974 16917 23021 5712 16265 31298 6691 642 4130 2036 2188 2089 135 991 112 1646 4502 25379 1573 29923 5794 11189 13839 1135 22131 13775 7221 9591 4492 7966 7031 6334 3467 24393 26313 2727 1203 2078 719 2245 730 536
leaf_count=117965 3535 171 8984 1577 536 23885 4354 783 789 12317 32582 5399 552 6932 1321 810 1837 4449 884 28 11974 16917 23021 5712 16265 31298 6691 642 4130 2036 2188 2089 135 991 112 1646 4502 25379 1573 29923 5794 11189 13839 1135 22131 13775 7221 9591 4492 7966 7031 6334 3467 24393 26313 2727 1203 2078 719 2245 730 536
internal_value=6.17542 7.63396 6.05666 7.42922 10.1046 5.9571 6.46316 7.15707 8.05846 6.08343 5.90291 6.65812 9.65822 6.33645 7.82352 9.48202 7.3819 6.99794 8.33687 12.357 6.28418 6.03795 5.95024 6.74443 6.15334 5.87742 6.41497 9.2064 6.57834 8.25747 7.31652 7.07008 10.212 7.71197 8.51906 7.96531 6.9191 6.01946 7.50501 5.93367 6.70425 6.31339 6.17675 8.17167 5.97317 6.06764 6.54322 6.12116 6.45604 6.38414 6.24194 6.6172 6.79342 5.8983 5.86937 7.35847 7.76278 7.24446 7.54237 7.11966 8.6098 9.64849
internal_weight=591823 44559 547264 41149 3410 439594 107670 28725 12424 131968 307626 42411 2846 65259 6738 2159 11905 16820 5686 564 39178 79956 107657 20372 52012 199969 26081 813 22039 3960 7776 8783 687 3771 1726 2967 8037 49264 4129 62505 11193 23163 30104 1924 45152 30692 11575 21908 11183 14898 16015 10464 9179 55691 144278 4915 2194 2861 2292 4334 842 1346
internal_count=591823 44559 547264 41149 3410 439594 107670 28725 12424 131968 307626 42411 2846 65259 6738 2159 11905 16820 5686 564 39178 79956 107657 20372 52012 199969 26081 813 22039 3960 7776 8783 687 3771 1726 2967 8037 49264 4129 62505 11193 23163 30104 1924 45152 30692 11575 21908 11183 14898 16015 10464 9179 55691 144278 4915 2194 2861 2292 4334 842 1346
is_linear=0
shrinkage=1


Tree=1
num_leaves=63
num_cat=0
split_feature=7 7 7 7 7 7 7 7 7 7 7 7 7 7 7 7 7 7 7 0 7 7 7 7 7 7 7 7 7 7 7 7 7 0 7 7 7 7 7 7 7 7 7 7 17 7 7 7 7 7 7 7 7 7 7 7 7 7 7 7 3 3
split_gain=3.70065e+07 8.13676e+06 7.99577e+06 2.5439e+06 1.23766e+06 1.10512e+06 941457 370998 293367 156628 133931 105469 100249 92605.2 38471.5 35761 34589.7 34535 29782.7 27925.4 17636 15807.1 14776.2 13170.8 13092.1 12189 12146.9 11921.5 11699.4 8661.54 8517.13 7593.65 6123.11 5654.44 4888.74 3605.28 3077.55 2835.48 2599.7 2573.17 2063.47 1883.3 1859.12 1812.29 1791.79 1768.34 1738.76 1601.83 1562.52 1493.65 1488.58 1483.21 1338.82 1337.8 1122.03 1045.82 859.24 721.501 630.12 551.91 481.253 468.16
threshold=19.550000000000004 57.250000000000007 6.9500000000000011 34.800000000000004 92.90000000000002 2.5500000000000003 12.550000000000002 26.250000000000004 44.150000000000006 4.6500000000000012 0.95000000000000007 16.050000000000004 78.600000000000009 9.6500000000000004 39.300000000000004 72.15000000000002 30.800000000000001 22.300000000000001 50.000000000000007 7.7999992500000008 3.5500000000000003 8.3500000000000032 1.6500000000000001 5.7500000000000009 17.650000000000002 14.250000000000002 0.35000000000000003 11.050000000000002 62.750000000000007 47.300000000000004 28.500000000000004 24.100000000000005 52.600000000000009 7.3500022500000011 36.550000000000004 41.70000000000001 20.950000000000003 3.0500000000000003 32.850000000000001 2.0500000000000003 4.0500000000000007 9.0500000000000025 16.750000000000004 5.2500000000000009 4.5000000000000009 6.3500000000000005 15.050000000000002 7.6500000000000012 13.250000000000002 10.15 1.2500000000000002 11.750000000000002 18.350000000000005 29.650000000000002 0.65000000000000002 0.15000000000000005 37.850000000000009 25.100000000000005 26.850000000000005 33.600000000000001 25.350000000000005 28.850000000000005
decision_type=2 2 2 2 2 2 2 2 2 2 2 2 2 2 2 2 2 2 2 2 2 2 2 2 2 2 2 2 2 2 2 2 2 2 2 2 2 2 2 2 2 2 2 2 2 2 2 2 2 2 2 2 2 2 2 2 2 2 2 2 2 2
left_child=2 3 5 7 12 10 13 17 14 20 26 25 15 21 34 28 30 36 29 -6 37 47 50 43 42 48 55 49 -3 44 58 -19 -20 -14 -5 -16 -2 -7 -18 -24 -22 -23 -13 -11 -10 -25 -27 -4 -8 -15 -12 -29 -26 -32 -28 -1 -36 -33 -9 -40 -34 -17
right_child=1 4 6 8 19 9 11 16 18 23 22 24 33 27 35 61 38 31 32 -21 40 41 39 45 52 46 54 51 -30 -31 53 57 60 -35 56 -37 -38 -39 59 -41 -42 -43 -44 -45 -46 -47 -48 -49 -50 -51 -52 -53 -54 -55 -56 -57 -58 -59 -60 -61 -62 -63
leaf_value=-0.29276123735967652 0.67158005767023721 2.5119176563463714 0.054370538953623718 1.392574206227053 5.9529174804687504 -0.16052889181625801 0.31824573126270544 0.97135057741654784 1.8385627147060537 -0.058639212001853819 -0.24082135762300358 0.48170320482151485 3.9056674957275392 0.17823317938179348 1.6388676512701599 3.2754306115044489 1.2292542808472038 0.80404142668928358 2.1344017306610703 4.3331676483154302 -0.1128986719089133 0.12179698822693502 -0.20579257039297258 -0.0047602782059732174 0.56708823525856555 0.40073665237654138 -0.26952519126803481 0.2473777420036016 2.9773235873641255 2.0491594063664227 1.0880029319336983 0.87588382577599389 2.4091630663190569 3.5446678161621095 1.473514198126153 1.7497678045224161 0.7339136631422073 -0.13652682782177702 1.2859707082286989 -0.18373948864966352 -0.087741334352308381 0.15218022630981287 0.52414962994381609 -0.030794528284805684 1.9366650664543792 0.021008537915054495 0.44032276437506318 0.08601468127739903 0.36023852031638937 0.21078481268906135 -0.22430424134531607 0.28384861970388958 0.60532158678949932 1.1400430059418372 -0.25522063076092943 -0.2817373039241039 1.536388883329092 0.91671157628762434 1.0253474678722387 1.3431582328838831 2.2978510336679956 3.3356678009033205
leaf_weight=117965 3535 171 9257 1577 536 23885 2985 783 789 12244 25985 4650 552 5721 1321 810 2389 4449 1126 28 16917 13669 27276 16588 4374 5033 31298 5292 642 1794 1987 2089 112 135 991 1646 4502 25379 1021 25681 15730 8136 5794 11179 1135 11121 6180 7041 8590 9177 28715 5891 4805 3263 24393 26313 1203 2245 1743 719 730 536
leaf_count=117965 3535 171 9257 1577 536 23885 2985 783 789 12244 25985 4650 552 5721 1321 810 2389 4449 1126 28 16917 13669 27276 16588 4374 5033 31298 5292 642 1794 1987 2089 112 135 991 1646 4502 25379 1021 25681 15730 8136 5794 11179 1135 11121 6180 7041 8590 9177 28715 5891 4805 3263 24393 26313 1203 2245 1743 719 730 536
internal_value=-8.95284e-11 1.38562 -0.112819 1.19112 3.73271 -0.206816 0.275769 0.932567 1.78889 -0.086414 -0.258888 0.458569 3.30866 0.15498 1.5657 3.14127 1.14615 0.781393 2.05338 5.8725 -0.129277 0.105291 -0.213924 -0.0177493 0.543539 0.385401 -0.283095 0.227573 2.87943 1.97013 1.08405 0.849928 2.21067 3.83473 1.45972 1.70039 0.706497 -0.148164 1.26311 -0.195098 -0.100777 0.133134 0.505251 -0.0453499 1.89643 0.00558203 0.422554 0.0680413 0.349409 0.198285 -0.232151 0.26659 0.587103 1.12035 -0.26326 -0.290751 1.50799 0.897032 1.00861 1.3096 2.31266 3.29942
internal_weight=591823 44559 547264 41149 3410 440669 106595 28725 12424 133043 307626 42411 2846 64184 6738 2159 11905 16820 5686 564 81911 38103 107657 51132 19623 22788 199969 26081 813 3718 7776 8783 1968 687 3771 2967 8037 49264 4129 52957 32647 21805 10444 23423 1924 27709 11213 16298 11575 14898 54700 11183 9179 5250 55691 144278 2194 4334 2526 1740 842 1346
internal_count=591823 44559 547264 41149 3410 440669 106595 28725 12424 133043 307626 42411 2846 64184 6738 2159 11905 16820 5686 564 81911 38103 107657 51132 19623 22788 199969 26081 813 3718 7776 8783 1968 687 3771 2967 8037 49264 4129 52957 32647 21805 10444 23423 1924 27709 11213 16298 11575 14898 54700 11183 9179 5250 55691 144278 2194 4334 2526 1740 842 1346
is_linear=0
shrinkage=0.05


Tree=2
num_leaves=63
num_cat=0
split_feature=7 7 7 7 7 7 7 7 7 7 7 7 7 7 7 7 7 7 7 0 7 7 7 7 7 7 7 7 7 7 7 7 0 7 7 7 7 7 7 7 7 7 7 7 17 7 7 7 7 7 7 7 7 7 7 7 7 7 7 7 7 7
split_gain=3.33983e+07 7.34342e+06 7.21638e+06 2.29587e+06 1.11699e+06 980805 866512 334826 264763 146308 111075 95241.3 90474.5 87260.8 34720.6 32274.2 31240.1 31217.2 26882.1 25202.7 16618.2 14229.9 13934.8 13039.7 12780.4 12387.3 10558.7 9776.62 8949.91 8036.06 7686.71 5856.41 5103.14 4412.08 4382.75 3557.9 3253.77 2609.86 2401.44 2398.3 2243.31 2037.69 2006.19 1647.25 1617.08 1613.64 1598.73 1415.64 1373.29 1294.65 1293.98 1270.53 1233.98 1207.36 988.612 775.465 735.884 651.153 596.186 568.685 464.112 454.102
threshold=19.550000000000004 57.250000000000007 6.8500000000000005 34.800000000000004 92.90000000000002 2.4500000000000006 12.550000000000002 26.250000000000004 44.150000000000006 4.5500000000000007 0.8500000000000002 15.750000000000002 78.600000000000009 9.5500000000000025 39.300000000000004 72.15000000000002 22.750000000000004 30.800000000000001 50.400000000000006 7.7999992500000008 3.4500000000000006 8.1500000000000004 1.5500000000000003 17.650000000000002 5.6500000000000012 10.950000000000001 62.750000000000007 14.250000000000002 47.300000000000004 0.25000000000000006 28.500000000000004 24.100000000000005 7.3500022500000011 36.550000000000004 52.600000000000009 21.250000000000004 41.70000000000001 2.9500000000000006 32.650000000000006 1.9500000000000002 3.9500000000000006 16.750000000000004 6.1500000000000012 8.8500000000000032 4.5000000000000009 11.750000000000002 10.15 13.450000000000001 5.0500000000000007 14.900000000000002 7.4500000000000011 1.1500000000000001 18.650000000000002 29.650000000000002 0.55000000000000016 37.850000000000009 33.600000000000001 25.100000000000005 20.400000000000002 26.850000000000005 21.850000000000005 6.5500000000000007
decision_type=2 2 2 2 2 2 2 2 2 2 2 2 2 2 2 2 2 2 2 2 2 2 2 2 2 2 2 2 2 2 2 2 2 2 2 2 2 2 2 2 2 2 2 2 2 2 2 2 2 2 2 2 2 2 2 2 2 2 2 2 2 2
left_child=2 3 5 7 12 10 13 16 14 20 29 27 15 21 33 26 35 30 28 -6 37 50 51 41 48 46 -3 47 44 -1 59 -18 -14 -5 -20 58 -16 -7 -19 -24 -22 -13 -26 -23 -10 -27 -15 -8 -11 -29 -4 -12 -25 -32 -31 -35 -40 -33 -2 -9 -37 -44
right_child=1 4 6 8 19 9 11 17 18 24 22 23 32 25 36 -17 31 38 34 -21 40 43 39 52 42 45 -28 49 -30 54 53 57 -34 55 -36 60 -38 -39 56 -41 -42 -43 61 -45 -46 -47 -48 -49 -50 -51 -52 -53 -54 -55 -56 -57 -58 -59 -60 -61 -62 -63
leaf_value=-0.27720671476346109 0.6270990045023348 2.386321800633481 0.04556280011943422 1.3229454907119162 5.6552719116210941 -0.1570121013172262 0.30942027633979774 0.92278299623978999 1.7466346141201161 -0.061478760816223443 -0.23386358946871738 0.45524814601826835 3.7103843688964844 0.16639803482820587 1.5569242346747008 3.1344470640525426 0.76744567348071124 1.157364875905593 2.0376271105459915 4.1165092468261717 -0.1128700502635033 0.10683578169369408 -0.19989098609701356 0.54346473614374802 -0.012881757481235457 0.23296078865140132 2.8284575061263326 0.37684716362064169 1.9520088216410638 -0.26069826746099012 1.0336027900837867 0.83208967065514428 3.3674343109130862 1.3998384702819147 2.1970246489427434 0.69529682328981834 1.6622794393490761 -0.13398224804043787 1.2149408130075852 -0.17921066758043444 -0.087766466085380884 0.49794213520809827 0.0071274126125991932 0.13463240215095559 1.8398316466545745 0.2696561815782792 0.19839860054379679 0.34551666767507067 -0.036441918660116639 0.41282875759954668 0.073992184582393233 -0.21863847187009122 0.58127857993032117 1.0830408430084875 -0.24758581956463438 1.4595694634682521 1.2760002967876918 0.87087598592507554 0.6643710816775823 0.97408013007316652 0.72910708874882246 0.024764070143711375
leaf_weight=132672 2369 171 7866 1577 536 24083 4354 783 789 10966 24713 5399 552 7311 1321 1346 3851 1837 884 28 17922 9617 29616 5712 13720 6096 642 4130 2036 32761 1987 2089 135 991 842 2666 1646 25148 1573 26621 17677 5794 10896 11956 1135 5891 8373 7221 10942 6334 8149 30756 3467 3263 25613 1203 719 2245 1961 1743 1639 5488
leaf_count=132672 2369 171 7866 1577 536 24083 4354 783 789 10966 24713 5399 552 7311 1321 1346 3851 1837 884 28 17922 9617 29616 5712 13720 6096 642 4130 2036 32761 1987 2089 135 991 842 2666 1646 25148 1573 26621 17677 5794 10896 11956 1135 5891 8373 7221 10942 6334 8149 30756 3467 3263 25613 1203 719 2245 1961 1743 1639 5488
internal_value=6.25857e-10 1.31634 -0.107178 1.13156 3.54608 -0.197035 0.25969 0.885939 1.69945 -0.0859466 -0.247247 0.435641 3.14323 0.145342 1.48741 2.9842 0.742324 1.08885 1.95071 5.57888 -0.126429 0.0957344 -0.20764 0.513574 -0.0199203 0.212728 2.73546 0.363602 1.87894 -0.270405 1.02985 0.812313 3.64299 1.38674 2.11539 0.675981 1.61537 -0.145248 1.19996 -0.190102 -0.100405 0.477348 0.00122335 0.122241 1.80161 0.250995 0.183482 0.331939 -0.0489741 0.398627 0.0600287 -0.225422 0.557747 1.06433 -0.254945 1.43259 1.2341 0.852181 0.643979 0.958179 0.708169 0.013035
internal_weight=591823 44559 547264 41149 3410 439594 107670 28725 12424 136842 302752 42411 2846 65259 6738 2159 16820 11905 5686 564 84830 37588 111706 20372 52012 27671 813 22039 3960 191046 7776 8185 687 3771 1726 8635 2967 49231 4129 56237 35599 11193 30104 21573 1924 11987 15684 11575 21908 10464 16015 55469 9179 5250 58374 2194 2292 4334 4330 2526 4305 16384
internal_count=591823 44559 547264 41149 3410 439594 107670 28725 12424 136842 302752 42411 2846 65259 6738 2159 16820 11905 5686 564 84830 37588 111706 20372 52012 27671 813 22039 3960 191046 7776 8185 687 3771 1726 8635 2967 49231 4129 56237 35599 11193 30104 21573 1924 11987 15684 11575 21908 10464 16015 55469 9179 5250 58374 2194 2292 4334 4330 2526 4305 16384
is_linear=0
shrinkage=0.05


Tree=3
num_leaves=63
num_cat=0
split_feature=7 7 7 7 7 7 7 7 7 7 7 7 7 7 7 7 7 7 7 0 7 7 7 7 7 7 7 7 7 7 7 7 0 7 7 7 7 7 17 7 7 7 7 7 7 7 7 7 7 7 7 7 7 7 6 7 7 7 7 7 7 3
split_gain=3.0142e+07 6.62744e+06 6.51285e+06 2.07202e+06 1.00808e+06 900306 766762 302181 239004 127555 109107 85967.9 81653.2 75476.3 29127.5 28194.2 28180.3 28173.5 26970 22745.4 14379.5 12881.6 12128.2 11325.3 10820.4 10648.4 9973.13 9917.86 9719.18 9529.25 6961.64 5285.41 4605.58 3231.73 3211.01 2971.85 2768.45 2167.3 2069.79 1947.42 1905.09 1667.16 1648 1574.77 1504.91 1405.79 1331.72 1318.19 1258.22 1241.97 1128.07 1086.3 996.056 911.828 883.964 855.962 733.915 664.134 594.333 560.152 538.057 483.124
threshold=19.550000000000004 57.250000000000007 6.9500000000000011 34.800000000000004 92.90000000000002 2.5500000000000003 12.550000000000002 26.250000000000004 43.500000000000007 4.6500000000000012 0.95000000000000007 16.050000000000004 78.600000000000009 9.6500000000000004 72.15000000000002 22.750000000000004 47.300000000000004 30.800000000000001 38.800000000000004 7.7999992500000008 3.6500000000000008 8.3500000000000032 1.7500000000000002 52.600000000000009 5.8500000000000005 17.650000000000002 14.450000000000001 0.35000000000000003 11.050000000000002 62.750000000000007 28.850000000000005 24.100000000000005 7.3500022500000011 41.300000000000004 21.250000000000004 36.550000000000004 3.1500000000000008 32.650000000000006 4.5000000000000009 5.2500000000000009 1.3500000000000003 50.000000000000007 13.550000000000002 9.1500000000000004 16.750000000000004 2.1500000000000008 4.1500000000000012 7.7500000000000009 11.850000000000003 10.450000000000001 18.750000000000004 6.4500000000000011 15.15 0.65000000000000002 27.000000000000004 29.800000000000001 27.650000000000002 33.600000000000001 25.250000000000004 2.8500000000000001 20.400000000000002 27.950000000000003
decision_type=2 2 2 2 2 2 2 2 2 2 2 2 2 2 2 2 2 2 2 2 2 2 2 2 2 2 2 2 2 2 2 2 2 2 2 2 2 2 2 2 2 2 2 2 2 2 2 2 2 2 2 2 2 2 2 2 2 2 2 2 2 2
left_child=2 3 5 7 12 10 13 15 18 20 27 26 14 21 29 34 38 30 35 -6 36 47 40 41 39 44 42 54 49 -3 56 -17 -14 -20 60 -5 59 -19 -10 -11 -12 -18 -8 -23 -13 -24 -22 -4 -30 -15 -27 -26 -28 -29 -1 -32 -9 -39 -33 -7 -2 -35
right_child=1 4 6 8 19 9 11 17 16 24 22 25 32 28 -16 31 23 37 33 -21 46 43 45 -25 51 50 52 53 48 -31 55 58 -34 61 -36 -37 -38 57 -40 -41 -42 -43 -44 -45 -46 -47 -48 -49 -50 -51 -52 -53 -54 -55 -56 -57 -58 -59 -60 -61 -62 -63
leaf_value=-0.26486406326293949 0.59574405264381425 2.2670056995592622 0.050126393891490678 1.2567982586562521 5.3725082397460939 -0.15020185056407973 0.29677963921772177 0.89304006076613263 1.6510748431985869 -0.052963862489033897 -0.21569832193793662 0.43485562295811153 3.5248649597167971 0.16718131562961058 2.977724689750048 0.72907340052963021 1.8491010414982587 1.0994966813255149 1.4552417958939188 3.9106838226318361 -0.098621094648758095 0.1108961908739399 -0.18197424410375546 2.0871733839891302 0.00025969760936945277 0.51801079665289984 0.36782770761220046 -0.24322649729778245 0.22690407714934971 2.687034471458364 0.99115514005559902 0.79841123567732986 3.1990627288818363 1.5785336494445801 0.67276060775597335 1.3502996630469419 -0.11977521213451155 1.1541937952350829 1.7478402220940277 -0.025671742054426624 -0.19822424729471241 1.9267203925557927 0.33334817497231883 0.1396543622390444 0.4730450366668385 -0.16432578917046536 -0.077379154166973996 0.079338657182863689 0.26111477769493313 0.19664818441841833 0.55578923352934828 0.022453243406403717 0.39953896614392082 -0.23033129690474691 -0.25615415063291264 1.0331399978802762 0.94386293001291222 1.2122002479595668 0.84028994473544039 -0.13620278458660903 0.63115250715365656 1.5217412830025427
leaf_weight=103780 2369 171 10011 1577 536 13735 5174 1549 1077 12244 32582 4650 552 8937 1346 3851 1794 1837 1371 28 16133 14784 23021 842 16615 6300 4517 31298 6691 642 2188 3179 135 1088 4305 1843 23551 1573 1135 14021 29923 1126 7616 7021 5794 22131 13597 6287 4492 5961 2879 8252 5481 24393 40498 2727 1312 719 1155 14895 1961 571
leaf_count=103780 2369 171 10011 1577 536 13735 5174 1549 1077 12244 32582 4650 552 8937 1346 3851 1794 1837 1371 28 16133 14784 23021 842 16615 6300 4517 31298 6691 642 2188 3179 135 1088 4305 1843 23551 1573 1135 14021 29923 1126 7616 7021 5794 22131 13597 6287 4492 5961 2879 8252 5481 24393 40498 2727 1312 719 1155 14895 1961 571
internal_value=2.09687e-09 1.25052 -0.101819 1.07498 3.36877 -0.186653 0.248888 0.841642 1.61448 -0.0779793 -0.233652 0.413859 2.98607 0.13988 2.83499 0.705207 1.84235 1.0344 1.40342 5.29994 -0.11666 0.0950219 -0.193069 1.92562 -0.0160141 0.490572 0.3478 -0.255501 0.205416 2.59869 0.978355 0.771698 3.46084 1.51204 0.642182 1.30719 -0.132473 1.13996 1.70073 -0.0383946 -0.207333 1.87903 0.318555 0.120156 0.456042 -0.173324 -0.0889061 0.0613951 0.240646 0.178972 0.52986 0.00762452 0.385212 -0.237578 -0.262419 1.01445 0.916346 1.17239 0.809572 -0.142919 0.61178 1.55899
internal_weight=591823 44559 547264 41149 3410 440669 106595 28725 12424 133043 307626 42411 2846 64184 2159 16820 5974 11905 6450 564 81911 38103 107657 3762 51132 19623 22788 199969 26081 813 7776 8185 687 3030 8635 3420 52181 4129 2212 26265 62505 2920 12790 21805 10444 45152 29730 16298 11183 14898 9179 24867 9998 55691 144278 4915 2861 2292 4334 28630 4330 1659
internal_count=591823 44559 547264 41149 3410 440669 106595 28725 12424 133043 307626 42411 2846 64184 2159 16820 5974 11905 6450 564 81911 38103 107657 3762 51132 19623 22788 199969 26081 813 7776 8185 687 3030 8635 3420 52181 4129 2212 26265 62505 2920 12790 21805 10444 45152 29730 16298 11183 14898 9179 24867 9998 55691 144278 4915 2861 2292 4334 28630 4330 1659
is_linear=0
shrinkage=0.05


Tree=4
num_leaves=63
num_cat=0
split_feature=7 7 7 7 7 7 7 7 7 7 7 7 7 7 7 7 7 7 7 0 7 7 7 7 7 7 7 7 7 7 7 7 7 0 7 7 7 7 7 7 7 7 7 7 7 17 7 7 7 7 7 7 7 7 7 7 7 7 7 7 0 3
split_gain=2.72031e+07 5.98126e+06 5.87793e+06 1.87e+06 909795 799042 705744 272718 215760 119301 90510.8 77648.6 73692.1 71112.5 28361.2 26287.6 25511.1 25479.1 21949.1 20527.7 12567.3 11798.2 11594.7 11388.2 10616 10151 8600.15 8033.57 6563.7 6326.18 5542.27 5385 4477.42 4156.54 3571.45 2998.01 2618.46 2266.6 2013.69 1947.67 1885.41 1874.29 1633.06 1511.53 1393.01 1304.28 1242.77 1203.81 1084.71 1083.51 1080.86 1044.27 877.546 805.832 750.752 705.737 662.603 553.805 483.674 466.928 443.107 434.328
threshold=19.550000000000004 57.250000000000007 6.8500000000000005 34.800000000000004 92.90000000000002 2.4500000000000006 12.550000000000002 26.250000000000004 44.150000000000006 4.4500000000000011 0.8500000000000002 15.750000000000002 78.600000000000009 9.5500000000000025 39.300000000000004 72.15000000000002 22.300000000000001 30.550000000000004 50.000000000000007 7.7999992500000008 5.5500000000000007 3.3500000000000001 8.1500000000000004 1.5500000000000003 17.350000000000005 10.850000000000003 62.750000000000007 14.15 0.25000000000000006 47.300000000000004 24.100000000000005 28.500000000000004 52.600000000000009 7.3500022500000011 36.550000000000004 32.250000000000007 41.70000000000001 20.750000000000004 6.1500000000000012 1.9500000000000002 3.8500000000000001 11.550000000000002 2.8500000000000001 18.350000000000005 8.7500000000000018 4.5000000000000009 14.900000000000002 16.450000000000003 13.250000000000002 4.9500000000000011 7.5500000000000007 1.1500000000000001 10.050000000000002 0.55000000000000016 29.150000000000002 33.600000000000001 37.850000000000009 25.100000000000005 26.850000000000005 21.350000000000005 6.8500022500000011 25.350000000000005
decision_type=2 2 2 2 2 2 2 2 2 2 2 2 2 2 2 2 2 2 2 2 2 2 2 2 2 2 2 2 2 2 2 2 2 2 2 2 2 2 2 2 2 2 2 2 2 2 2 2 2 2 2 2 2 2 2 2 2 2 2 2 2 2
left_child=2 3 5 7 12 10 13 16 14 21 28 27 15 22 34 26 37 31 29 -6 49 42 50 51 47 52 -3 48 -1 45 -18 58 -20 -14 -5 -19 -16 -2 -22 -25 -23 -27 -7 -26 -24 -10 -29 -13 -8 -11 -4 -12 -15 -30 -33 -37 -36 -32 -9 -39 -28 -34
right_child=1 4 6 8 19 9 11 17 18 20 23 24 33 25 36 -17 30 35 32 -21 38 40 44 39 43 41 60 46 53 -31 57 54 61 -35 56 55 -38 59 -40 -41 -42 -43 -44 -45 -46 -47 -48 -49 -50 -51 -52 -53 -54 -55 -56 -57 -58 -59 -60 -61 -62 -63
leaf_value=-0.25019800937098835 0.57048175817308411 2.1536554035387545 0.04267308560074809 1.1939582737624532 5.1038825988769538 -0.14432463644781979 0.27202344980671178 0.83199186617387211 1.5767490741115711 -0.059760979136772079 -0.21112131666771505 0.40813776216215852 3.34862174987793 0.14621553176117927 1.4055583577008071 2.8288385053977572 0.68964951849165967 1.0295725847638459 1.8303844092794255 3.7151496887207034 -0.013095842512509382 -0.10557832867051123 0.093994879321177671 -0.18035989844721759 0.48122809394713378 0.2046140342129959 2.4523868560791016 0.33879974031648719 -0.2352730380117353 1.7566459404850752 0.75056463098229265 0.92470408838643248 2.0744949068341936 3.0391094207763674 1.2623315084594049 1.0931713482607968 1.5000699755922413 0.60573651008667295 0.011884175548743769 -0.16172345437265923 -0.083064561191176722 0.24153560531428031 -0.12494721342878756 0.51948571945452426 0.12020902545741713 1.6604481780266447 0.3726113875957931 0.44293777165506754 0.30736664432077554 -0.037804432572396851 0.068847348633742977 -0.19731832237148461 0.17195140943776233 -0.22343463037879047 0.96844958433822537 1.1515902397198206 1.3175450210856678 0.78633435402256346 0.87929975517303594 0.63712604330206879 2.5698867797851563 1.9687487082285426
leaf_weight=132672 2926 171 8984 1577 536 18609 2985 783 789 11572 24713 4652 552 5442 1321 1346 4449 2158 1126 28 15894 19661 8137 29616 5580 7116 94 4760 32761 1794 2089 1403 112 135 991 1840 1646 1866 16384 26621 17645 6649 26155 4805 13436 1135 6334 5335 7960 10922 7031 30756 8464 25613 3259 719 1203 2245 1743 3245 548 730
leaf_count=132672 2926 171 8984 1577 536 18609 2985 783 789 11572 24713 4652 552 5442 1321 1346 4449 2158 1126 28 15894 19661 8137 29616 5580 7116 94 4760 32761 1794 2089 1403 112 135 991 1840 1646 1866 16384 26621 17645 6649 26155 4805 13436 1135 6334 5335 7960 10922 7031 30756 8464 25613 3259 719 1203 2245 1743 3245 548 730
internal_value=2.88033e-10 1.18799 -0.0967282 1.02123 3.20033 -0.177825 0.234374 0.79956 1.53375 -0.0775571 -0.223146 0.393166 2.83676 0.131177 1.34234 2.69324 0.669947 0.982684 1.76057 5.03494 -0.0204099 -0.115696 0.0863947 -0.187393 0.463534 0.19201 2.46875 0.32812 -0.244051 1.6891 0.728851 0.923429 1.8956 3.2878 1.25135 1.07298 1.45799 0.605575 -0.000416227 -0.171538 -0.0949298 0.222449 -0.133003 0.498929 0.110321 1.62612 0.358104 0.426728 0.297728 -0.0490999 0.0541643 -0.203468 0.16188 -0.230079 0.955285 1.10959 1.29261 0.769093 0.864635 0.625666 2.55268 1.98281
internal_weight=591823 44559 547264 41149 3410 439594 107670 28725 12424 136842 302752 42411 2846 65259 6738 2159 16820 11905 5686 564 54772 82070 37588 111706 20372 27671 813 22039 191046 3718 8783 7188 1968 687 3771 4717 2967 8037 32278 56237 37306 13765 44764 10385 21573 1924 11094 9987 10945 22494 16015 55469 13906 58374 4662 2559 2194 4334 2526 5111 642 842
internal_count=591823 44559 547264 41149 3410 439594 107670 28725 12424 136842 302752 42411 2846 65259 6738 2159 16820 11905 5686 564 54772 82070 37588 111706 20372 27671 813 22039 191046 3718 8783 7188 1968 687 3771 4717 2967 8037 32278 56237 37306 13765 44764 10385 21573 1924 11094 9987 10945 22494 16015 55469 13906 58374 4662 2559 2194 4334 2526 5111 642 842
is_linear=0
shrinkage=0.05


Tree=5
num_leaves=63
num_cat=0
split_feature=7 7 7 7 7 7 7 7 7 7 7 7 7 7 7 7 7 7 7 0 7 7 7 7 7 7 7 7 7 7 7 7 0 7 7 7 7 7 17 7 7 7 7 7 7 7 7 7 7 7 7 7 7 7 7 7 7 3 7 7 0 3
split_gain=2.45509e+07 5.43762e+06 5.23869e+06 1.72213e+06 821090 697296 645347 244220 207678 109584 73109.8 70532.6 66507.1 65862.3 25559.9 24640.8 23724.5 22885.5 20079.8 18526.3 12724.8 10935.2 10146 9494.79 9224.56 8624.95 8285.83 8266.52 7761.64 5923.74 5001.9 4859.97 3751.28 3006.64 2684.49 2628.5 2468.51 2071.84 1662.24 1501.57 1457.3 1394.24 1374.64 1363.19 1162.98 1161.7 1106.18 1086.44 1075.97 1055.23 977.865 945.153 942.452 727.265 677.554 522.67 436.515 422.514 421.402 408.46 399.904 396.686
threshold=19.250000000000004 57.250000000000007 6.7500000000000009 34.500000000000007 92.90000000000002 2.3500000000000001 12.450000000000001 26.250000000000004 43.500000000000007 4.4500000000000011 0.8500000000000002 15.750000000000002 78.600000000000009 9.4500000000000011 22.300000000000001 38.800000000000004 72.15000000000002 47.300000000000004 30.550000000000004 7.7999992500000008 3.2500000000000004 8.0500000000000025 5.5500000000000007 10.65 52.600000000000009 17.350000000000005 1.5500000000000003 14.050000000000002 62.750000000000007 0.25000000000000006 24.100000000000005 28.500000000000004 7.3500022500000011 36.550000000000004 20.750000000000004 41.300000000000004 3.7500000000000004 32.250000000000007 4.5000000000000009 11.550000000000002 6.0500000000000007 2.7500000000000004 50.400000000000006 14.900000000000002 13.000000000000002 8.6500000000000004 1.8500000000000003 16.450000000000003 7.3500000000000005 18.350000000000005 4.9500000000000011 9.9500000000000011 1.1500000000000001 0.55000000000000016 29.150000000000002 25.650000000000002 26.850000000000005 28.850000000000005 21.350000000000005 23.150000000000002 6.8500022500000011 27.950000000000003
decision_type=2 2 2 2 2 2 2 2 2 2 2 2 2 2 2 2 2 2 2 2 2 2 2 2 2 2 2 2 2 2 2 2 2 2 2 2 2 2 2 2 2 2 2 2 2 2 2 2 2 2 2 2 2 2 2 2 2 2 2 2 2 2
left_child=2 3 5 7 12 10 13 14 15 20 29 27 16 21 34 33 28 38 31 -6 41 48 50 51 42 47 52 44 -3 -1 59 56 -14 -5 -2 -17 -22 -20 -10 -25 -24 -7 -19 -29 -8 -23 -28 -13 -4 -27 -11 -15 -12 -31 -33 -32 -9 -18 -36 -16 -30 -37
right_child=1 4 6 8 19 9 11 18 17 22 26 25 32 23 30 35 57 24 37 -21 36 45 40 39 -26 49 46 43 60 53 55 54 -34 -35 58 61 -38 -39 -40 -41 -42 -43 -44 -45 -46 -47 -48 -49 -50 -51 -52 -53 -54 -55 -56 -57 -58 -59 -60 -61 -62 -63
leaf_value=-0.23768811499995565 0.53763070759819342 2.0459726032457857 0.034722506590062679 1.1288487086506009 4.8486885070800785 -0.14035104630012207 0.25231058900234166 0.79039230638993663 1.4907089179383459 -0.056772928520640503 -0.20056525890759552 0.38773085375028959 3.1811906814575197 0.13535609872080104 0.64406725501355322 1.3133284459576653 2.6646085060967342 1.6732213940273803 0.97809393872145278 3.5293922424316406 -0.1041781955907972 0.083604391466393604 -0.015217375178977761 0.19292665020911659 1.8836739293186797 0.4571667002093408 -0.17361498601203687 0.32008532979493076 2.329767608642578 -0.22350939379329049 0.72300488154531051 0.87846890848530945 2.8871540069580082 1.2183918792012589 0.5754496734625274 1.4246034622192383 -0.080417888321301173 1.046832320677314 1.5774256789421721 0.22653658493651363 0.0070579733460125809 -0.12259213066139218 1.7478905535391556 0.35398082927382252 0.2882837823629833 0.10891854602721796 -0.15863549366203747 0.42079092011456193 0.059920794236710401 0.49031707838145855 -0.035914211334260558 0.16056025282489755 -0.18745240659618553 -0.2122628985250708 0.92002715239242461 0.77013372845119898 0.83533474352601889 2.7218338012695313 0.60526971246869243 0.67584520914379698 2.4413925170898438 1.3731417639242998
leaf_weight=132672 3518 171 8950 1908 536 21721 3143 783 1077 11572 24713 4652 552 6594 2895 1371 810 2036 2158 28 23991 6691 12638 7868 842 5580 22017 5579 94 32761 3632 1403 135 1843 1866 1088 20081 2228 1135 5753 17523 22501 884 6334 7879 14047 27996 5335 8044 4213 10922 8533 30756 25613 3259 702 1743 536 3245 1554 548 571
leaf_count=132672 3518 171 8950 1908 536 21721 3143 783 1077 11572 24713 4652 552 6594 2895 1371 810 2036 2158 28 23991 6691 12638 7868 842 5580 22017 5579 94 32761 3632 1403 135 1843 1866 1088 20081 2228 1135 5753 17523 22501 884 6334 7879 14047 27996 5335 8044 4213 10922 8533 30756 25613 3259 702 1743 536 3245 1554 548 571
internal_value=-6.59715e-10 1.12057 -0.0925503 0.963733 3.04032 -0.169879 0.217259 0.75069 1.44788 -0.0783198 -0.2134 0.368901 2.69493 0.119825 0.632363 1.25851 2.55858 1.66283 0.928702 4.78319 -0.112366 0.0763846 -0.0212301 0.17684 1.73787 0.438086 -0.179988 0.309234 2.34532 -0.231848 0.692409 0.877257 3.12341 1.17284 0.571245 1.36456 -0.093352 1.01301 1.5352 0.207122 -0.0022758 -0.131315 1.69583 0.338107 0.278026 0.100751 -0.16523 0.405391 0.04665 0.471428 -0.0466449 0.149574 -0.193295 -0.218575 0.90752 0.730639 0.821404 2.6874 0.594383 0.655167 2.42505 1.40689
internal_weight=591823 45151 546672 41741 3410 437477 109195 28986 12755 140949 296528 42715 2846 66480 17412 6781 2159 5974 11574 564 88294 37732 52655 28748 3762 19780 105482 22935 813 191046 8783 7188 687 3751 8629 3030 44072 4386 2212 13621 30161 44222 2920 11913 11022 20738 50013 9987 16994 9793 22494 15127 55469 58374 4662 4334 2526 1346 5111 4449 642 1659
internal_count=591823 45151 546672 41741 3410 437477 109195 28986 12755 140949 296528 42715 2846 66480 17412 6781 2159 5974 11574 564 88294 37732 52655 28748 3762 19780 105482 22935 813 191046 8783 7188 687 3751 8629 3030 44072 4386 2212 13621 30161 44222 2920 11913 11022 20738 50013 9987 16994 9793 22494 15127 55469 58374 4662 4334 2526 1346 5111 4449 642 1659
is_linear=0
shrinkage=0.05


Tree=6
num_leaves=63
num_cat=0
split_feature=7 7 7 7 7 7 7 7 7 7 7 7 7 7 7 7 7 7 7 0 7 7 7 7 7 7 7 7 7 7 7 7 0 7 7 7 7 17 7 7 7 7 7 7 7 7 7 7 7 7 7 7 7 7 7 7 7 7 7 7 3 3
split_gain=2.21577e+07 4.8717e+06 4.78802e+06 1.52325e+06 741034 674753 551209 222015 175817 90094.6 87581.3 60022.7 59143.2 56945.7 21411.4 20866.5 20849.1 20654.2 19850.2 16720 9920.41 9896.2 9370.05 8758.28 8325.16 7917.61 7730.65 7244.55 7004.88 5943.65 5100.98 3748.46 3385.53 2873.08 2164.12 1609.39 1534.05 1500.17 1472.95 1412.21 1351.3 1310.93 1278.02 1246.66 1215.54 1195.57 1182.51 1180.28 1114.31 1071.41 1009.74 697.315 664.462 660.827 659.199 627.193 570.777 566.836 530.852 418.354 391.983 381.319
threshold=19.550000000000004 57.250000000000007 7.0500000000000007 34.800000000000004 92.90000000000002 2.6500000000000008 12.850000000000003 26.250000000000004 43.500000000000007 4.7500000000000009 1.0500000000000003 78.600000000000009 9.8500000000000032 16.050000000000004 72.15000000000002 22.950000000000003 30.800000000000001 47.300000000000004 39.300000000000004 7.7999992500000008 3.6500000000000008 8.4500000000000011 0.45000000000000007 1.8500000000000003 52.600000000000009 17.950000000000003 5.8500000000000005 11.250000000000002 62.750000000000007 14.550000000000002 28.850000000000005 21.350000000000005 7.3500022500000011 36.550000000000004 24.550000000000004 32.850000000000001 41.70000000000001 4.5000000000000009 3.1500000000000008 16.950000000000003 1.4500000000000002 9.2500000000000018 11.850000000000003 50.000000000000007 7.8500000000000005 4.1500000000000012 5.3500000000000005 0.15000000000000005 13.850000000000003 2.2500000000000004 6.4500000000000011 0.75000000000000011 10.550000000000002 18.750000000000004 29.950000000000003 21.850000000000005 27.650000000000002 37.850000000000009 20.400000000000002 15.350000000000003 25.350000000000005 28.850000000000005
decision_type=2 2 2 2 2 2 2 2 2 2 2 2 2 2 2 2 2 2 2 2 2 2 2 2 2 2 2 2 2 2 2 2 2 2 2 2 2 2 2 2 2 2 2 2 2 2 2 2 2 2 2 2 2 2 2 2 2 2 2 2 2 2
left_child=2 3 5 7 11 10 12 15 18 20 22 14 21 29 28 31 30 37 33 -6 38 44 47 40 43 39 46 52 -3 48 56 58 -13 -5 -17 -18 -20 -10 -7 -15 -12 -23 -29 -19 -4 -22 -11 -1 -8 -25 -28 -24 -14 -27 -32 -33 -9 -35 -2 -31 -26 -16
right_child=1 4 6 8 19 9 13 16 17 26 23 32 27 25 61 34 35 24 36 -21 45 41 51 49 60 53 50 42 -30 59 54 55 -34 57 -36 -37 -38 -39 -40 -41 -42 -43 -44 -45 -46 -47 -48 -49 -50 -51 -52 -53 -54 -55 -56 -57 -58 -59 -60 -61 -62 -63
leaf_value=-0.22667769743033689 0.51055122923378005 1.94367386667352 0.046211594095477815 1.077818003529299 4.6062541961669927 -0.12036479280957123 0.26726552177774454 0.76498788876099466 1.4161734782000217 -0.042571773257637856 -0.18117320833336692 3.0221311569213869 0.14879605461399917 0.37584994555063511 2.5313779152764218 0.6432090397444763 0.95099961135915356 1.5851526678206531 1.2689325538392684 3.3529224395751953 -0.084638336210517459 0.098880311975543381 -0.20519288834835814 -0.15205865582054381 1.8765865053449358 0.44739453389796435 0.00013481208097201997 0.19575752765543158 2.3037963029380157 0.32568044831227383 0.85309491976767393 0.56779066919198706 2.7427963256835941 1.1382953870909966 0.70025313998283234 1.014217560154268 1.3446114193181753 1.4985544287895842 -0.1026599155988953 0.41118709308071538 -0.16615534178788222 0.12416382679423617 0.22810714886024558 1.6522731127154551 0.072620705681640196 -0.065088942079363762 -0.020682141925751178 -0.21634339223187815 0.29666040018091894 -0.13643011351217679 0.020607088004364289 -0.19378471964322241 0.1716186129517123 0.47702319442335628 0.88993456578047947 0.60255964865841838 0.80980766862630849 1.1893632213373733 0.54383678855455175 0.3483218983970936 1.7761274771494411 2.5857419967651367
leaf_weight=117965 2369 171 9625 1577 536 23439 6773 1549 1077 12186 32663 552 7696 5699 810 3147 2389 1794 1321 28 16133 13211 29881 24299 112 5434 16615 6179 642 4733 2724 2204 135 991 3525 1740 1358 1135 23551 5611 27666 8378 6035 1126 7961 15179 12497 36079 6153 19986 9448 24278 5446 2879 2191 3152 1312 1203 2423 3586 730 536
leaf_count=117965 2369 171 9625 1577 536 23439 6773 1549 1077 12186 32663 552 7696 5699 810 3147 2389 1794 1321 28 16133 13211 29881 24299 112 5434 16615 6179 642 4733 2724 2204 135 991 3525 1740 1358 1135 23551 5611 27666 8378 6035 1126 7961 15179 12497 36079 6153 19986 9448 24278 5446 2879 2191 3152 1312 1203 2423 3586 730 536
internal_value=-3.20144e-10 1.07218 -0.0872983 0.921678 2.8883 -0.159529 0.215516 0.72161 1.38425 -0.063331 -0.199214 2.56018 0.124521 0.359198 2.43065 0.604665 0.886836 1.57969 1.20323 4.54403 -0.0969634 0.0860108 -0.217968 -0.161891 1.65098 0.42061 -0.0114356 0.184019 2.22805 0.302474 0.83862 0.559508 2.96724 1.1293 0.673347 0.97764 1.30729 1.45844 -0.111491 0.393381 -0.174286 0.108692 0.211742 1.61104 0.0581667 -0.0751615 -0.0314891 -0.224257 0.281258 -0.145005 0.00755614 -0.200079 0.158254 0.457656 0.869517 0.588252 0.785541 1.1663 0.527382 0.33544 1.78949 2.55303
internal_weight=591823 44559 547264 41149 3410 441865 105399 28725 12424 129048 312817 2846 64531 40868 2159 16820 11905 5974 6450 564 78302 39175 208203 104614 3762 19623 50746 25356 813 21245 7776 10148 687 3771 6672 4129 2679 2212 46990 11310 60329 21589 12214 2920 17586 31312 24683 154044 12926 44285 26063 54159 13142 8313 4915 5356 2861 2194 4792 8319 842 1346
internal_count=591823 44559 547264 41149 3410 441865 105399 28725 12424 129048 312817 2846 64531 40868 2159 16820 11905 5974 6450 564 78302 39175 208203 104614 3762 19623 50746 25356 813 21245 7776 10148 687 3771 6672 4129 2679 2212 46990 11310 60329 21589 12214 2920 17586 31312 24683 154044 12926 44285 26063 54159 13142 8313 4915 5356 2861 2194 4792 8319 842 1346
is_linear=0
shrinkage=0.05


Tree=7
num_leaves=63
num_cat=0
split_feature=7 7 7 7 7 7 7 7 7 7 7 7 7 7 7 7 7 7 7 0 7 7 7 7 7 7 7 7 7 7 7 7 0 7 7 7 7 7 7 7 7 7 7 7 7 7 7 17 7 7 7 7 7 6 7 7 7 7 7 7 3 7
split_gain=1.99973e+07 4.39671e+06 4.32137e+06 1.37485e+06 668783 568134 538727 212818 146226 82204.5 66510.9 60387.4 54170.5 53650.4 23327.7 19323.8 18679.5 17995.5 16214.5 15089.8 8735.55 8640.42 8415.77 8255.25 8007.06 7885.59 6736.76 6321.9 5270.96 4843.64 4086.28 3254.91 3055.44 2573.08 2106.63 1915.76 1891.96 1633.26 1384.39 1356.19 1273.23 1222.3 1200.68 1108.73 1065.49 1036.24 974.212 940.088 904.479 897.061 882.557 769.107 755.134 659.228 650.728 568.236 510.793 479.094 444.298 384.305 378.58 364.27
threshold=19.550000000000004 57.250000000000007 6.7500000000000009 35.150000000000013 92.90000000000002 2.4500000000000006 12.450000000000001 26.850000000000005 44.150000000000006 4.4500000000000011 0.8500000000000002 15.750000000000002 78.600000000000009 9.3500000000000032 23.150000000000002 72.15000000000002 31.550000000000001 39.300000000000004 50.400000000000006 7.7999992500000008 3.3500000000000001 8.0500000000000025 1.6500000000000001 5.4500000000000011 10.850000000000003 17.650000000000002 14.15 62.750000000000007 47.300000000000004 0.35000000000000003 21.350000000000005 29.150000000000002 7.3500022500000011 52.600000000000009 24.750000000000004 37.300000000000004 41.70000000000001 33.600000000000001 3.8500000000000001 6.0500000000000007 1.2500000000000002 16.750000000000004 2.8500000000000001 13.250000000000002 11.550000000000002 2.0500000000000003 10.050000000000002 4.5000000000000009 14.900000000000002 8.7500000000000018 7.3500000000000005 18.750000000000004 22.300000000000001 27.000000000000004 4.9500000000000011 25.650000000000002 28.050000000000004 20.400000000000002 35.95000000000001 30.250000000000004 26.650000000000002 32.650000000000006
decision_type=2 2 2 2 2 2 2 2 2 2 2 2 2 2 2 2 2 2 2 2 2 2 2 2 2 2 2 2 2 2 2 2 2 2 2 2 2 2 2 2 2 2 2 2 2 2 2 2 2 2 2 2 2 2 2 2 2 2 2 2 2 2
left_child=2 3 5 7 12 10 13 14 17 20 29 26 15 21 30 27 31 35 28 -6 42 50 40 54 46 41 43 -3 47 53 57 56 -14 -20 -16 58 -19 61 -22 -25 -12 -13 -7 -8 -26 -24 -15 -10 -28 -23 -4 -27 -32 -1 -11 -36 -9 -2 -5 -33 -35 -18
right_child=1 4 6 8 19 9 11 16 18 23 22 25 32 24 34 -17 37 36 33 -21 38 49 45 39 44 51 48 -29 -30 -31 52 59 -34 60 55 -37 -38 -39 -40 -41 -42 -43 -44 -45 -46 -47 -48 -49 -50 -51 -52 -53 -54 -55 -56 -57 -58 -59 -60 -61 -62 -63
leaf_value=-0.21589267253875732 0.48502365660194413 1.8464902576647308 0.031303469458272337 1.0217064588553233 4.3759414672851564 -0.12378664133312867 0.23097692671832093 0.7474977559653786 1.352567517409911 -0.051193048656656387 -0.17902626823768375 0.35212348990803366 2.8710247039794923 0.12296928225216151 0.62564947594213127 2.4253754007869457 0.90473904149333062 1.2054859367128037 1.5778822756460888 3.1852764129638675 -0.09044247160552811 0.078966226078429319 -0.15130460663508907 -0.014529985085228679 0.17547390466663798 0.42197812233273946 0.29064568434943672 2.1886063970880718 1.5099038261795794 -0.1952652455795986 0.546059026159748 0.82681436068305247 2.605656433105469 1.714471792838943 0.66382435597030987 1.1234165726295671 1.2858234183032198 0.99422458001575831 -0.071150552280971377 0.006402751939745501 -0.16481234773990899 0.38518981894501991 -0.10717128444688769 0.26357182416784103 0.20441084660469253 -0.13648961371837395 0.14742514165593681 1.4236267173027679 0.3194907053773397 0.10006405719009617 0.054124830677653363 0.45317203818861507 0.58118549537988107 -0.20837100495867769 -0.033636666228111775 0.7050554170512191 0.7883150144365797 0.51664495887315531 1.0704789583185006 0.8579157446346809 1.6222595214843751 0.93988228632398885
leaf_weight=103780 2369 171 8950 883 536 18609 3881 1322 789 11572 34908 5399 552 7848 3275 1346 1388 1321 884 28 19661 9275 27276 13856 7116 6300 4760 642 2036 46768 3245 2737 135 710 1911 1493 1646 1123 17645 17523 28715 5794 26155 7960 5753 20807 8464 1135 6334 11030 8044 2879 2895 40498 9704 1485 1824 2423 991 1559 132 1573
leaf_count=103780 2369 171 8950 883 536 18609 3881 1322 789 11572 34908 5399 552 7848 3275 1346 1388 1321 884 28 19661 9275 27276 13856 7116 6300 4760 642 2036 46768 3245 2737 135 710 1911 1493 1646 1123 17645 17523 28715 5794 26155 7960 5753 20807 8464 1135 6334 11030 8044 2879 2895 40498 9704 1485 1824 2423 991 1559 132 1573
internal_value=1.75358e-09 1.01857 -0.0829334 0.875594 2.74389 -0.153318 0.197535 0.689938 1.32551 -0.0679028 -0.191328 0.334764 2.43217 0.108141 0.580578 2.30912 0.856957 1.16028 1.50957 4.31683 -0.0991867 0.0684111 -0.16068 -0.0191425 0.158922 0.397411 0.279118 2.11665 1.45383 -0.209249 0.535615 0.809804 2.81888 1.63746 0.654261 1.08116 1.25005 0.942881 -0.0813178 -0.0028405 -0.172611 0.36924 -0.114079 0.252889 0.18841 -0.144894 0.135659 1.39449 0.307114 0.0904269 0.0421058 0.431762 0.562621 -0.213781 -0.0431856 0.681854 0.771163 0.501012 1.0475 0.838101 1.70002 0.923409
internal_weight=591823 44559 547264 41149 3410 437477 109787 29129 12020 134725 302752 43307 2846 66480 17603 2159 11526 6334 5686 564 82070 37299 111706 52655 29181 20372 22935 813 3960 191046 10932 7442 687 1726 6671 3367 2967 4084 37306 31379 63623 11193 44764 11841 12869 48083 16312 1924 11094 20305 16994 9179 6140 144278 21276 3396 3146 4792 1874 4296 842 2961
internal_count=591823 44559 547264 41149 3410 437477 109787 29129 12020 134725 302752 43307 2846 66480 17603 2159 11526 6334 5686 564 82070 37299 111706 52655 29181 20372 22935 813 3960 191046 10932 7442 687 1726 6671 3367 2967 4084 37306 31379 63623 11193 44764 11841 12869 48083 16312 1924 11094 20305 16994 9179 6140 144278 21276 3396 3146 4792 1874 4296 842 2961
is_linear=0
shrinkage=0.05


Tree=8
num_leaves=63
num_cat=0
split_feature=7 7 7 7 7 7 7 7 7 7 7 7 7 7 7 7 7 7 7 0 7 7 7 7 7 7 7 7 7 7 7 7 0 7 7 7 7 7 17 7 7 7 7 3 7 7 7 7 7 7 7 7 7 7 7 7 7 0 7 3 7 6
split_gain=1.80477e+07 3.99707e+06 3.85112e+06 1.26617e+06 603577 499217 488518 179439 152727 76514.5 53718.4 51816.7 51674.2 48888.8 18797.3 18148.7 17439.7 16772.8 14761.2 13618.5 8939.66 8847.81 7377.85 7253.12 7234.25 6833.27 6115.77 5705.51 5324.27 4391.13 3765.46 3580.45 2757.54 2215.54 1967.41 1942.4 1597.68 1543.28 1204.47 1098.53 1073.19 1031.7 1020.57 1011.79 1010.49 959.896 822.624 820.12 802.641 747.42 714.865 713.119 696.845 566.935 518.832 505.148 398.877 360.913 359.346 344.141 325.754 314.115
threshold=19.250000000000004 57.250000000000007 6.6500000000000012 34.500000000000007 92.90000000000002 2.3500000000000001 12.450000000000001 26.250000000000004 43.500000000000007 4.3500000000000005 0.8500000000000002 15.550000000000002 9.3500000000000032 78.600000000000009 22.300000000000001 38.800000000000004 72.15000000000002 47.300000000000004 30.550000000000004 7.7999992500000008 7.9500000000000011 3.2500000000000004 5.4500000000000011 17.350000000000005 10.65 51.250000000000007 1.5500000000000003 62.750000000000007 13.950000000000001 0.25000000000000006 24.100000000000005 28.500000000000004 7.3500022500000011 35.95000000000001 20.750000000000004 41.300000000000004 3.7500000000000004 32.250000000000007 4.5000000000000009 11.550000000000002 8.6500000000000004 16.450000000000003 2.7500000000000004 26.650000000000002 5.9500000000000011 14.550000000000002 1.9500000000000002 7.2500000000000009 18.150000000000002 10.050000000000002 13.000000000000002 1.1500000000000001 4.8500000000000005 0.55000000000000016 49.500000000000007 29.150000000000002 25.650000000000002 6.8500022500000011 37.300000000000004 28.850000000000005 26.850000000000005 27.000000000000004
decision_type=2 2 2 2 2 2 2 2 2 2 2 2 2 2 2 2 2 2 2 2 2 2 2 2 2 2 2 2 2 2 2 2 2 2 2 2 2 2 2 2 2 2 2 2 2 2 2 2 2 2 2 2 2 2 2 2 2 2 2 2 2 2
left_child=2 3 5 7 13 10 12 14 15 21 29 28 20 16 34 33 27 38 31 -6 47 42 52 41 49 54 51 -3 50 61 -16 60 -15 -5 -2 -17 -23 -20 -10 -26 -22 -13 -7 -27 -24 -30 -28 -4 -25 -14 -8 -12 -11 -31 -19 -33 -32 -29 -35 -18 -9 -1
right_child=1 4 6 8 19 9 11 18 17 22 26 23 24 32 30 35 59 25 37 -21 40 36 44 48 39 43 46 57 45 53 56 55 -34 58 -36 -37 -38 -39 -40 -41 -42 -43 -44 -45 -46 -47 -48 -49 -50 -51 -52 -53 -54 -55 -56 -57 -58 -59 -60 -61 -62 -63
leaf_value=-0.20509805679321291 0.46100668328400696 1.754165810032895 0.023730170658998132 0.96139693902655798 4.1571445465087891 -0.12034153915078352 0.21630229613904622 0.67737050348771488 1.2786287947064103 -0.051782764762051896 -0.1720892426168133 0.33002012327020203 0.11682081280407192 2.7274734497070314 0.5613767994846165 1.1260101647380494 2.2835402764214412 1.4223415044229626 0.83835928787005187 3.0260126113891603 0.06995056399070991 -0.08926359091354219 -0.015753110539860431 0.38434549957424313 0.16544276061673791 1.6287482973555445 -0.1469752326362169 1.9886590957641603 0.26957926246329683 -0.19171516236461006 0.62019051192615526 0.75299173536592956 2.4753736495971683 1.0169550084442232 0.50959110213361647 1.2064402358369559 -0.069790416541696085 0.89768509038688904 1.3524454200005218 0.19419031228352771 0.09298113502339854 0.36075880686144129 -0.10514762694080917 1.5317719871397657 0.0032489214189579761 0.29812836255900677 -0.13392657915295272 0.0456929920516152 0.41456237032227927 0.13873847412772447 0.24505322769776866 -0.16068284351294862 -0.034096505512384571 -0.1817854285175014 1.4668847395863978 0.78887521731191423 0.66136159367031522 2.0947027206420898 1.0581033055293789 2.3351861953735353 0.71619464616562123 -0.19920340139343026
leaf_weight=103780 3518 171 7453 1618 536 21721 3143 783 1077 9983 24713 5590 7848 552 4449 1371 810 1258 2158 28 8049 23991 11300 3330 7868 710 29616 94 5295 32761 3632 1403 135 991 5111 1659 18777 2228 1135 5753 13614 5335 22501 433 18370 6632 20397 9892 6463 7712 6927 30756 12597 25613 1361 3259 702 548 1142 536 1743 28892
leaf_count=103780 3518 171 7453 1618 536 21721 3143 783 1077 9983 24713 5590 7848 552 4449 1371 810 1258 2158 28 8049 23991 11300 3330 7868 710 29616 94 5295 32761 3632 1403 135 991 5111 1659 18777 2228 1135 5753 13614 5335 22501 433 18370 6632 20397 9892 6463 7712 6927 30756 12597 25613 1361 3259 702 548 1142 536 1743 28892
internal_value=-1.56648e-09 0.960761 -0.0793516 0.826298 2.60669 -0.146301 0.183708 0.643622 1.24143 -0.0682033 -0.182973 0.316296 0.100652 2.31056 0.542196 1.07904 2.19366 1.42576 0.796209 4.10099 0.0630059 -0.0969289 -0.0203787 0.37304 0.150976 1.49001 -0.154333 2.01082 0.262851 -0.198786 0.593689 0.752101 2.67793 1.00552 0.489783 1.17005 -0.080714 0.868496 1.3165 0.177585 0.084424 0.345031 -0.112611 1.59201 -0.00398812 0.285454 -0.141654 0.0362558 0.404287 0.127684 0.23608 -0.165765 -0.0419159 -0.187358 1.44549 0.778076 0.626859 2.07918 1.03899 2.30411 0.70416 -0.203814
internal_weight=591823 45151 546672 41741 3410 435768 110904 28986 12755 139240 296528 42715 68189 2846 17412 6781 2159 5974 11574 564 39008 86990 52250 20718 29181 3762 105482 813 21997 191046 8783 7188 687 3751 8629 3030 42768 4386 2212 13621 21663 10925 44222 1143 29670 11927 50013 17345 9793 15560 10070 55469 22580 58374 2619 4662 4334 642 2133 1346 2526 132672
internal_count=591823 45151 546672 41741 3410 435768 110904 28986 12755 139240 296528 42715 68189 2846 17412 6781 2159 5974 11574 564 39008 86990 52250 20718 29181 3762 105482 813 21997 191046 8783 7188 687 3751 8629 3030 42768 4386 2212 13621 21663 10925 44222 1143 29670 11927 50013 17345 9793 15560 10070 55469 22580 58374 2619 4662 4334 642 2133 1346 2526 132672
is_linear=0
shrinkage=0.05


Tree=9
num_leaves=63
num_cat=0
split_feature=7 7 7 7 7 7 7 7 7 7 7 7 7 7 7 7 7 7 7 0 7 7 7 7 7 7 7 7 7 7 7 7 0 7 7 7 7 7 7 7 7 7 7 7 7 7 7 7 17 7 7 7 7 6 7 7 7 7 7 7 3 4
split_gain=1.62884e+07 3.58109e+06 3.52003e+06 1.11994e+06 544728 486767 414200 173250 119116 68946.1 59076.2 46504.9 44122.2 40843.1 19097.9 15739.3 15284.8 14680.2 13263.7 12290.7 7885.09 6970.28 6612.22 5879.98 5839.98 5446.03 5387.38 5354.88 5149.23 4262.2 3354.97 2630.89 2488.67 2079.58 1728.72 1544.38 1535.07 1336.8 1288.87 1061 1048.56 995.532 950.101 933.334 859.613 802.422 782.157 774.101 758.193 741.157 632.728 616.408 585.163 529.89 512.968 499.532 449.934 427.956 380.206 354.341 341.197 334.905
threshold=19.550000000000004 57.250000000000007 6.9500000000000011 35.150000000000013 92.90000000000002 2.5500000000000003 12.550000000000002 26.850000000000005 44.150000000000006 4.6500000000000012 0.95000000000000007 16.050000000000004 78.600000000000009 9.6500000000000004 23.150000000000002 72.15000000000002 31.550000000000001 39.300000000000004 50.400000000000006 7.7999992500000008 3.5500000000000003 8.3500000000000032 1.7500000000000002 5.7500000000000009 17.950000000000003 14.450000000000001 0.35000000000000003 11.250000000000002 62.750000000000007 47.300000000000004 21.350000000000005 29.150000000000002 7.3500022500000011 52.600000000000009 24.750000000000004 41.70000000000001 37.300000000000004 33.600000000000001 3.0500000000000003 1.3500000000000003 16.950000000000003 13.65 4.1500000000000012 9.0500000000000025 6.3500000000000005 5.1500000000000012 2.1500000000000008 10.350000000000003 4.5000000000000009 7.6500000000000012 11.850000000000003 21.850000000000005 15.250000000000002 27.000000000000004 0.65000000000000002 18.750000000000004 25.650000000000002 28.050000000000004 20.400000000000002 35.95000000000001 25.350000000000005 24.050000000000004
decision_type=2 2 2 2 2 2 2 2 2 2 2 2 2 2 2 2 2 2 2 2 2 2 2 2 2 2 2 2 2 2 2 2 2 2 2 2 2 2 2 2 2 2 2 2 2 2 2 2 2 2 2 2 2 2 2 2 2 2 2 2 2 2
left_child=2 3 5 7 12 10 13 14 17 20 26 25 15 21 30 28 31 36 29 -6 38 49 39 45 40 41 53 47 -3 48 58 57 -14 -20 -16 -19 59 -18 -7 -12 -13 -8 -22 -23 -25 -11 -24 -15 -10 -4 -29 -32 -27 -1 -28 -26 -36 -9 -2 -5 -35 -30
right_child=1 4 6 8 19 9 11 16 18 23 22 24 32 27 34 -17 37 35 33 -21 42 43 46 44 55 52 54 50 61 -31 51 -33 -34 60 56 -37 -38 -39 -40 -41 -42 -43 -44 -45 -46 -47 -48 -49 -50 -51 -52 -53 -54 -55 -56 -57 -58 -59 -60 -61 -62 -63
leaf_value=-0.19484314918518067 0.43772212576393144 1.6664575074848376 0.035828736557086883 0.92255122356479602 3.9492870330810548 -0.10671122404529332 0.21977747542702636 0.67431315033951611 1.2210076686245106 -0.04058253858608759 -0.15868670298984264 0.32216159307573905 2.591099739074707 0.11982567546447441 0.56475284684159377 2.1889012760428761 0.83347680385915535 1.0879948315703445 1.4245392911574422 2.8747119903564453 -0.073895641944226945 0.080371452765838403 -0.13378490529079629 -0.003372521795607427 0.38354755514107697 0.27198447588233576 -0.1788783830056534 0.16791697451936755 1.985366950796432 1.3624405226679355 0.48661863206735323 0.75615485782285863 2.3516050338745118 1.6155961717878069 0.5996236208781468 1.1605786816028025 1.0135424039704002 0.89754411437526316 -0.090528980347839558 -0.1456462451446201 0.35261091755537444 0.24768330182801487 -0.056593196916301408 0.10176056779869774 0.014593959556655182 -0.0219495485856845 -0.12062075821104011 0.14235220129660317 1.2848231398796721 0.057353576902231862 0.1925774952607397 0.51964455509815755 0.29623219908587872 -0.18809958752823311 -0.1692063700750599 0.40930779344632251 0.63631253146161937 0.71167434304952626 0.46589159583730533 0.96610728734436957 1.5218706130981445 1.8467262268066407
leaf_weight=103780 2369 171 9257 883 536 23885 6256 1322 789 10362 32582 5699 552 6932 3275 1346 2961 1321 884 28 19050 13669 23021 16588 5434 5336 31298 6179 595 2036 2204 4296 135 112 1911 1646 1493 1123 25379 29923 5611 6534 13597 8136 11121 13061 22131 8478 1135 7041 4492 3936 4662 40498 24393 2879 1485 1824 2423 991 730 47
leaf_count=103780 2369 171 9257 883 536 23885 6256 1322 789 10362 32582 5699 552 6932 3275 1346 2961 1321 884 28 19050 13669 23021 16588 5434 5336 31298 6179 595 2036 2204 4296 135 112 1911 1646 1493 1123 25379 29923 5611 6534 13597 8136 11121 13061 22131 8478 1135 7041 4492 3936 4662 40498 24393 2879 1485 1824 2423 991 730 47
internal_value=-7.00736e-10 0.919272 -0.0748484 0.790237 2.47636 -0.137216 0.182981 0.622674 1.1963 -0.0573077 -0.171774 0.304231 2.19503 0.102862 0.524003 2.08398 0.773368 1.04717 1.36243 3.89594 -0.085746 0.0698636 -0.141912 -0.0117508 0.360653 0.255645 -0.187851 0.151072 1.91028 1.31201 0.483319 0.730714 2.54404 1.4781 0.590672 1.12826 0.975718 0.851094 -0.0983747 -0.152444 0.337268 0.234034 -0.0666894 0.0883523 0.00383832 -0.0301925 -0.127333 0.132219 1.25865 0.0451278 0.178298 0.50779 0.283291 -0.19295 -0.174642 0.392469 0.615667 0.695975 0.451966 0.945584 1.53434 1.97522
internal_weight=591823 44559 547264 41149 3410 440669 106595 29129 12020 133043 307626 42411 2846 64184 17603 2159 11526 6334 5686 564 81911 38103 107657 51132 19623 22788 199969 26081 813 3960 10932 7442 687 1726 6671 2967 3367 4084 49264 62505 11310 12790 32647 21805 27709 23423 45152 15410 1924 16298 10671 6140 9998 144278 55691 8313 3396 3146 4792 1874 842 642
internal_count=591823 44559 547264 41149 3410 440669 106595 29129 12020 133043 307626 42411 2846 64184 17603 2159 11526 6334 5686 564 81911 38103 107657 51132 19623 22788 199969 26081 813 3960 10932 7442 687 1726 6671 2967 3367 4084 49264 62505 11310 12790 32647 21805 27709 23423 45152 15410 1924 16298 10671 6140 9998 144278 55691 8313 3396 3146 4792 1874 842 642
is_linear=0
shrinkage=0.05


Tree=10
num_leaves=63
num_cat=0
split_feature=7 7 7 7 7 7 7 7 7 7 7 7 7 7 7 7 7 7 0 7 7 7 7 7 7 7 7 7 7 7 7 7 7 0 7 7 16 7 7 7 7 7 7 7 7 7 7 7 7 7 17 7 7 7 7 7 7 7 7 3 7 3
split_gain=1.47003e+07 3.23194e+06 3.177e+06 1.01077e+06 491617 447876 365762 165819 98091.2 59718.6 58232.2 39820.3 39232.8 37838.9 17235.9 16050.4 14204.8 12005.5 11092.4 11069.9 6605.9 6604.88 6250.87 5808.49 5139.49 4905.65 4845.07 4647.18 4323.39 3335.5 3027.86 2374.38 2369.84 2246.03 1691.3 1560.17 1427.15 989.763 936.151 898.961 881.147 822.435 811.37 810.145 805.706 791.256 781.066 769.808 709.794 694.557 684.266 556.307 474.587 454.013 451.395 406.066 386.23 364.147 343.136 310.587 309.273 307.93
threshold=19.550000000000004 57.250000000000007 7.0500000000000007 35.400000000000006 92.90000000000002 2.6500000000000008 12.850000000000003 26.850000000000005 44.150000000000006 4.7500000000000009 1.0500000000000003 78.600000000000009 9.8500000000000032 16.150000000000002 23.150000000000002 31.550000000000001 72.15000000000002 50.000000000000007 7.7999992500000008 39.300000000000004 3.6500000000000008 8.4500000000000011 0.45000000000000007 1.8500000000000003 5.8500000000000005 17.950000000000003 11.350000000000003 62.750000000000007 14.550000000000002 47.300000000000004 21.350000000000005 29.150000000000002 52.600000000000009 7.3500022500000011 33.600000000000001 24.750000000000004 150.50000000000003 3.1500000000000008 37.850000000000009 1.4500000000000002 9.1500000000000004 16.950000000000003 4.2500000000000009 10.65 7.7500000000000009 5.3500000000000005 0.15000000000000005 13.750000000000002 2.2500000000000004 6.4500000000000011 4.5000000000000009 21.850000000000005 12.15 0.75000000000000011 18.950000000000003 25.650000000000002 28.050000000000004 15.350000000000003 20.400000000000002 28.850000000000005 30.250000000000004 25.350000000000005
decision_type=2 2 2 2 2 2 2 2 2 2 2 2 2 2 2 2 2 2 2 2 2 2 2 2 2 2 2 2 2 2 2 2 2 2 2 2 2 2 2 2 2 2 2 2 2 2 2 2 2 2 2 2 2 2 2 2 2 2 2 2 2 2
left_child=2 3 5 7 11 10 12 14 19 20 22 16 21 28 30 31 27 29 -6 38 37 44 46 39 45 41 43 -3 47 50 58 56 -19 -13 -17 -16 -21 -7 -5 -12 -23 -15 -22 -14 -4 -11 -1 -8 -25 -26 -10 -32 -28 -24 -27 -37 -9 -30 -2 -18 -33 -34
right_child=1 4 6 8 18 9 13 15 17 24 23 33 26 25 35 34 59 32 -20 36 42 40 53 48 49 54 52 -29 57 -31 51 60 61 -35 -36 55 -38 -39 -40 -41 -42 -43 -44 -45 -46 -47 -48 -49 -50 -51 -52 -53 -54 -55 -56 -57 -58 -59 -60 -61 -62 -63
leaf_value=-0.18467332257142394 0.41583601842705536 1.583134600990697 0.036646912604046358 0.91189535647155484 3.7518226623535158 -0.098079952979190574 0.21550723077688272 0.64059747307816362 1.1599573489528796 -0.034734955318999686 -0.14755327218643791 2.4615447998046878 0.1231566108673452 0.30733321165701677 0.53651521790482615 0.79180297978783498 2.0599183358086481 1.3467246319853816 2.7309762954711916 1.0366416324090666 -0.067271617825469074 0.079821017205715189 -0.16708267245130373 -0.12383145945293628 1.1809088478636713e-05 0.36621420234987589 0.16625003541355818 1.8764563872435382 0.26501727248255708 1.2904953170912457 0.46228772996774387 0.70822212726563749 1.5348164285932269 2.2340248107910159 0.85653122229797241 0.56964243687240945 1.1060043148785474 -0.083566718594819678 0.96915127523522127 -0.13530422793649452 0.10022304804207807 0.33498036798957498 -0.050560229707780284 0.14645390988237628 0.058051458634831132 -0.016829143949863557 -0.1762664906720027 0.24005720073148532 -0.1111108652353406 0.016990958252223014 1.2205819213127775 0.49366231823597495 0.18822867615944133 -0.15787742937776852 0.39331652100693398 0.60449690722455884 0.67609060853719716 0.28534987629936298 0.44259701302560261 2.1089818954467776 0.73612266278098692 1.4457771301269533
leaf_weight=117965 2369 171 8815 1756 536 23439 5759 1322 789 12186 32663 552 9296 5167 3275 2961 810 1126 28 1461 19861 12300 29881 24299 16615 6279 4854 642 4733 1794 2204 2737 112 135 1531 1911 1506 23551 1203 27666 9289 5611 11451 6234 8771 12497 36079 7167 19986 9448 1135 3936 4972 24278 2034 1485 1824 4118 2423 536 1559 730
leaf_count=117965 2369 171 8815 1756 536 23439 5759 1322 789 12186 32663 552 9296 5167 3275 2961 810 1126 28 1461 19861 12300 29881 24299 16615 6279 4854 642 4733 1794 2204 2737 112 135 1531 1911 1506 23551 1203 27666 9289 5611 11451 6234 8771 12497 36079 7167 19986 9448 1135 3936 4972 24278 2034 1485 1824 4118 2423 536 1559 730
internal_value=4.77785e-10 0.873308 -0.071106 0.750725 2.35254 -0.129943 0.175559 0.595347 1.14595 -0.0515691 -0.162276 2.08528 0.101435 0.292601 0.497802 0.739229 1.97978 1.29431 3.70114 1.0036 -0.078951 0.0700697 -0.177567 -0.131842 -0.00931831 0.343986 0.149894 1.81476 0.247554 1.24145 0.459153 0.694179 1.39417 2.41684 0.813864 0.561138 1.07185 -0.090806 0.935173 -0.141936 0.0885993 0.321726 -0.0611602 0.132509 0.0473224 -0.0256692 -0.182704 0.229119 -0.118091 0.00616686 1.19572 0.4824 0.177371 -0.162956 0.372846 0.584884 0.661176 0.274477 0.429367 2.07946 0.718347 1.45762
internal_weight=591823 44559 547264 41149 3410 441865 105399 29537 11612 129048 312817 2846 64531 40868 17603 11934 2159 5686 564 5926 78302 39175 208203 104614 50746 19091 25356 813 21777 3718 10932 7442 1968 687 4492 6671 2967 46990 2959 60329 21589 10778 31312 15530 17586 24683 154044 12926 44285 26063 1924 6140 9826 54159 8313 3396 3146 8851 4792 1346 4296 842
internal_count=591823 44559 547264 41149 3410 441865 105399 29537 11612 129048 312817 2846 64531 40868 17603 11934 2159 5686 564 5926 78302 39175 208203 104614 50746 19091 25356 813 21777 3718 10932 7442 1968 687 4492 6671 2967 46990 2959 60329 21589 10778 31312 15530 17586 24683 154044 12926 44285 26063 1924 6140 9826 54159 8313 3396 3146 8851 4792 1346 4296 842
is_linear=0
shrinkage=0.05


Tree=11
num_leaves=63
num_cat=0
split_feature=7 7 7 7 7 7 7 7 7 7 7 7 7 7 7 7 7 7 7 0 7 7 7 7 7 7 7 7 7 7 7 7 0 7 7 7 7 7 7 7 7 7 7 7 3 7 7 7 7 7 7 7 7 7 7 7 7 0 7 7 3 7
split_gain=1.32671e+07 2.93817e+06 2.83134e+06 930871 443684 367066 359180 138576 105518 56238.2 40122.5 39491.2 36056.9 35937.8 13873.8 12819.8 12546.2 12371.8 11908.4 10010.9 6557.01 6551.85 5426.07 5363.28 4758.23 4516.36 4437.67 4254.76 4194.08 3247.12 3053.62 2410.09 2027.04 1758.48 1476.66 1457.67 1290.3 1144.98 1034.19 811.707 802.794 791.553 763.74 761.705 756.608 690.56 690.224 642.589 626.994 597.889 553.07 505.249 433.629 420.358 372.796 346.224 338.48 303.697 299.466 283.019 280.306 250.71
threshold=19.250000000000004 57.250000000000007 6.6500000000000012 34.800000000000004 92.90000000000002 2.3500000000000001 12.250000000000002 26.250000000000004 43.500000000000007 4.3500000000000005 15.550000000000002 0.8500000000000002 9.3500000000000032 78.600000000000009 22.750000000000004 72.15000000000002 30.800000000000001 49.20000000000001 38.800000000000004 7.7999992500000008 7.9500000000000011 3.3500000000000001 5.4500000000000011 17.350000000000005 10.65 1.4500000000000002 13.950000000000001 51.250000000000007 62.750000000000007 0.25000000000000006 28.850000000000005 24.100000000000005 7.3500022500000011 20.950000000000003 45.100000000000009 41.300000000000004 36.550000000000004 2.8500000000000001 32.850000000000001 3.8500000000000001 8.6500000000000004 1.8500000000000003 16.450000000000003 6.0500000000000007 26.650000000000002 13.000000000000002 14.550000000000002 11.350000000000003 18.350000000000005 7.2500000000000009 10.15 4.8500000000000005 29.950000000000003 0.55000000000000016 1.1500000000000001 27.650000000000002 47.300000000000004 6.8500022500000011 21.850000000000005 25.250000000000004 28.850000000000005 20.100000000000005
decision_type=2 2 2 2 2 2 2 2 2 2 2 2 2 2 2 2 2 2 2 2 2 2 2 2 2 2 2 2 2 2 2 2 2 2 2 2 2 2 2 2 2 2 2 2 2 2 2 2 2 2 2 2 2 2 2 2 2 2 2 2 2 2
left_child=2 3 5 7 13 11 12 14 18 21 26 29 20 15 33 28 30 34 36 -6 49 37 51 42 50 54 45 -19 -3 -1 55 -16 -15 61 -10 -20 -5 -7 -18 -23 -22 -27 -12 -24 -29 -8 -28 -26 -25 -4 -14 -11 -32 -31 -13 -9 -36 -30 -35 -33 -17 -2
right_child=1 4 6 8 19 9 10 16 17 22 23 25 24 32 31 60 38 27 35 -21 40 39 43 48 47 41 46 44 57 53 52 59 -34 58 56 -37 -38 -39 -40 -41 -42 -43 -44 -45 -46 -47 -48 -49 -50 -51 -52 -53 -54 -55 -56 -57 -58 -59 -60 -61 -62 -63
leaf_value=-0.1747678490972 0.38271078673972964 1.5039778408251312 0.020422052850655129 0.83378750517463573 3.5642314910888673 -0.10231907654196469 0.1838900275558718 0.59173518612432507 1.0962557367163881 -0.044342626246603081 0.28287195207394511 -0.14762448780318524 0.10219902350380672 2.3384675979614258 0.48346543648867635 1.9569222725762263 0.73529770646747961 1.2461652579130951 0.96496597675404172 2.5944274902343754 0.059851576678722387 -0.073613577881650502 -0.011973332097284996 0.33574922028408261 0.13913120760686665 -0.12853901379452967 0.23132798741964714 1.3974869080664407 1.6996009826660157 -0.16436845107428019 0.65939687296157379 0.53012204371221638 2.1223236083984376 0.43412248893336597 1.1579289047925982 1.0346412322404803 0.89539726457062851 -0.087328754360829416 0.78597451974605692 -0.058533937773413605 0.079770570250445039 -0.11661374605771627 0.30931920199943908 0.0040843302014204807 1.3136268117961929 0.21011683632839773 0.25553690010302027 0.16152142308175582 0.36130251102936461 0.039174587665795318 0.12166519930524694 -0.029282776037620119 0.6892758921584492 -0.15581816265166298 -0.13897386006890752 0.62664237222293528 1.2075037391097458 1.7968765258789063 0.46006657959412628 0.55902124677385601 2.0035327911376952 0.40814231828805259
leaf_weight=132672 1555 171 7453 1577 536 24833 3936 1549 1031 9983 5590 24713 9717 552 3851 810 2389 2133 1371 28 8049 19661 13856 5580 6234 27666 5295 710 94 32761 2724 3179 135 3461 1181 1659 1843 26155 1740 16341 13614 27996 5335 15814 433 6927 6632 6594 4213 9892 5843 12597 2191 25613 25107 1312 486 548 1639 1155 536 2572
leaf_count=132672 1555 171 7453 1577 536 24833 3936 1549 1031 9983 5590 24713 9717 552 3851 810 2389 2133 1371 28 8049 19661 13856 5580 6234 27666 5295 710 94 32761 2724 3179 135 3461 1181 1659 1843 26155 1740 16341 13614 27996 5335 15814 433 6927 6632 6594 4213 9892 5843 12597 2191 25613 25107 1312 486 548 1639 1155 536 2572
internal_value=7.49177e-10 0.823743 -0.068035 0.708458 2.23491 -0.12544 0.157522 0.554747 1.07117 -0.0584721 0.269513 -0.156886 0.0852252 1.98102 0.464861 1.88079 0.686214 1.22258 0.930936 3.51609 0.0540264 -0.0830991 -0.017471 0.319873 0.128095 -0.132329 0.223733 1.28788 1.72402 -0.170444 0.648811 0.512248 2.29599 0.422825 1.14329 1.00311 0.866988 -0.0946296 0.756653 -0.0667691 0.0723696 -0.122541 0.295787 -0.00341466 1.36572 0.200614 0.244789 0.15064 0.346742 0.0311168 0.109509 -0.035941 0.672716 -0.160617 -0.143265 0.607743 1.17238 1.78263 0.44246 0.537824 1.97548 0.39856
internal_weight=591823 45151 546672 41741 3410 435768 110904 29317 12424 139240 43508 296528 67396 2846 17412 2159 11905 5974 6450 564 39008 86990 52250 20718 28388 105482 22790 3276 813 191046 7776 8185 687 9227 2698 3030 3420 50988 4129 36002 21663 55662 10925 29670 1143 10863 11927 12828 9793 17345 15560 22580 4915 58374 49820 2861 1667 642 5100 4334 1346 4127
internal_count=591823 45151 546672 41741 3410 435768 110904 29317 12424 139240 43508 296528 67396 2846 17412 2159 11905 5974 6450 564 39008 86990 52250 20718 28388 105482 22790 3276 813 191046 7776 8185 687 9227 2698 3030 3420 50988 4129 36002 21663 55662 10925 29670 1143 10863 11927 12828 9793 17345 15560 22580 4915 58374 49820 2861 1667 642 5100 4334 1346 4127
is_linear=0
shrinkage=0.05


Tree=12
num_leaves=63
num_cat=0
split_feature=7 7 7 7 7 7 7 7 7 7 7 7 7 7 7 7 7 7 7 0 7 7 7 7 7 7 7 7 7 7 7 7 7 7 0 7 7 7 7 7 7 7 7 7 7 7 7 7 7 7 7 7 27 7 17 7 0 4 3 7 7 7
split_gain=1.19735e+07 2.6517e+06 2.55528e+06 840257 400425 331277 324160 119021 101450 50755 36210.6 35656.1 32585.4 32433.8 12532.3 12030 11569.9 11204 9865.03 9034.81 5929.16 5128.65 5061.74 4899.82 4840.36 4825.1 4005 3785.16 2738.71 2486.31 2229.94 2038.53 1876.06 1845.13 1829.4 1508.21 1481.36 1315.54 1071.24 714.984 714.377 689.275 687.14 630.818 623.23 596.921 579.936 566.046 565.862 553.094 539.595 487.551 431.559 317.427 316.995 294.992 284.355 282.042 272.947 262.279 256.064 253.702
threshold=19.250000000000004 57.250000000000007 6.6500000000000012 34.500000000000007 92.90000000000002 2.3500000000000001 12.250000000000002 26.250000000000004 43.500000000000007 4.3500000000000005 15.550000000000002 0.75000000000000011 9.2500000000000018 78.600000000000009 22.850000000000005 38.800000000000004 72.15000000000002 49.500000000000007 30.250000000000004 7.7999992500000008 3.2500000000000004 7.9500000000000011 10.65 5.5500000000000007 17.350000000000005 1.4500000000000002 13.950000000000001 62.750000000000007 52.600000000000009 46.750000000000007 0.25000000000000006 28.500000000000004 21.250000000000004 24.100000000000005 7.3500022500000011 31.850000000000005 35.95000000000001 41.300000000000004 3.8500000000000001 9.9500000000000011 1.8500000000000003 16.450000000000003 2.7500000000000004 14.900000000000002 13.000000000000002 6.0500000000000007 11.350000000000003 5.0500000000000007 18.350000000000005 8.6500000000000004 7.2500000000000009 1.0500000000000003 4.6999999999999984 20.100000000000005 4.5000000000000009 33.150000000000013 7.5499992500000008 24.050000000000004 25.350000000000005 25.100000000000005 21.850000000000005 0.45000000000000007
decision_type=2 2 2 2 2 2 2 2 2 2 2 2 2 2 2 2 2 2 2 2 2 2 2 2 2 2 2 2 2 2 2 2 2 2 2 2 2 2 2 2 2 2 2 2 2 2 2 2 2 2 2 2 2 2 2 2 2 2 2 2 2 2
left_child=2 3 5 7 13 11 12 14 15 20 26 30 21 16 32 36 27 29 31 -6 42 50 39 47 41 51 44 -3 56 54 -1 -9 53 -16 -15 -20 -5 -17 -22 -14 -27 -12 -7 -28 -8 -25 -24 -11 -26 -23 -4 -13 -31 -2 -10 -37 -19 -29 -30 -35 -34 -32
right_child=1 4 6 8 19 9 10 18 17 23 24 25 22 34 33 37 -18 28 35 -21 38 49 46 45 48 40 43 57 58 52 61 -33 60 59 -36 55 -38 -39 -40 -41 -42 -43 -44 -45 -46 -47 -48 -49 -50 -51 -52 -53 -54 -55 -56 -57 -58 -59 -60 -61 -62 -63
leaf_value=-0.16602946246618805 0.36357524005546449 1.4287789043627288 0.019400950199035327 0.78292796149094712 3.3860202789306642 -0.098125000083365832 0.1746955271870867 0.57348608434530646 1.042233936678179 -0.039229045964366029 0.26872836364616437 -0.14248216698350208 0.09213134076190771 2.2215440750122073 0.46147292215999836 0.91671768573841672 1.876709259282604 1.1901144797220515 0.66848473092111549 2.4647062301635745 -0.07189303394902527 0.05685899763584789 0.13217465163118611 -0.010695428098327167 0.3189617522899395 -0.12211206547265835 0.22209778716563813 1.7028161935245292 1.388201209477016 1.1603121266506686 -0.15790931046198711 0.63048203106663658 0.41579364456812062 0.49818136868949375 2.0162073135375977 0.7128938455561068 0.84637185833122164 0.98290916894702329 -0.055607242426581327 0.11225642804647964 -0.11078305751072509 0.29385323187963025 -0.085657744564261368 0.24520044763765131 0.19961099306776769 0.0038801136554320833 0.15344535134255904 -0.023243178024439374 0.34323738134023335 0.073947810372062356 0.037215857076117062 -0.13312685695569126 1.1096871197131255 0.39088864928365358 1.0892908096313476 0.74574455501630377 1.23388911180718 1.5755869865417482 1.3043720605928604 0.52279746754397793 0.4389796871456515 -0.15077468654181536
leaf_weight=132672 1555 171 7453 1618 536 21721 3936 2526 1077 15030 5590 24278 9141 552 3338 1371 1346 1103 1973 28 26427 8049 6234 12638 5580 27666 6531 595 112 1212 21372 4140 2666 2089 135 1852 2133 1659 16341 8533 27996 5335 22501 5396 6927 15814 6594 8768 4213 11500 9892 32663 645 3367 536 1083 559 47 730 2245 2152 29881
leaf_count=132672 1555 171 7453 1618 536 21721 3936 2526 1077 15030 5590 24278 9141 552 3338 1371 1346 1103 1973 28 26427 8049 6234 12638 5580 27666 6531 595 112 1212 21372 4140 2666 2089 135 1852 2133 1659 16341 8533 27996 5335 22501 5396 6927 15814 6594 8768 4213 11500 9892 32663 645 3367 536 1083 559 47 730 2245 2152 29881
internal_value=-6.90295e-10 0.782556 -0.0646332 0.673035 2.12317 -0.119168 0.149646 0.524222 1.01122 -0.0555485 0.256038 -0.149041 0.0809639 1.88197 0.441618 0.878861 1.78675 1.16145 0.648493 3.34028 -0.0789442 0.049352 0.1192 -0.0165975 0.303879 -0.126882 0.212546 1.63782 1.24206 1.10328 -0.162608 0.608884 0.40397 0.489413 2.18119 0.70229 0.819005 0.952959 -0.0656705 0.101848 -0.116414 0.280998 -0.0917814 0.23255 0.190583 -0.00259415 0.143108 -0.0333393 0.329405 0.0669118 0.0295609 -0.137116 1.14273 0.38226 1.05787 0.725016 1.20484 1.6935 1.31552 0.510932 0.42615 -0.15375
internal_weight=591823 45151 546672 41741 3410 435768 110904 28986 12755 139240 43508 296528 67396 2846 17412 6781 2159 5974 11574 564 86990 36894 30502 52250 20718 112603 22790 813 2504 3470 183925 6666 9740 7672 687 4908 3751 3030 42768 17674 55662 10925 44222 11927 10863 28452 12828 23798 9793 19549 17345 56941 1857 4922 1613 2935 1662 642 842 4334 4818 51253
internal_count=591823 45151 546672 41741 3410 435768 110904 28986 12755 139240 43508 296528 67396 2846 17412 6781 2159 5974 11574 564 86990 36894 30502 52250 20718 112603 22790 813 2504 3470 183925 6666 9740 7672 687 4908 3751 3030 42768 17674 55662 10925 44222 11927 10863 28452 12828 23798 9793 19549 17345 56941 1857 4922 1613 2935 1662 642 842 4334 4818 51253
is_linear=0
shrinkage=0.05


Tree=13
num_leaves=63
num_cat=0
split_feature=7 7 7 7 7 7 7 7 7 7 7 7 7 7 7 7 7 7 7 0 7 7 7 7 7 7 7 7 7 7 7 7 7 0 7 16 7 7 7 7 7 7 7 7 7 7 7 7 17 7 7 7 7 7 7 7 7 7 3 0 3 7
split_gain=1.08062e+07 2.37576e+06 2.33553e+06 743305 361384 329401 268860 122003 72096 43923.2 42785.8 29271.5 28889.1 27891.2 12734.8 11793.6 10441.8 8924.91 8157.31 8153.91 4875.8 4858.19 4606.73 4256.06 3795.26 3648.71 3580.04 3416.1 3166.7 2746.72 2399.12 1771.24 1708.53 1651.04 1248.28 1110.52 746.219 728.949 719.342 715.835 669.094 651.886 645.514 611.41 609.988 608.158 605.107 584.699 499.53 463.567 445.624 399.577 364.437 347.233 333.308 332.519 274.209 267.828 260.265 255.543 252.976 230.538
threshold=19.550000000000004 57.250000000000007 7.0500000000000007 35.400000000000006 92.90000000000002 2.6500000000000008 12.850000000000003 26.850000000000005 44.150000000000006 4.7500000000000009 1.0500000000000003 78.600000000000009 9.8500000000000032 16.150000000000002 23.450000000000003 31.550000000000001 72.15000000000002 50.000000000000007 39.300000000000004 7.7999992500000008 3.6500000000000008 8.4500000000000011 0.45000000000000007 1.7500000000000002 5.9500000000000011 17.950000000000003 11.250000000000002 62.750000000000007 14.550000000000002 21.650000000000002 47.300000000000004 29.150000000000002 52.600000000000009 7.3500022500000011 33.600000000000001 150.50000000000003 25.650000000000002 3.1500000000000008 37.300000000000004 2.1500000000000008 5.3500000000000005 9.1500000000000004 11.850000000000003 0.15000000000000005 17.150000000000002 7.7500000000000009 4.1500000000000012 13.750000000000002 4.5000000000000009 1.3500000000000003 6.4500000000000011 20.400000000000002 22.300000000000001 18.750000000000004 10.450000000000001 0.75000000000000011 15.350000000000003 28.050000000000004 26.650000000000002 6.8500022500000011 28.850000000000005 32.650000000000006
decision_type=2 2 2 2 2 2 2 2 2 2 2 2 2 2 2 2 2 2 2 2 2 2 2 2 2 2 2 2 2 2 2 2 2 2 2 2 2 2 2 2 2 2 2 2 2 2 2 2 2 2 2 2 2 2 2 2 2 2 2 2 2 2
left_child=2 3 5 7 11 10 12 14 18 20 22 16 21 28 29 31 27 30 38 -6 37 45 43 49 40 44 54 -3 47 51 48 57 -19 -13 61 -20 -16 -7 -5 -25 -11 -23 -28 -1 -15 -4 -22 -8 -10 -12 -26 -2 -31 -27 -14 -24 -30 -9 -34 -29 -18 -17
right_child=1 4 6 8 19 9 13 15 17 24 23 33 26 25 36 34 60 32 35 -21 46 41 55 39 50 53 42 59 56 52 -32 -33 58 -35 -36 -37 -38 -39 -40 -41 -42 -43 -44 -45 -46 -47 -48 -49 -50 -51 -52 -53 -54 -55 -56 -57 -58 -59 -60 -61 -62 -63
leaf_value=-0.15839979781022398 0.35616472460842175 1.3573400196276213 0.031276301291268863 0.77692307303742203 3.2167190551757816 -0.084108950445191177 0.18455807263496374 0.5495724876421122 0.99485523105423113 -0.029737444810634096 -0.12788925087322678 2.1104669570922852 0.10260091456789221 0.2657275400160225 0.47688975242446779 0.66400223503195255 1.7652407921685116 1.1555861034359434 0.88807032713736678 2.3414709091186525 -0.059139090360064421 0.068401446022638465 -0.14323595067526873 -0.10907732817606884 0.00085552955587983148 0.31244085645868713 0.13668650147945369 1.5326608657836915 0.22703118996264543 0.40475183762060046 1.1057900337338313 0.61608768745951592 1.2617327886232188 1.9153968811035158 0.73446274401703981 0.94925661986250953 0.5179823336938415 -0.071653853475473012 0.82623059585121605 -0.097109158534002246 -0.013738709900078559 0.085949741211039155 0.1596772954379021 -0.1509618236727889 0.28985013765097989 0.049872580705109276 -0.045231168681755786 0.2059537461200851 1.0466536801712103 -0.11859795742922837 0.014715237042391131 0.38308419234686852 0.42977563309276984 0.33391811490762813 0.11852814812537196 -0.13535806486787097 0.24467513125286688 0.57912871573577851 1.1852756500244142 1.6218917846679688 1.8095207214355469 0.69195992908732418
leaf_weight=117965 2369 171 8815 1466 536 23439 5759 1322 789 12186 24348 552 6669 6281 4315 1388 810 1126 1461 28 16133 12300 29881 23021 15019 5434 6179 94 4733 2371 1794 4296 710 135 1531 1506 1485 23551 1493 27322 14093 9289 6035 36079 4497 8771 15179 7167 1135 29923 9448 3297 3766 2879 6473 24278 4118 1824 132 548 536 1573
leaf_count=117965 2369 171 8815 1466 536 23439 5759 1322 789 12186 24348 552 6669 6281 4315 1388 810 1126 1461 28 16133 12300 29881 23021 15019 5434 6179 94 4733 2371 1794 4296 710 135 1531 1506 1485 23551 1493 27322 14093 9289 6035 36079 4497 8771 15179 7167 1135 29923 9448 3297 3766 2879 6473 24278 4118 1824 132 548 536 1573
internal_value=-1.32579e-09 0.748756 -0.0609648 0.643657 2.01701 -0.111412 0.150526 0.510414 0.982582 -0.0441985 -0.13914 1.78787 0.0869749 0.250873 0.426744 0.63383 1.69742 1.10977 0.860544 3.17327 -0.0676816 0.0600602 -0.152248 -0.113053 -0.00796361 0.29499 0.128558 1.55593 0.212199 0.396932 1.0642 0.595213 1.19587 2.07213 0.697807 0.919127 0.487411 -0.0778666 0.801802 -0.102582 -0.0211576 0.0759519 0.148046 -0.156658 0.275792 0.0405512 -0.052397 0.196421 1.02541 -0.122766 0.00620749 0.371829 0.420108 0.319879 0.110446 -0.139705 0.23524 0.566709 1.24975 1.60883 1.78287 0.678854
internal_weight=591823 44559 547264 41149 3410 441865 105399 29537 11612 129048 312817 2846 64531 40868 17603 11934 2159 5686 5926 564 78302 39175 208203 104614 50746 19091 25356 813 21777 11803 3718 7442 1968 687 4492 2967 5800 46990 2959 50343 26279 21589 12214 154044 10778 17586 31312 12926 1924 54271 24467 5666 6137 8313 13142 54159 8851 3146 842 642 1346 2961
internal_count=591823 44559 547264 41149 3410 441865 105399 29537 11612 129048 312817 2846 64531 40868 17603 11934 2159 5686 5926 564 78302 39175 208203 104614 50746 19091 25356 813 21777 11803 3718 7442 1968 687 4492 2967 5800 46990 2959 50343 26279 21589 12214 154044 10778 17586 31312 12926 1924 54271 24467 5666 6137 8313 13142 54159 8851 3146 842 642 1346 2961
is_linear=0
shrinkage=0.05


Tree=14
num_leaves=63
num_cat=0
split_feature=7 7 7 7 7 7 7 7 7 7 7 7 7 7 7 7 7 7 7 0 7 7 7 7 7 7 7 7 7 7 7 7 7 0 7 7 7 7 7 7 7 7 7 7 7 7 7 7 7 7 7 6 7 27 7 17 0 3 7 4 3 7
split_gain=9.75271e+06 2.18131e+06 2.04514e+06 703482 326149 269935 255222 102421 82694.5 41348.1 29025.9 27485.6 26541.4 26417.6 11619 9804.61 9423.73 9151.08 8098.95 7358.91 4855.47 4820.72 3989.52 3498.06 3446.05 3346.44 3270.83 3083.03 2395.24 2219.39 2100.43 2019.37 1645.22 1490.06 1434.48 1214.77 1208.17 1094.46 837.835 610.786 594.471 587.137 570.651 499.634 489.68 479.006 461.151 457.803 412.627 409.539 406.562 368.848 351.85 346.277 335.398 246.601 244.889 242.078 241.309 237.53 228.31 224.066
threshold=19.150000000000002 57.250000000000007 6.6500000000000012 34.500000000000007 92.90000000000002 2.3500000000000001 12.250000000000002 26.250000000000004 43.500000000000007 4.3500000000000005 0.8500000000000002 15.550000000000002 9.3500000000000032 78.600000000000009 22.300000000000001 38.800000000000004 72.15000000000002 49.500000000000007 30.250000000000004 7.7999992500000008 3.3500000000000001 8.0500000000000025 5.5500000000000007 10.850000000000003 17.250000000000004 1.5500000000000003 14.050000000000002 62.750000000000007 0.35000000000000003 52.600000000000009 23.450000000000003 46.750000000000007 28.500000000000004 7.3500022500000011 20.750000000000004 35.95000000000001 31.850000000000005 41.300000000000004 2.8500000000000001 13.250000000000002 3.9500000000000006 18.150000000000002 7.4500000000000011 6.1500000000000012 10.15 8.8500000000000032 5.0500000000000007 1.9500000000000002 11.550000000000002 1.2500000000000002 14.900000000000002 27.000000000000004 24.750000000000004 4.6999999999999984 16.350000000000005 4.5000000000000009 9.3000035000000025 25.350000000000005 33.150000000000013 24.050000000000004 28.850000000000005 29.650000000000002
decision_type=2 2 2 2 2 2 2 2 2 2 2 2 2 2 2 2 2 2 2 2 2 2 2 2 2 2 2 2 2 2 2 2 2 2 2 2 2 2 2 2 2 2 2 2 2 2 2 2 2 2 2 2 2 2 2 2 2 2 2 2 2 2
left_child=2 3 5 7 13 10 12 14 15 20 28 26 21 16 34 35 27 31 32 -6 38 42 46 44 54 49 39 -3 51 56 -16 55 -9 -15 -2 -5 -20 -17 -7 -8 -22 -26 -4 -24 -14 -23 -11 -27 -25 -12 -28 -1 -32 -33 -13 -10 -19 -31 -38 -29 -18 -34
right_child=1 4 6 8 19 9 11 18 17 22 25 24 23 33 30 37 60 29 36 -21 40 45 43 48 41 47 50 59 -30 57 52 53 61 -35 -36 -37 58 -39 -40 -41 -42 -43 -44 -45 -46 -47 -48 -49 -50 -51 -52 -53 -54 -55 -56 -57 -58 -59 -60 -61 -62 -63
leaf_value=-0.15090746879577638 0.33551255837768923 1.2894730266771819 0.021223224501826159 0.70643516665483441 3.0558832168579104 -0.087743172955485282 0.15953142303506382 0.51757648074239948 0.94098919290243321 -0.035388944774211763 -0.12521774958871656 0.24083339330740083 0.087610595801294475 2.004943656921387 0.40828684661468168 0.82697978176225462 1.6769788063897029 1.0794487046280394 0.60375341010830819 2.2243972778320313 -0.06219127630637955 0.055933733262998012 -0.0082198278860572127 0.12253187290398576 0.27921144483566285 -0.108055015694831 0.20202881116383306 1.5369332613263813 -0.13630736519034867 1.2557045664106097 0.44388845512355229 1.0470070347927585 0.55667157977084514 1.8196271896362306 0.37459211158696465 0.76388717153739671 0.6433863147803569 0.88735380609614656 -0.07492012276336811 0.18278059624871057 -0.048941623665431262 0.30274786140894627 0.039264889096945095 0.0051238542726773136 0.10526309679908406 0.07132006952525434 -0.020960085370652651 -0.098320725426496447 0.14131862457000441 -0.11632249506407749 0.22127839848233474 -0.14528120441480097 0.47039384491544917 1.0016591715258221 0.25988676697486252 0.98249359130859382 1.1327028274536133 1.1767580628068479 0.67309794879466001 1.4201745986938477 1.7190446853637695 0.57995446763700842
leaf_weight=103780 4344 171 11692 1618 536 24833 4674 2526 1077 15030 34908 4821 9717 552 3766 1371 810 1407 1973 28 22389 10755 15894 7116 5000 29616 5579 595 46768 112 2404 1212 1987 135 5111 2133 1852 1659 26155 7141 13613 5637 7011 12558 6595 9550 8768 20397 4960 20561 5396 40498 2613 645 4434 536 255 730 1083 47 536 2153
leaf_count=103780 4344 171 11692 1618 536 24833 4674 2526 1077 15030 34908 4821 9717 552 3766 1371 810 1407 1973 28 22389 10755 15894 7116 5000 29616 5579 595 46768 112 2404 1212 1987 135 5111 2133 1852 1659 26155 7141 13613 5637 7011 12558 6595 9550 8768 20397 4960 20561 5396 40498 2613 645 4434 536 255 730 1083 47 536 2153
internal_value=-6.2359e-10 0.699361 -0.0589077 0.601885 1.91616 -0.107551 0.133656 0.46893 0.912638 -0.0501227 -0.134517 0.229325 0.0730682 1.69848 0.395102 0.793142 1.61254 1.04828 0.585266 3.0146 -0.0712393 0.0463008 -0.014966 0.109849 0.272272 -0.113464 0.19184 1.47813 -0.146141 1.12112 0.436509 0.995707 0.549377 1.96853 0.356637 0.739105 0.63401 0.860036 -0.0811654 0.173583 -0.0571813 0.291684 0.0279863 -0.00233026 0.0947476 0.0631704 -0.0300729 -0.104085 0.130248 -0.12192 0.211493 -0.149328 0.457693 1.03126 0.249962 0.954781 1.08762 1.18726 0.65435 1.52839 1.69373 0.56878
internal_weight=591823 45977 545846 42567 3410 435768 110078 29812 12755 139240 296528 42682 67396 2846 18238 6781 2159 5974 11574 564 86990 39008 52250 28388 19892 105482 22790 813 191046 2504 8783 3470 6666 687 9455 3751 4908 3030 50988 11815 36002 10637 18703 28452 16312 20305 23798 50013 12076 55469 10975 144278 5017 1857 9255 1613 1662 842 2935 642 1346 4140
internal_count=591823 45977 545846 42567 3410 435768 110078 29812 12755 139240 296528 42682 67396 2846 18238 6781 2159 5974 11574 564 86990 39008 52250 28388 19892 105482 22790 813 191046 2504 8783 3470 6666 687 9455 3751 4908 3030 50988 11815 36002 10637 18703 28452 16312 20305 23798 50013 12076 55469 10975 144278 5017 1857 9255 1613 1662 842 2935 642 1346 4140
is_linear=0
shrinkage=0.05


Tree=15
num_leaves=63
num_cat=0
split_feature=7 7 7 7 7 7 7 7 7 7 7 7 7 7 7 7 7 7 7 0 7 7 7 7 7 7 7 7 7 7 7 7 0 7 16 7 7 7 7 7 7 7 7 7 7 7 7 7 17 7 7 7 7 7 7 7 7 3 7 0 3 7
split_gain=8.80218e+06 1.935e+06 1.90246e+06 605490 294349 268336 218910 93729 64346.8 35773.4 34883.8 23841.9 23538.2 22707.1 10368 8504.91 8234.71 7955.45 7322.86 6641.41 3980.86 3956.34 3761.96 3464.94 3094.1 2965.21 2919.92 2782.44 2588.41 2226.38 1832.45 1432.94 1344.78 1070.75 931.426 923.897 883.647 720.585 606.677 583.216 525.819 525.418 499.226 495.68 485.805 483.884 463.308 422.525 404.774 380.611 368.325 333.418 313.904 285.47 282.497 269.497 269.179 230.879 230.761 215.018 206.049 203.515
threshold=19.550000000000004 57.250000000000007 7.0500000000000007 35.150000000000013 92.90000000000002 2.6500000000000008 12.850000000000003 26.850000000000005 44.150000000000006 4.7500000000000009 1.0500000000000003 78.600000000000009 9.8500000000000032 16.150000000000002 23.150000000000002 72.15000000000002 31.550000000000001 39.300000000000004 50.400000000000006 7.7999992500000008 3.5500000000000003 8.4500000000000011 0.45000000000000007 1.7500000000000002 5.8500000000000005 17.950000000000003 11.250000000000002 62.750000000000007 14.450000000000001 47.300000000000004 21.350000000000005 29.000000000000004 7.3500022500000011 52.600000000000009 150.50000000000003 24.750000000000004 37.300000000000004 33.600000000000001 4.0500000000000007 2.2500000000000004 9.1500000000000004 11.850000000000003 16.950000000000003 0.15000000000000005 7.7500000000000009 3.0500000000000003 5.2500000000000009 6.3500000000000005 4.5000000000000009 15.250000000000002 1.3500000000000003 13.65 21.850000000000005 29.950000000000003 18.950000000000003 0.75000000000000011 10.550000000000002 26.650000000000002 25.650000000000002 6.8500022500000011 28.850000000000005 20.250000000000004
decision_type=2 2 2 2 2 2 2 2 2 2 2 2 2 2 2 2 2 2 2 2 2 2 2 2 2 2 2 2 2 2 2 2 2 2 2 2 2 2 2 2 2 2 2 2 2 2 2 2 2 2 2 2 2 2 2 2 2 2 2 2 2 2
left_child=2 3 5 7 11 10 12 14 17 20 22 15 21 28 30 27 31 36 29 -6 45 44 43 50 46 42 56 -3 51 48 61 -9 -13 -20 -19 -16 -5 -18 -22 -25 -23 -28 -15 -1 -4 -7 -11 -26 -10 -30 -12 -8 -32 -33 -27 -24 -14 -35 -37 -29 -17 -2
right_child=1 4 6 8 19 9 13 16 18 24 23 32 26 25 35 60 37 34 33 -21 38 40 55 39 47 54 41 59 49 -31 52 53 -34 57 -36 58 -38 -39 -40 -41 -42 -43 -44 -45 -46 -47 -48 -49 -50 -51 -52 -53 -54 -55 -56 -57 -58 -59 -60 -61 -62 -63
leaf_value=-0.14296825781261835 0.31880639684548012 1.2249993976793792 0.028321805634217309 0.69442267835203841 2.9030889511108402 -0.077120926248921404 0.16469145029587223 0.50742965027313702 0.89806300998489519 -0.027729738283293753 -0.11535440606545673 1.9046964645385742 0.093669367998280795 0.23768925560681209 0.41531315663752671 1.5931297577752008 0.61267079996201135 0.80113804077628858 1.0491096617409548 2.1131774902343752 -0.055022409568337774 0.061776574166809643 -0.1292587892748514 -0.096942600940383344 -0.0011987805830144832 0.28340027137895474 0.12339767097249968 1.3821001052856445 0.19994403633667435 1.0005804956544828 0.35813993111712533 0.54003592130253042 1.7286457061767579 1.1391855315087547 0.85717380281146949 0.4410446678013904 0.74598307181586376 0.65970853829320164 -0.041708347701954751 -0.085943385214582779 0.077536977494362294 0.14413981034722129 0.25922937819800945 -0.13627112157269683 0.04494249451399638 -0.066520122709255128 -0.013900607361380993 0.011552915322805531 0.9446905544465859 0.21895770425286074 -0.10707240269527761 0.18213939444530547 0.38170773697093252 0.56445944448312124 0.30484079189356805 -0.12216662993609036 0.10819549961559397 1.067173957824707 0.46731958639742149 1.463950538635254 1.6330923080444337 0.34004399245927314
leaf_weight=117965 1817 171 8815 1874 536 18694 4713 2614 789 10662 24348 552 7696 5167 3275 810 2961 1461 884 28 16917 12300 29881 30357 13746 6279 6179 94 5336 2036 2204 2188 135 710 1506 1911 1493 1123 17312 19986 9289 6035 5611 36079 8771 25379 14021 12317 1135 5194 29923 6534 3936 2640 2034 24278 5446 132 1485 548 536 2975
leaf_count=117965 1817 171 8815 1874 536 18694 4713 2614 789 10662 24348 552 7696 5167 3275 810 2961 1461 884 28 16917 12300 29881 30357 13746 6279 6179 94 5336 2036 2204 2188 135 710 1506 1911 1493 1123 17312 19986 9289 6035 5611 36079 8771 25379 14021 12317 1135 5194 29923 6534 3936 2640 2034 24278 5446 132 1485 548 536 2975
internal_value=-1.29432e-10 0.675772 -0.0550223 0.580921 1.82035 -0.100553 0.135856 0.457714 0.879496 -0.0398884 -0.125579 1.61355 0.0785113 0.226403 0.385139 1.53192 0.568555 0.769887 1.0016 2.86387 -0.0610812 0.0542167 -0.137415 -0.102024 -0.00718748 0.266209 0.116046 1.40423 0.191507 0.964136 0.355163 0.537247 1.8701 1.08754 0.829581 0.434261 0.717286 0.625605 -0.0482886 -0.0925759 0.0685577 0.133646 0.248903 -0.1414 0.0366114 -0.0710166 -0.0198742 0.00482749 0.925569 0.209323 -0.110788 0.174828 0.373248 0.553391 0.288646 -0.12608 0.0996889 1.1279 0.452534 1.45197 1.60904 0.331991
internal_weight=591823 44559 547264 41149 3410 441865 105399 29129 12020 129048 312817 2846 64531 40868 17603 2159 11526 6334 5686 564 78302 39175 208203 104614 50746 19091 25356 813 21777 3960 10932 7442 687 1726 2967 6671 3367 4084 34229 50343 21589 12214 10778 154044 17586 44073 24683 26063 1924 10530 54271 11247 6140 4828 8313 54159 13142 842 3396 642 1346 4792
internal_count=591823 44559 547264 41149 3410 441865 105399 29129 12020 129048 312817 2846 64531 40868 17603 2159 11526 6334 5686 564 78302 39175 208203 104614 50746 19091 25356 813 21777 3960 10932 7442 687 1726 2967 6671 3367 4084 34229 50343 21589 12214 10778 154044 17586 44073 24683 26063 1924 10530 54271 11247 6140 4828 8313 54159 13142 842 3396 642 1346 4792
is_linear=0
shrinkage=0.05


Tree=16
num_leaves=63
num_cat=0
split_feature=7 7 7 7 7 7 7 7 7 7 7 7 7 7 7 7 7 7 0 7 7 7 7 7 7 7 7 7 7 7 7 7 7 0 7 16 7 7 7 7 7 7 6 7 7 7 7 17 7 7 7 7 7 7 7 7 7 7 4 7 3 7
split_gain=7.94406e+06 1.75308e+06 1.72509e+06 528796 265650 242173 205829 83726.2 52960.5 32288.2 31482.6 22316.2 21517.3 21393.9 8636.11 8209.66 7675.68 6609.46 5993.88 5987.72 3761.12 3395.17 3305.31 3133.08 3095.52 2716.73 2670.41 2610.89 2511.15 1737.55 1526.79 1298.82 1239.59 1213.66 905.245 840.611 633.952 559.001 542.125 538.746 500.938 487.823 451.549 439.996 390.503 384.546 373.723 365.309 352.529 350.285 345.601 331.381 328.277 309.13 247.697 243.221 215.277 208.841 200.049 188.975 185.96 174.307
threshold=20.100000000000005 7.0500000000000007 57.250000000000007 35.400000000000006 92.90000000000002 2.6500000000000008 13.000000000000002 26.850000000000005 44.150000000000006 4.6500000000000012 1.0500000000000003 9.9500000000000011 78.600000000000009 16.250000000000004 31.550000000000001 23.450000000000003 72.15000000000002 50.000000000000007 7.7999992500000008 39.300000000000004 8.4500000000000011 0.45000000000000007 3.4500000000000006 1.8500000000000003 5.7500000000000009 11.350000000000003 14.550000000000002 18.050000000000004 62.750000000000007 47.300000000000004 21.850000000000005 29.150000000000002 52.600000000000009 7.3500022500000011 33.600000000000001 150.50000000000003 3.9500000000000006 37.850000000000009 25.650000000000002 9.2500000000000018 6.3500000000000005 1.4500000000000002 27.000000000000004 7.8500000000000005 2.2500000000000004 5.1500000000000012 10.550000000000002 4.5000000000000009 18.950000000000003 17.150000000000002 13.850000000000003 15.450000000000001 12.15 2.9500000000000006 21.250000000000004 0.75000000000000011 55.050000000000004 28.050000000000004 24.050000000000004 32.650000000000006 28.850000000000005 29.950000000000003
decision_type=2 2 2 2 2 2 2 2 2 2 2 2 2 2 2 2 2 2 2 2 2 2 2 2 2 2 2 2 2 2 2 2 2 2 2 2 2 2 2 2 2 2 2 2 2 2 2 2 2 2 2 2 2 2 2 2 2 2 2 2 2 2
left_child=1 5 3 7 12 10 11 15 19 22 21 20 16 26 31 30 28 29 -6 37 43 42 53 41 45 46 50 49 -4 47 54 57 -19 -14 59 -21 -24 -5 -17 -22 -26 -12 -1 -3 -25 -11 -13 -10 -29 -15 -8 -28 -27 -7 -2 -23 -34 -9 -30 -16 -18 -33
right_child=2 6 4 8 18 9 13 14 17 24 23 25 33 27 34 38 60 32 -20 35 39 55 36 44 40 52 51 48 58 -31 -32 61 56 -35 -36 -37 -38 -39 -40 -41 -42 -43 -44 -45 -46 -47 -48 -49 -50 -51 -52 -53 -54 -55 -56 -57 -58 -59 -60 -61 -62 -63
leaf_value=-0.13621368408203124 0.31842877594341967 0.027588047235662289 1.1637493786058928 0.66959471816625582 2.7579345703125 -0.074661221782632889 0.16119826836255224 0.47084354575210546 0.85315982700149684 -0.028312694130487322 -0.10847418107635498 0.089807145452492521 1.8094615936279297 0.23069165978485595 0.56859034031887223 0.40892846131794425 1.5134732521904839 0.99129737122232509 2.0075185775756839 0.76108115439052704 0.059232428980337461 -0.12279584905173357 -0.054749767465485537 -0.091081466211782647 -0.0023353750265045314 0.12195639852933252 0.19581085792017708 0.27068173211498819 1.3872123795196791 0.94769465479430814 0.3652159015825342 0.51554329798417386 1.0593504838776171 1.6422134399414063 0.62939229665590535 0.81431510419959574 -0.041743559070909132 0.71383864600164937 0.44395361197115196 0.075021458311788289 0.010975269335196942 -0.099450929570739255 -0.13043991585891945 0.043476951929765528 -0.08164621484204479 -0.015413720090044611 0.10574532743007942 0.89745601922930074 0.29189361336631381 0.24951320384825082 0.1780144195410947 0.21374115616638467 0.13966699928318302 -0.065395044576520664 0.33882947527906188 -0.1160582982557925 1.1241046748583832 0.49694289057924035 1.2800608634948731 0.59390269520172101 1.5514377593994142 0.53623646255695456
leaf_weight=103780 3367 9625 171 1756 536 14018 6069 1322 789 10362 32663 6933 552 4778 1388 4315 810 1126 28 1461 13211 29881 17922 24299 16588 4854 5524 5654 595 1794 4807 1656 684 135 1531 1506 19632 1203 1485 9141 12317 27666 50264 7961 19986 13061 7834 1135 2997 5122 6153 4830 5676 25148 2666 24278 158 1824 47 1573 536 2640
leaf_count=103780 3367 9625 171 1756 536 14018 6069 1322 789 10362 32663 6933 552 4778 1388 4315 810 1126 28 1461 13211 29881 17922 24299 16588 4854 5524 5654 595 1794 4807 1656 684 135 1531 1506 19632 1203 1485 9141 12317 27666 50264 7961 19986 13061 7834 1135 2997 5122 6153 4830 5676 25148 2666 24278 158 1824 47 1573 536 2640
internal_value=-1.31018e-09 -0.0516581 0.649609 0.557989 1.72933 -0.0955252 0.130581 0.442366 0.842506 -0.037894 -0.1193 0.0753539 1.53287 0.218182 0.54343 0.369883 1.45532 0.951517 2.72068 0.73791 0.0520794 -0.130544 -0.0585491 -0.0969227 -0.00761068 0.112099 0.185492 0.257964 1.33402 0.912297 0.344194 0.510385 1.02561 1.7766 0.598177 0.788102 -0.0479505 0.687582 0.417896 0.0656895 0.00333656 -0.104336 -0.13433 0.0347808 -0.0868233 -0.02112 0.0982625 0.879291 0.27803 0.240429 0.169664 0.204175 0.131503 -0.0687115 0.327444 -0.119776 1.0715 0.485976 1.37937 0.582037 1.52859 0.52826
internal_weight=591823 548227 43596 40186 3410 441865 106362 28574 11612 129048 312817 65235 2846 41127 11934 16640 2159 5686 564 5926 39938 208203 76720 104614 52328 25297 22576 18551 813 3718 10840 7442 1968 687 4492 2967 37554 2959 5800 22352 28905 60329 154044 17586 44285 23423 14767 1924 8651 9900 12222 10354 10530 39166 6033 54159 842 3146 642 2961 1346 4296
internal_count=591823 548227 43596 40186 3410 441865 106362 28574 11612 129048 312817 65235 2846 41127 11934 16640 2159 5686 564 5926 39938 208203 76720 104614 52328 25297 22576 18551 813 3718 10840 7442 1968 687 4492 2967 37554 2959 5800 22352 28905 60329 154044 17586 44285 23423 14767 1924 8651 9900 12222 10354 10530 39166 6033 54159 842 3146 642 2961 1346 4296
is_linear=0
shrinkage=0.05


Tree=17
num_leaves=63
num_cat=0
split_feature=7 7 7 7 7 7 7 7 7 7 7 7 7 7 7 7 7 7 7 0 7 7 7 7 7 7 7 7 7 7 7 7 7 7 0 7 7 7 7 7 7 7 7 7 7 7 7 7 7 7 7 7 6 27 7 7 3 0 7 7 0 3
split_gain=7.16959e+06 1.5876e+06 1.53034e+06 503159 239749 203973 188497 74821.4 57130.6 29479 23883.8 20621.8 19419.3 19265.4 7575.71 6927.3 6843.19 6781.18 6428.39 5409.47 3194.87 3184.66 2950.39 2765.64 2557.84 2505.51 2455.24 2384.82 2266.31 1610.16 1472.74 1410.25 1127.13 1120.47 1095.33 850.992 842.786 746.934 576.563 460.289 419.98 400.661 385.378 381.992 359.368 352.769 336.255 333.866 329.068 317.79 309.614 286.65 272.812 245.106 242.758 219.525 204.002 202.44 197.424 185.979 180.914 167.829
