tree
version=v4
num_class=1
num_tree_per_iteration=1
label_index=0
max_feature_idx=28
objective=regression
feature_names=distance_km temperature_2m_max temperature_2m_min apparent_temperature_mean weathercode rain_sum precipitation_hours hour is_weekend month_sin month_cos day_sin day_cos district_encoded keyword_encoded city_encoded temp_range apparent_diff rain_intensity temp_lag_1 temp_lag_7 rain_lag_1 temp_rolling_3 temp_rolling_7 wind_lag_1 wind_lag_7 wind_rolling_3 wind_rolling_7 wind_log
feature_infos=[0.47972228134306388:15509.211184420628] [17.5:37.5] [12.1:29.800000000000001] [17:37.399999999999999] [0:65] [0:338.80000000000001] [0:24] [12:12] [0:1] [-1:1] [-1:1] [-0.99999073973619013:0.99999073973619013] [-0.99996295911626554:1] [0:24] [0:11] [0:29] [0.39999999999999858:16.100000000000001] [-1.3999999999999986:7.2999999999999972] [0:13.552] [16.600000000000001:31.800000000000001] [16.600000000000001:31.800000000000001] [0:338.80000000000001] [17.233333333333334:31.466666666666669] [18.157142857142858:31.185714285714287] [2.2000000000000002:50.200000000000003] [2.2000000000000002:50.200000000000003] [2.8666666666666689:46] [3.5428571428571431:43.957142857142856] [1.1631508098056809:3.9357395320454622]
tree_sizes=2888 2933 2982 2959 2959 2954 2931 2929 2926 2932 2972 2993 2915 2911 2909 2886 2908 2902 2881 2895 2887 2970 2923 2931 2981 2882 2894 2973 2937 2927 2920 2954 2949 2971 2958 2966 2950 2988 2971 2961 3018 2931 2968 2938 2941 3043 2976 2908 2948 3009 3039 3056 2910 2952 2944 3087 2962 3004 2960 3056 3106 3050 2934 3060 3059 2976 2968 3117 3054 3052 3057 3089 2928 3162 3002 2996 2883 2848 3019 3022 3005 2995 2989 3161 2984 3110 2954 3149 3029 2981 2983 3120 3089 2991 3122 3091 3162 3177 3004 3169 2968 3101 2935 3156 2933 3106 2992 3201 2990 3008 2995 2989 3116 2969 3169 2907 2939 2915 2931 2884 3003 3030 2976 2989 3176 3226 3096 3040 2945 3115 2948 3281 2953 2981 3055 3030 3003 3016 3275 3001 3105 2977 3248 2974 3231 2932 3178 2907 3222 2944 2971 2915 2947 3318 3099 3032 2997 3074 3304 3153 2891 2880 2980 2993 2866 3016 3210 3019 3051 3079 2885 2858 2924 2908 2912 3257 3242 3034 3155 3074 2888 2992 3227 3120 3010 2897 2970 3292 3166 2965 3002 2902 3024 2990 2871 2872 2891 2849 2975 3103 3060 3102 3030 3044 3026 3270 3008 2952 2850 3083 3129 3101 3316 3185 3150 2883 2927 2996 2957 2935 2979 2924 3274 2990 2985 2985 3151 2967 3081 3094 2809 2943 2801 2909 2949 2813 2872 2851 2885 3229 3281 3116 3026 3118 3104 3043 2934 3188 3169 3046 2934 3144 3196 3050 3049 2878 2986 3187 3003 3176 2964 2812 2967 3087 2821 3237 2887 3095 2989 3246 3203 2975 2838 3044 2944 2832 2852 2875 2856 2873 2963 2814 2972 2798 2958 2891 2824 2974 3109 3260 2894 3308 2990 3220 3121 3035 2990 3296 2887 2976 3044 2970 3216 3101 3194 2883 2898 3082 3074 3122 2985 2905 3292 2937 3082 3017 3032 3283 3012 2829 2998 3281 3086 2967 2988 2896 3041 2919 2955 3195 2864 2913 2955 3320 2973 2930 2988 2928 2981 3243 2970 2861 2869 3058 2967 2820 2808 2989 2889 3229 2866 2871 2944 3240 3055 2953 2901 2907 3092 2956 2870 3004 3056 2889 2892 2954 2947 3075 2996 2972 2902 3032 2859 3231 2963 3157 3299 2989 3015 2976 3105 3023 2941 2995 2979 2869 2895 2888 2959 2905 2879 2960 2944 2942 2966 2937 2972 3247 2947 3131 3002 3014 3082 3072 2929 3008 3270 3044 3215 3115 2931 2881 2933 3015 2964 2987 2832 2980 2927 2819 2830 2820 2830 2964 2952 2921 3093 3110 3222 3085 2955 3136 3086 3233 3211 2838 2873 2914 2895 3170 2870 2843 2894 2815 2963 2858 3270 2966 3025 2904 3102 2937 2912 3205 3017 2965 2970 3075 3147 2960 3028 3075 2817 2973 2903 3093 2994 3075 3085 2947 3170 2975 2897 3297 3030 2959 2988 2850 3020 2997 2859 2863 3029 2979 3157 3119 3075 3109 2816 2962 2924 2982 3208 3018 3203 3089 3225 3095 3085 3029

Tree=0
num_leaves=31
num_cat=0
split_feature=5 5 5 5 5 5 5 11 5 5 5 17 5 5 5 5 5 1 5 5 26 5 5 5 17 5 5 5 1 5
split_gain=2.15389e+08 6.7106e+07 5.44066e+07 1.79745e+07 1.42143e+07 7.0816e+06 6.92053e+06 4.38921e+06 3.2635e+06 1.97621e+06 1.77403e+06 1.07121e+06 957893 945980 851016 799580 532830 331391 305444 299242 290303 251668 212614 196686 129229 126421 124214 123634 115168 111397
threshold=19.850000000000005 60.800000000000004 6.4500000000000011 129.15000000000001 35.050000000000004 12.15 2.3500000000000001 0.71466676797886841 83.550000000000011 45.45000000000001 26.150000000000002 3.7000000000000015 15.65 9.1500000000000004 4.2500000000000009 0.8500000000000002 102.70000000000002 25.850000000000005 71.350000000000009 52.45000000000001 11.13333333333334 29.950000000000003 22.850000000000005 40.050000000000004 2.4999999999999987 17.550000000000004 7.7500000000000009 92.500000000000014 26.350000000000005 13.750000000000002
decision_type=2 2 2 2 2 2 2 2 2 2 2 2 2 2 2 2 2 2 2 2 2 2 2 2 2 2 2 2 2 2
left_child=2 4 6 8 10 13 15 24 18 23 22 20 29 26 -8 -1 27 -13 -3 -11 -9 -12 -2 -6 -5 -14 -4 -10 -22 -7
right_child=1 3 5 7 9 12 14 11 16 19 21 17 25 -15 -16 -17 -18 -19 -20 -21 28 -23 -24 -25 -26 -27 -28 -29 -30 -31
leaf_value=5.0361142908705343 7.1534351004886183 11.644059058434243 5.7270850953558732 23.992241955294354 8.7546140458586166 6.3141608673479963 5.3405039924791753 30.970034333509403 13.758289696475014 9.9105609255160623 7.8125625863295163 37.017680470821745 6.672557272686956 6.078531983086374 5.5480225057515735 5.1754174065806549 16.234900606086363 30.904962150035985 12.682917787034562 10.664786810367366 19.557842372926409 8.2367559135706259 7.4657628234656617 9.2834327567259667 19.791975912151251 6.8828051303549866 5.8631689149676296 14.817500584934216 24.890034028333616 6.4836873230623944
leaf_weight=1336950 52003 6719 141759 77 18269 81082 475916 54 2264 13322 31841 153 57850 200228 337942 595602 2020 211 4890 8693 73 24942 37522 11436 1504 56562 127314 2147 91 74262
leaf_count=1336950 52003 6719 141759 77 18269 81082 475916 54 2264 13322 31841 153 57850 200228 337942 595602 2020 211 4890 8693 73 24942 37522 11436 1504 56562 127314 2147 91 74262
internal_value=5.57783 8.62549 5.38701 14.1156 8.06539 6.14863 5.18206 22.7297 13.0827 9.49035 7.56166 30.1542 6.55692 5.91395 5.42667 5.07905 14.8898 33.4743 12.0817 10.2084 24.6105 7.99889 7.28434 8.9582 19.9965 6.7765 5.79147 14.2738 22.5166 6.3952
internal_weight=3.7037e+06 218231 3.48547e+06 20203 198028 739057 2.74641e+06 2163 18040 51720 146308 582 269756 469301 813858 1.93255e+06 6431 364 11609 22015 218 56783 89525 29705 1581 114412 269073 4411 164 155344
internal_count=3703698 218231 3485467 20203 198028 739057 2746410 2163 18040 51720 146308 582 269756 469301 813858 1932552 6431 364 11609 22015 218 56783 89525 29705 1581 114412 269073 4411 164 155344
is_linear=0
shrinkage=1


Tree=1
num_leaves=31
num_cat=0
split_feature=5 5 5 5 5 5 5 11 5 5 5 17 5 5 5 5 5 5 1 21 5 5 5 5 5 5 17 5 5 25
split_gain=1.745e+08 5.58027e+07 4.23936e+07 1.552e+07 1.09966e+07 5.7775e+06 5.1146e+06 3.55526e+06 3.20913e+06 1.51321e+06 1.40097e+06 867677 840779 742401 683975 464296 431592 415516 268427 229392 198464 187030 158894 154557 113287 109419 104676 100143 99584.3 96077.7
threshold=19.350000000000005 57.95000000000001 6.1500000000000012 129.15000000000001 33.750000000000007 11.550000000000002 2.0500000000000003 0.71466676797886841 83.550000000000011 44.050000000000004 25.250000000000004 3.7000000000000015 15.050000000000002 3.8500000000000001 8.6500000000000004 0.65000000000000002 102.70000000000002 68.750000000000014 25.850000000000005 53.70000000000001 28.850000000000005 50.850000000000001 38.250000000000007 22.050000000000004 16.950000000000003 5.0500000000000007 2.4999999999999987 92.500000000000014 10.15 8.6500000000000004
decision_type=2 2 2 2 2 2 2 2 2 2 2 2 2 2 2 2 2 2 2 2 2 2 2 2 2 2 2 2 2 2
left_child=2 4 6 8 10 14 15 26 17 22 23 19 -7 -8 -4 -1 27 -3 -13 -9 -12 -11 -6 -2 -14 -15 -5 -10 -16 -21
right_child=1 3 5 7 9 12 13 11 16 21 20 18 24 25 28 -17 -18 -19 -20 29 -22 -23 -24 -25 -26 -27 -28 -29 -30 -31
leaf_value=-0.49222515445405035 1.3549000736464958 5.1494471098303514 0.15761227348908513 16.572982768269327 2.7411386640578077 0.68523533730046859 -0.24352194025267226 22.852996826171875 7.362426047780068 3.7800278777029237 1.9252988443350281 28.29587916953891 0.93421286747344012 -0.1061156855404517 0.33655835966207959 -0.38456848933382115 9.5913761297546998 6.2366128487882628 22.794430990354712 12.582023432483412 2.2865615009997557 4.3753012154493121 3.1889075260214415 1.6157474997144388 1.1257648166156036 0.002286180950225617 12.792743885770758 8.3157165260830208 0.47512607010304014 17.44047496629798
leaf_weight=1237637 50259 7147 263605 77 17794 168806 502053 53 2264 13263 33285 153 62686 209033 113590 592328 2020 6919 211 73 27998 8767 14289 41448 60842 167913 1504 2147 95442 92
leaf_count=1237637 50259 7147 263605 77 17794 168806 502053 53 2264 13263 33285 153 62686 209033 113590 592328 2020 6919 211 73 27998 8767 14289 41448 60842 167913 1504 2147 95442 92
internal_value=1.34974e-05 2.66903 -0.176513 7.38044 2.15353 0.48087 -0.362148 15.4367 6.53028 3.37876 1.72017 22.1188 0.830309 -0.16389 0.264736 -0.457379 8.3808 5.68422 25.1069 17.1295 2.09035 4.01692 2.94056 1.47279 1.02856 -0.0578274 12.9769 7.82643 0.399827 15.291
internal_weight=3.7037e+06 229763 3.47394e+06 22660 207103 764971 2.70896e+06 2163 20497 54113 152990 582 292334 878999 472637 1.82996e+06 6431 14066 364 218 61283 22030 32083 91707 123528 376946 1581 4411 209032 165
internal_count=3703698 229763 3473935 22660 207103 764971 2708964 2163 20497 54113 152990 582 292334 878999 472637 1829965 6431 14066 364 218 61283 22030 32083 91707 123528 376946 1581 4411 209032 165
is_linear=0
shrinkage=0.1


Tree=2
num_leaves=31
num_cat=0
split_feature=5 5 5 5 5 5 5 11 5 5 5 5 17 5 5 5 5 28 5 5 21 5 5 5 5 17 5 5 5 19
split_gain=1.41416e+08 4.30514e+07 3.70783e+07 1.09001e+07 9.89371e+06 5.04608e+06 4.60394e+06 2.87976e+06 1.6865e+06 1.32298e+06 1.26027e+06 705752 702818 652973 563411 508992 323124 224217 216286 193124 185808 159220 150790 137188 88493.1 84787.2 80754.4 77503.4 76463.9 75988.1
threshold=20.450000000000003 64.750000000000014 6.7500000000000009 129.15000000000001 36.350000000000001 2.6500000000000008 12.750000000000002 0.71466676797886841 92.500000000000014 47.850000000000001 27.150000000000002 1.0500000000000003 3.7000000000000015 9.6500000000000004 16.250000000000004 4.6500000000000012 75.850000000000009 2.9831502867222164 56.050000000000004 31.650000000000002 53.70000000000001 23.650000000000002 41.45000000000001 102.70000000000002 8.0500000000000025 2.4999999999999987 0.25000000000000006 3.4500000000000006 10.950000000000001 25.950000000000003
decision_type=2 2 2 2 2 2 2 2 2 2 2 2 2 2 2 2 2 2 2 2 2 2 2 2 2 2 2 2 2 2
left_child=2 4 5 8 10 11 13 25 16 22 21 26 20 24 -8 27 -3 -14 -11 -12 -9 -2 -6 -10 -4 -5 -1 -7 -15 -22
right_child=1 3 6 7 9 15 14 12 23 18 19 -13 17 28 -16 -17 -18 -19 -20 -21 29 -23 -24 -25 -26 -27 -28 -29 -30 -31
leaf_value=-0.45160594596778059 1.3258942263507665 5.2314612556272237 0.14740436444134361 14.915684489460734 2.6729952793869125 -0.20588940100138414 0.71382664781578697 20.567697143554689 7.4841445656338017 3.7042002376096388 1.9117217194354539 -0.30630985512587361 27.348641967773439 0.37916883906955118 1.0190498273596853 0.0061031467430758806 6.3055449804319679 21.300038531110005 4.3919619009381901 2.3081861366615994 11.382107337745461 1.5991649698412023 3.1357518219470908 8.6322384039246227 0.26257401014897591 11.513469898954352 -0.40042142867951824 -0.12288867673628563 0.50471355345378122 15.697081027188146
leaf_weight=980894 51893 6547 133169 77 15508 210636 146422 53 2147 13293 34316 600045 78 91269 103033 302032 4895 286 6970 19139 74 36191 12898 2020 133698 1504 449489 241472 103559 91
leaf_count=980894 51893 6547 133169 77 15508 210636 146422 53 2147 13293 34316 600045 78 91269 103033 302032 4895 286 6970 19139 74 36191 12898 2020 133698 1504 449489 241472 103559 91
internal_value=1.21485e-05 2.53332 -0.150709 7.24016 2.09354 -0.315295 0.493743 13.893 6.31825 3.32346 1.67063 -0.397336 19.9069 0.306716 0.839894 -0.0944103 5.69096 22.5962 3.94077 2.05367 15.4165 1.43817 2.88311 8.0407 0.205103 11.6792 -0.435522 -0.161559 0.445901 13.7619
internal_weight=3.7037e+06 207980 3.49572e+06 17772 190208 2.78457e+06 711150 2163 15609 48669 141539 2.03043e+06 582 461695 249455 754140 11442 364 20263 53455 218 88084 28406 4167 266867 1581 1.43038e+06 452108 194828 165
internal_count=3703698 207980 3495718 17772 190208 2784568 711150 2163 15609 48669 141539 2030428 582 461695 249455 754140 11442 364 20263 53455 218 88084 28406 4167 266867 1581 1430383 452108 194828 165
is_linear=0
shrinkage=0.1


Tree=3
num_leaves=31
num_cat=0
split_feature=5 5 5 5 5 5 5 5 10 5 17 5 5 5 5 5 5 26 5 1 5 5 3 5 5 5 5 28 5 5
split_gain=1.14662e+08 3.71968e+07 2.71624e+07 1.01775e+07 7.50902e+06 3.80572e+06 3.15797e+06 2.13214e+06 1.7151e+06 1.09084e+06 1.0622e+06 912849 589458 491251 430055 276686 272364 239694 229647 191187 158001 121866 111513 107538 94487.6 80380.9 76047 65733.5 62051.5 60360.5
threshold=18.950000000000003 57.95000000000001 5.9500000000000011 129.15000000000001 33.150000000000013 11.250000000000002 1.8500000000000003 83.550000000000011 0.25000000000000017 43.050000000000004 3.7000000000000015 24.950000000000003 14.450000000000001 3.5500000000000003 8.3500000000000032 102.70000000000002 68.750000000000014 11.13333333333334 0.55000000000000016 25.850000000000005 49.750000000000007 28.450000000000003 29.250000000000004 21.650000000000002 37.550000000000004 16.750000000000004 4.8500000000000005 3.3339870432574523 9.8500000000000032 92.500000000000014
decision_type=2 2 2 2 2 2 2 2 2 2 2 2 2 2 2 2 2 2 2 2 2 2 2 2 2 2 2 2 2 2
left_child=2 4 6 7 11 14 18 16 10 24 17 23 -7 -8 -4 29 -3 -5 -1 -12 -11 -13 -19 -2 -6 -14 -15 -10 -16 -9
right_child=1 3 5 8 9 12 13 15 27 20 19 21 25 26 28 -17 -18 22 -20 -21 -22 -23 -24 -25 -26 -27 -28 -29 -30 -31
leaf_value=-0.40114576041896949 1.071574768027997 4.1687716055336708 0.11027172909317476 18.529969674569589 2.1756067592364605 0.52195363096115566 -0.21350615221358399 5.9956291727800677 10.375653172602885 2.9901609668360809 23.02792600743911 1.5366680724614541 0.73579846645153069 -0.10221402175286916 0.25289685135528006 7.7690151373230592 5.0489625380276637 9.7645107980501855 -0.32419543285770847 18.384984274046115 3.5063051293250505 1.8189795193599445 14.07198263315054 1.283095081109658 2.5173011543415931 0.89046513411590689 -0.015164672527865374 12.714143487178919 0.36041069477588566 6.7357299538173949
leaf_weight=1178348 50155 7147 262868 54 17894 167154 507951 2264 1345 13474 153 33416 79155 248142 121773 2020 6919 177 578097 211 10594 28190 91 46154 14775 58387 168509 132 96002 2147
leaf_count=1178348 50155 7147 262868 54 17894 167154 507951 2264 1345 13474 153 33416 79155 248142 121773 2020 6919 177 578097 211 10594 28190 91 46154 14775 58387 168509 132 96002 2147
internal_value=1.093e-05 2.12654 -0.145573 5.97982 1.71976 0.37164 -0.297076 5.29137 12.5037 2.7065 16.6356 1.36524 0.648123 -0.14749 0.196368 6.79974 4.60173 12.4518 -0.375819 20.3366 3.21735 1.66585 11.2271 1.17294 2.33014 0.801455 -0.0670081 10.5846 0.300292 6.35586
internal_weight=3.7037e+06 237312 3.46639e+06 22660 214652 785339 2.68105e+06 20497 2163 56737 686 157915 304696 924602 480643 6431 14066 322 1.75644e+06 364 24068 61606 268 96309 32669 137542 416651 1477 217775 4411
internal_count=3703698 237312 3466386 22660 214652 785339 2681047 20497 2163 56737 686 157915 304696 924602 480643 6431 14066 322 1756445 364 24068 61606 268 96309 32669 137542 416651 1477 217775 4411
is_linear=0
shrinkage=0.1


Tree=4
num_leaves=31
num_cat=0
split_feature=5 5 5 5 5 5 5 5 10 17 5 5 5 5 5 5 5 5 24 28 5 5 5 5 5 5 5 5 9 2
split_gain=9.28907e+07 3.04399e+07 2.16506e+07 8.63682e+06 5.70714e+06 3.06617e+06 2.47774e+06 1.9728e+06 1.38923e+06 860382 793430 727684 428457 387235 342439 298074 224115 214959 191864 159480 104744 88886.9 88219.1 81850 75951.5 65541.8 65299.7 64671.4 59772.8 64006.3
threshold=18.750000000000004 56.050000000000004 5.8500000000000005 129.15000000000001 32.550000000000004 11.350000000000003 1.9500000000000002 83.550000000000011 0.25000000000000017 3.7000000000000015 43.050000000000004 24.450000000000003 14.250000000000002 8.1500000000000004 3.3500000000000001 64.750000000000014 102.70000000000002 0.45000000000000007 12.550000000000002 2.9831502867222164 27.650000000000002 37.550000000000004 48.650000000000013 75.850000000000009 21.250000000000004 4.5500000000000007 16.550000000000004 9.7500000000000018 0.68301270189221941 21.350000000000005
decision_type=2 2 2 2 2 2 2 2 2 2 2 2 2 2 2 2 2 2 2 2 2 2 2 2 2 2 2 2 2 2
left_child=2 4 6 7 11 13 17 15 9 18 21 24 -7 -4 -8 -3 -9 -1 -5 -11 -13 -6 -12 -17 -2 -16 -14 -15 -10 -30
right_child=1 3 5 8 10 12 14 16 28 19 22 20 26 27 25 23 -18 -19 -20 -21 -22 -23 -24 -25 -26 -27 -28 -29 29 -31
leaf_value=-0.36300868362271355 0.94609327757033412 3.5556771535339795 0.09023881289115826 14.766006017888635 1.9428101428212079 0.46508414823744837 -0.1952257322245595 5.7202778312252427 9.3036716356828233 22.310986328125001 2.6450517517546204 1.3402973555412023 0.64984699645354604 0.2195398326377514 -0.10423335778219414 4.2337892201104488 6.9921131292664187 -0.29158629847630552 9.5326020576093846 17.209780190207741 1.5930773046460114 2.2655710661060318 3.0456779437398769 4.8941813526566795 1.1250622694273131 -0.027435789621621298 0.78726556799273595 0.32370075087630679 9.0426147460937507 13.071692889669666
leaf_weight=1118255 48836 6970 258567 103 20195 151539 423806 4411 1316 78 10967 32923 83811 132290 248890 6547 2020 676209 219 286 32648 14775 11019 2631 46094 200771 58868 108493 69 92
leaf_count=1118255 48836 6970 258567 103 20195 151539 423806 4411 1316 78 10967 32923 83811 132290 248890 6547 2020 676209 219 286 32648 14775 11019 2631 46094 200771 58868 108493 69 92
internal_value=9.83965e-06 1.89329 -0.132462 5.21686 1.51514 0.3261 -0.268859 4.63858 11.2533 14.972 2.37512 1.20996 0.582179 0.175218 -0.130731 4.04869 6.11977 -0.336095 11.2066 18.3029 1.46616 2.07918 2.84584 4.4231 1.03299 -0.0699437 0.706545 0.266473 9.52618 11.3449
internal_weight=3.7037e+06 242199 3.4615e+06 24742 217457 793568 2.66793e+06 22579 2163 686 56956 160501 294218 499350 873467 16148 6431 1.79446e+06 322 364 65571 34970 21986 9178 94930 449661 142679 240783 1477 161
internal_count=3703698 242199 3461499 24742 217457 793568 2667931 22579 2163 686 56956 160501 294218 499350 873467 16148 6431 1794464 322 364 65571 34970 21986 9178 94930 449661 142679 240783 1477 161
is_linear=0
shrinkage=0.1


Tree=5
num_leaves=31
num_cat=0
split_feature=5 5 5 5 5 5 5 5 10 5 5 17 5 5 5 5 26 1 5 5 5 5 5 3 5 5 5 5 5 17
split_gain=7.52207e+07 2.48923e+07 1.72225e+07 6.29629e+06 5.75544e+06 2.47613e+06 1.94837e+06 1.13545e+06 1.0714e+06 786745 758778 742195 405048 333640 269422 175239 169691 142590 121090 111120 110700 109014 98083.5 83570.5 82986.6 57203 56869.2 52191.6 47207.3 44992.2
threshold=18.550000000000004 60.800000000000004 5.7500000000000009 129.15000000000001 34.45000000000001 10.850000000000003 1.6500000000000001 83.550000000000011 0.25000000000000017 25.550000000000004 45.45000000000001 3.7000000000000015 13.950000000000001 3.1500000000000008 7.5500000000000007 102.70000000000002 11.13333333333334 25.850000000000005 71.350000000000009 0.35000000000000003 53.95000000000001 21.850000000000005 29.550000000000004 29.250000000000004 39.150000000000013 4.4500000000000011 15.950000000000001 9.3500000000000032 92.500000000000014 2.4999999999999987
decision_type=2 2 2 2 2 2 2 2 2 2 2 2 2 2 2 2 2 2 2 2 2 2 2 2 2 2 2 2 2 2
left_child=2 4 6 7 9 14 19 18 11 21 24 16 -7 -8 -4 28 -5 -13 -3 -1 -12 -2 -11 -18 -6 -15 -14 -16 -9 -10
right_child=1 3 5 8 10 12 13 15 29 22 20 17 26 25 27 -17 23 -19 -20 -21 -22 -23 -24 -25 -26 -27 -28 -29 -30 -31
leaf_value=-0.32856805815889673 0.86130028658155711 3.5733253988956735 0.058854217048230642 15.201104618952826 1.8365939680788235 0.39572382098467335 -0.18933538526481575 4.8236151675410817 10.996726226806642 1.2870657339927583 2.584574307433539 18.798587389813356 0.56025271606076699 -0.1015241187328737 0.17348818839218338 6.2807934456643189 7.794868175188701 14.793033373797384 4.2278044318957608 -0.27547227504146404 3.069273440452414 1.060450754314568 1.5454473598833127 11.433977321868248 2.1596058522182413 -0.032072046803205356 0.6837276511031114 0.26383736946200381 5.4859125160480859 8.467123905671226
leaf_weight=1049379 64262 6710 215145 52 18607 170872 485646 2163 74 35692 15170 151 75546 280172 161950 2027 192 216 4885 631277 6835 48030 24970 94 13892 205627 73681 105645 2142 1411
leaf_count=1049379 64262 6710 215145 52 18607 170872 485646 2163 74 35692 15170 151 75546 280172 161950 2027 192 216 4885 631277 6835 48030 24970 94 13892 205627 73681 105645 2142 1411
internal_value=3.91261e-05 1.68383 -0.120618 5.05552 1.38562 0.285178 -0.24346 4.43718 10.1172 1.10324 2.28169 13.3273 0.500847 -0.130722 0.142171 5.51413 9.94635 16.4411 3.84906 -0.308625 2.73513 0.946482 1.39342 8.99094 1.97467 -0.0721267 0.621219 0.209158 5.15315 8.59318
internal_weight=3.70252e+06 247575 3.45494e+06 20117 227458 802839 2.6521e+06 17927 2190 172954 54504 705 320099 971445 482740 6332 338 367 11595 1.68066e+06 22005 112292 60662 286 32499 485799 149227 267595 4305 1485
internal_count=3702515 247575 3454940 20117 227458 802839 2652101 17927 2190 172954 54504 705 320099 971445 482740 6332 338 367 11595 1680656 22005 112292 60662 286 32499 485799 149227 267595 4305 1485
is_linear=0
shrinkage=0.1


Tree=6
num_leaves=31
num_cat=0
split_feature=5 5 5 5 5 5 5 11 5 5 5 24 5 5 5 5 5 13 5 5 5 5 28 5 23 9 1 12 5 5
split_gain=6.09659e+07 1.92147e+07 1.52033e+07 5.1e+06 4.12391e+06 2.25382e+06 1.7457e+06 1.236e+06 919718 605514 498521 297608 293261 230207 215748 193820 141944 123534 98082.8 90874.8 81093.5 72050 71204.7 57054.4 51651.8 63387.1 49801.9 46238.6 45695.2 39036.3
threshold=19.650000000000002 60.800000000000004 6.8500000000000005 129.15000000000001 35.750000000000007 2.5500000000000003 12.550000000000002 0.71466676797886841 83.550000000000011 26.850000000000005 46.750000000000007 7.6500000000000012 1.1500000000000001 4.9500000000000011 9.4500000000000011 15.450000000000001 102.70000000000002 18.500000000000004 71.350000000000009 23.150000000000002 30.850000000000005 53.95000000000001 3.2600159261750652 40.050000000000004 25.730952380952385 0.68301270189221941 24.050000000000004 0.31717953954346351 3.6500000000000008 17.750000000000004
decision_type=2 2 2 2 2 2 2 2 2 2 2 2 2 2 2 2 2 2 2 2 2 2 2 2 2 2 2 2 2 2
left_child=2 4 5 8 9 12 14 24 18 19 23 -9 -1 28 -4 -8 -10 22 -3 -2 -11 -12 -13 -6 25 -5 -27 -26 -7 -17
right_child=1 3 6 7 10 13 15 11 16 20 21 17 -14 -15 -16 29 -18 -19 -20 -21 -22 -23 -24 -25 27 26 -28 -29 -30 -31
leaf_value=-0.28591456689453809 0.83510637717610892 3.2159927878116892 0.13709233162744736 7.082914623387186 1.7132612112758245 -0.12901374291127823 0.44917448648290925 16.930842381307524 4.637833600548225 1.2269141719241488 2.3613499587536482 13.507968060302737 -0.19888506923248303 0.011635435840040127 0.27745141463625217 0.5810065677211651 5.6527138804589576 8.6129421272663151 3.8050240266579323 1.0289094668987471 1.476858683618373 2.7623461409529022 10.304009517033895 1.9955912803669458 7.4791257633185539 7.2916412353515625 10.811483617262407 9.7769990324974074 -0.069947152016138395 0.69993080476619962
leaf_weight=1472303 60345 6710 241972 1084 15043 289126 128110 146 4305 32039 13009 250 525343 267183 200055 70274 2027 99 4885 40388 21822 6835 96 13655 161 74 88 192 239442 45454
leaf_count=1472303 60345 6710 241972 1084 15043 289126 128110 146 4305 32039 13009 250 525343 267183 200055 70274 2027 99 4885 40388 21822 6835 96 13655 161 74 88 192 239442 45454
internal_value=3.52162e-05 1.60195 -0.102755 4.54997 1.31 -0.206335 0.31911 9.10546 3.99346 1.05753 2.11408 13.0131 -0.263027 -0.0640159 0.200617 0.533912 4.96272 11.7278 3.46415 0.91281 1.32818 2.49947 12.619 1.8476 7.66116 7.35864 9.20365 8.72896 -0.102256 0.627716
internal_weight=3.70252e+06 223253 3.47926e+06 20117 203136 2.7934e+06 685865 2190 17927 154594 48542 591 1.99765e+06 795751 442027 243838 6332 445 11595 100733 53861 19844 346 28698 1599 1246 162 353 528568 115728
internal_count=3702515 223253 3479262 20117 203136 2793397 685865 2190 17927 154594 48542 591 1997646 795751 442027 243838 6332 445 11595 100733 53861 19844 346 28698 1599 1246 162 353 528568 115728
is_linear=0
shrinkage=0.1


Tree=7
num_leaves=31
num_cat=0
split_feature=5 5 5 5 5 5 5 10 5 5 5 24 5 1 5 5 5 5 28 5 5 5 5 1 28 12 1 1 5 5
split_gain=4.94014e+07 1.52718e+07 1.27363e+07 3.80724e+06 3.55781e+06 1.87807e+06 1.48612e+06 698511 608006 475452 463702 372867 282705 228374 211728 166795 139255 113415 106879 75733.5 71316 62601.2 56785.4 53055.7 45014.7 46194.9 63450.8 57639.5 42779.9 39250.3
threshold=20.150000000000002 64.750000000000014 6.9500000000000011 129.15000000000001 36.350000000000001 2.7500000000000004 13.050000000000002 0.25000000000000017 92.500000000000014 27.450000000000003 48.650000000000013 9.1500000000000004 1.2500000000000002 25.350000000000005 10.250000000000002 5.1500000000000012 17.150000000000002 75.850000000000009 3.2600159261750652 23.950000000000003 41.95000000000001 31.150000000000002 53.95000000000001 24.850000000000005 2.1916379270371573 0.98043284291745803 28.450000000000003 22.250000000000004 0.15000000000000005 102.70000000000002
decision_type=2 2 2 2 2 2 2 2 2 2 2 2 2 2 2 2 2 2 2 2 2 2 2 2 2 2 2 2 2 2
left_child=2 4 5 8 9 12 14 11 17 19 20 23 28 -13 -4 -7 -8 -3 -15 -2 -6 -11 -12 -5 -9 26 -26 -27 -1 -10
right_child=1 3 6 7 10 15 16 24 29 21 22 13 -14 18 -16 -17 -18 -19 -20 -21 -22 -23 -24 -25 25 27 -28 -29 -30 -31
leaf_value=-0.27032996449466618 0.77927348137515784 3.0877997104083104 0.14011138583433277 13.151281629289901 1.5929745458375586 -0.082084064565841663 0.45210301675705911 6.1075904986825407 4.4735376381183984 1.1292817088336693 2.1817593148232164 6.1698312588227111 -0.17210755562208099 12.34786537447124 0.2813718179679297 0.018440606953949359 0.62070336359539136 3.7292949866689202 8.8464839959294537 0.96137919795424043 1.9000475775476369 1.3546626338876262 2.5372191088342428 16.506944274902345 8.4761737715444792 9.447245025634766 6.5112521648406982 5.796999246697677 -0.23621236662178113 5.087442462998303
leaf_weight=889604 60583 6520 288124 119 17402 499626 157048 434 2142 28457 8698 156 542368 193 167958 246490 71197 4774 159 36654 13377 21738 9299 78 459 51 256 285 626239 2027
leaf_count=889604 60583 6520 288124 119 17402 499626 157048 434 2142 28457 8698 156 542368 193 167958 246490 71197 4774 159 36654 13377 21738 9299 78 459 51 256 285 626239 2027
internal_value=3.16916e-05 1.47534 -0.0904078 4.29261 1.22187 -0.184794 0.296382 8.19491 3.73994 0.976944 1.9622 10.7869 -0.234066 9.35477 0.192132 -0.0488743 0.504695 3.35896 10.7663 0.847919 1.72643 1.22689 2.36542 14.4799 6.96437 7.31817 7.77265 6.35105 -0.256235 4.77202
internal_weight=3.70252e+06 213861 3.48865e+06 17653 196208 2.80433e+06 684327 2190 15463 147432 48776 705 2.05821e+06 508 456082 746116 228245 11294 352 97237 30779 50195 17997 197 1485 1051 715 336 1.51584e+06 4169
internal_count=3702515 213861 3488654 17653 196208 2804327 684327 2190 15463 147432 48776 705 2058211 508 456082 746116 228245 11294 352 97237 30779 50195 17997 197 1485 1051 715 336 1515843 4169
is_linear=0
shrinkage=0.1


Tree=8
num_leaves=31
num_cat=0
split_feature=5 5 5 5 5 5 5 12 5 17 5 5 5 5 5 5 17 5 28 5 5 5 5 28 1 5 27 1 17 17
split_gain=4.00395e+07 1.19892e+07 1.08339e+07 3.08386e+06 2.66348e+06 1.60172e+06 1.26868e+06 565794 492485 416030 360128 335405 245278 169000 140466 131653 97608 91865.9 82617.7 59979.7 55318.8 47776.8 40143 37305.4 36184 33460.6 33315.9 36185.6 56152.9 37953.4
threshold=20.850000000000005 64.750000000000014 7.1500000000000012 129.15000000000001 37.050000000000004 2.8500000000000001 13.250000000000002 0.23448270380211197 92.500000000000014 3.7000000000000015 28.150000000000002 47.850000000000001 1.3500000000000003 10.450000000000001 5.2500000000000009 17.350000000000005 3.1000000000000001 75.850000000000009 2.9831502867222164 53.95000000000001 24.250000000000004 31.950000000000003 0.25000000000000006 2.1222436103259104 25.050000000000004 41.95000000000001 8.03571428571429 25.350000000000005 4.9000000000000012 2.7500000000000004
decision_type=2 2 2 2 2 2 2 2 2 2 2 2 2 2 2 2 2 2 2 2 2 2 2 2 2 2 2 2 2 2
left_child=2 4 5 8 10 12 13 9 17 16 20 25 22 -4 -7 -8 -5 -3 -11 -13 -2 -12 -1 -9 -18 -6 -25 29 -29 -28
right_child=1 3 6 7 11 14 15 23 -10 18 21 19 -14 -15 -16 -17 24 -19 -20 -21 -22 -23 -24 26 -26 -27 27 28 -30 -31
leaf_value=-0.24186175892506634 0.72729978477090163 2.7790197501738381 0.13555851758959789 5.4161214418937824 1.4538576682538615 -0.069503043141068699 0.4161679964126071 5.3392918259350228 4.2948207208309048 14.881323661804201 1.0506523490800617 1.9381246883125109 -0.15042589248090618 0.26344394373476754 0.022610077455741725 0.57503806312440187 11.028495319073016 3.356365444653195 11.247335214648098 2.2834972568860246 0.88512656520078448 1.2554199677789046 -0.2086724249060532 8.0526934512825914 7.8820277578462425 1.6838005215063512 8.7348861694335938 7.8305413233267291 5.8568688986564448 5.3897104989691513
leaf_weight=980037 50788 6520 283471 163 14676 491674 151280 335 4169 80 26412 10949 523670 162612 249587 79611 52 4774 287 9299 39465 20040 580165 129 123 11126 37 296 281 407
leaf_count=980037 50788 6520 283471 163 14676 491674 151280 335 4169 80 26412 10949 523670 162612 249587 79611 52 4774 287 9299 39465 20040 580165 129 123 11126 37 296 281 407
internal_value=2.85222e-05 1.37471 -0.0786377 3.86335 1.13433 -0.164736 0.280666 7.37542 3.36594 9.70821 0.912754 1.79209 -0.209644 0.182177 -0.038488 0.470946 7.17692 3.02307 12.0395 2.09674 0.796313 1.13899 -0.22952 6.26794 8.81698 1.55301 6.53845 6.34713 6.86936 5.66848
internal_weight=3.70252e+06 200408 3.50211e+06 17653 182755 2.82513e+06 676974 2190 15463 705 136705 46050 2.08387e+06 446083 741261 230891 338 11294 367 20248 90253 46452 1.5602e+06 1485 175 25802 1150 1021 577 444
internal_count=3702515 200408 3502107 17653 182755 2825133 676974 2190 15463 705 136705 46050 2083872 446083 741261 230891 338 11294 367 20248 90253 46452 1560202 1485 175 25802 1150 1021 577 444
is_linear=0
shrinkage=0.1


Tree=9
num_leaves=31
num_cat=0
split_feature=5 5 5 5 5 5 5 11 5 5 5 5 17 5 5 5 5 2 5 26 5 5 25 5 5 12 16 25 8 16
split_gain=3.24588e+07 1.08485e+07 7.32712e+06 2.88445e+06 2.28833e+06 1.0757e+06 825210 667047 602446 308594 304314 192730 170500 126043 108313 81963.2 81169.6 67093.3 59948.6 45468.8 40337.4 39955.9 37865.8 37735.1 35022.5 26143.5 38113 34019.9 28871.6 25330.9
threshold=18.350000000000005 57.95000000000001 5.6500000000000012 129.15000000000001 33.150000000000013 11.750000000000002 1.7500000000000002 0.71466676797886841 83.550000000000011 44.050000000000004 24.650000000000002 8.4500000000000011 3.7000000000000015 3.2500000000000004 14.750000000000002 68.750000000000014 102.70000000000002 24.750000000000004 0.45000000000000007 11.13333333333334 29.250000000000004 50.850000000000001 6.6500000000000012 21.450000000000003 39.150000000000013 0.98043284291745803 5.2999999999999998 7.3500000000000005 1.0000000180025095e-35 1.7000000000000013
decision_type=2 2 2 2 2 2 2 2 2 2 2 2 2 2 2 2 2 2 2 2 2 2 2 2 2 2 2 2 2 2
left_child=2 4 6 8 10 11 18 22 15 24 23 -4 19 -8 -7 -3 -10 -14 -1 -9 -12 -11 -5 -2 -6 26 28 -27 -24 -18
right_child=1 3 5 7 9 14 13 12 16 21 20 -13 17 -15 -16 -17 29 -19 -20 -21 -22 -23 25 -25 -26 27 -28 -29 -30 -31
leaf_value=-0.21546513897556624 0.55503417582981751 2.2135536584981641 0.052713256063994074 4.3007281749706552 1.1841497563021004 0.29446235489152789 -0.12040878516218156 9.9256457402155949 3.3817596013759208 1.6220604801717593 0.82209281771731502 0.17188291835961486 12.452667175697176 -0.046286576553948987 0.42512581539147254 2.6977262801447974 4.7123396761962466 9.7050436655680343 -0.17633860405977647 6.5511046853176387 0.98769158832262927 1.8967060441267163 6.0868925045698123 0.67482174774738091 1.3976528398025481 7.6426665819608246 5.1642975277370882 4.9504366981538013 7.6065647228904396 3.9272974489151693
leaf_weight=1117230 62476 7105 314967 203 23459 145980 471565 52 4305 13255 42600 238457 151 446762 112204 6884 573 216 602920 172 22467 8823 390 45414 11425 52 288 482 184 1454
leaf_count=1117230 62476 7105 314967 203 23459 145980 471565 52 4305 13255 42600 238457 151 446762 112204 6884 573 216 602920 172 22467 8823 390 45414 11425 52 288 482 184 1454
internal_value=2.56701e-05 1.09464 -0.0800635 3.18974 0.889515 0.182694 -0.160889 6.63788 2.81814 1.43924 0.708467 0.104061 9.50857 -0.0843487 0.351247 2.45182 3.62744 10.8355 -0.201751 7.33448 0.879272 1.73182 5.57685 0.605456 1.25408 5.76242 6.10303 5.2126 6.57403 4.14922
internal_weight=3.70252e+06 252430 3.45008e+06 22511 229919 811608 2.63848e+06 2190 20321 56962 172957 553424 591 918327 258184 13989 6332 367 1.72015e+06 224 65067 22078 1599 107890 34884 1396 862 534 574 2027
internal_count=3702515 252430 3450085 22511 229919 811608 2638477 2190 20321 56962 172957 553424 591 918327 258184 13989 6332 367 1720150 224 65067 22078 1599 107890 34884 1396 862 534 574 2027
is_linear=0
shrinkage=0.1


Tree=10
num_leaves=31
num_cat=0
split_feature=18 18 4 18 18 12 1 1 18 18 17 1 26 18 1 11 24 21 1 21 2 18 21 1 11 24 21 18 18 1
split_gain=2.05475e+07 8.97142e+06 4.40583e+06 2.04988e+06 1.70883e+06 970092 576534 533343 524196 504327 372407 309310 260847 224381 208289 169873 160102 142915 133997 133615 126949 125999 110132 100257 91233.2 82305.6 77701.8 76482.4 74985 74313.2
threshold=1.0020000000000002 3.2188235294117651 58.000000000000007 1.9020000000000004 4.4703529411764711 -0.69014782361074123 28.950000000000003 28.950000000000003 0.17559523809523814 0.6020000000000002 3.7000000000000015 29.150000000000002 9.8000000000000238 1.3780193236714979 31.150000000000002 0.91927745688801432 13.750000000000002 16.050000000000004 26.350000000000005 33.550000000000004 22.950000000000003 2.6031250000000008 12.550000000000002 25.750000000000004 0.74409704927257569 12.550000000000002 6.7500000000000009 0.30208333333333343 2.4470769230769238 25.850000000000005
decision_type=2 2 2 2 2 2 2 2 2 2 2 2 2 2 2 2 2 2 2 2 2 2 2 2 2 2 2 2 2 2
left_child=2 3 8 6 15 10 13 12 -1 26 25 22 24 20 18 23 -15 -8 -7 -9 -2 -14 -11 -3 28 -6 -4 -10 -5 -12
right_child=1 4 9 7 5 14 17 19 27 11 29 -13 21 16 -16 -17 -18 -19 -20 -21 -22 -23 -24 -25 -26 -27 -28 -29 -30 -31
leaf_value=-0.1846942989039905 0.36982468766019072 2.6729845464499289 0.0012369321217614796 0.98350147434804303 7.807068367724149 4.3337112142910383 0.2311456598900665 0.66050512710518028 -0.10885447908405405 0.20281152211308928 11.198655350567543 0.077582709995428031 1.3822019115113255 0.61317069885110942 1.2160361077751913 1.2100948499291273 0.94881843226297569 0.50909988133231632 3.3333037537961108 1.2636485019831252 0.59039291396688764 1.9359671855163716 0.33093175884653525 2.0294572232492238 0.66662190219373196 4.6833596079459205 0.087789944077354021 -0.047812675162931563 1.4365612638061067 8.3419553630608174
leaf_weight=1494055 48782 3536 245670 10051 106 2157 91650 27847 673377 169481 146 155180 16279 42402 355 1901 21375 23176 3530 4231 56106 5496 111059 7677 5240 413 179509 295265 5739 242
leaf_count=1494055 48782 3536 245670 10051 106 2157 91650 27847 673377 169481 146 155180 16279 42402 355 1901 21375 23176 3530 4231 56106 5496 111059 7677 5240 413 179509 295265 5739 242
internal_value=2.52307e-05 0.698205 -0.0794721 0.583002 2.75601 4.02383 0.460083 1.04835 -0.147546 0.115261 7.07336 0.190868 1.27937 0.577749 3.56605 2.0842 0.725664 0.287247 3.71274 0.740058 0.48781 1.52197 0.253531 2.23239 1.02818 5.32134 0.0377793 -0.0902475 1.14817 9.4169
internal_weight=3.70203e+06 378437 3.3236e+06 358374 20063 6949 283491 74883 2.4627e+06 860899 907 435720 42805 168665 6042 13114 63777 114826 5687 32078 104888 21775 280540 11213 21030 519 425179 968642 15790 388
internal_count=3702033 378437 3323596 358374 20063 6949 283491 74883 2462697 860899 907 435720 42805 168665 6042 13114 63777 114826 5687 32078 104888 21775 280540 11213 21030 519 425179 968642 15790 388
is_linear=0
shrinkage=0.1


Tree=11
num_leaves=31
num_cat=0
split_feature=18 18 18 18 18 12 16 16 18 18 16 8 16 16 18 1 18 18 16 11 24 18 16 18 18 1 1 18 13 16
split_gain=1.6645e+07 7.02716e+06 3.9427e+06 1.51261e+06 1.38416e+06 785775 756841 739401 473362 445425 353398 312741 200933 198522 174926 168714 133959 120339 108542 108395 102240 98769 71205 67438.1 67109.5 66664.9 62967.3 59998.5 55877.9 52702.8
threshold=1.0604347826086957 3.2188235294117651 0.40200000000000008 1.9433035714285716 4.4703529411764711 -0.69014782361074123 4.8000000000000034 4.6499999999999995 0.70200000000000018 0.20208333333333336 4.6499999999999995 1.0000000180025095e-35 4.7500000000000009 6.5500000000000016 1.4510000000000003 31.150000000000002 1.5292892156862747 2.4470769230769238 3.1500000000000008 -0.86958133671945925 7.6500000000000012 2.3186147186147195 3.649999999999999 0.50200000000000011 0.10384615384615385 22.250000000000004 31.050000000000004 0.88047619047619063 18.500000000000004 5.1499999999999995
decision_type=2 2 2 2 2 2 2 2 2 2 2 2 2 2 2 2 2 2 2 2 2 2 2 2 2 2 2 2 2 2
left_child=2 3 9 7 13 11 21 14 12 24 27 -6 23 -3 -2 18 -9 -8 19 -7 -13 -5 -16 -4 -1 -21 -19 -10 -22 -11
right_child=1 4 8 6 5 15 17 16 10 29 -12 20 -14 -15 22 -17 -18 26 -20 25 28 -23 -24 -25 -26 -27 -28 -29 -30 -31
leaf_value=-0.17580119043067366 0.57058213525995749 2.1192891820302173 0.054620122474500293 1.2201953582580123 3.8631472546121355 5.8611868155430038 0.59701397149611146 0.24605476672531573 0.27012854163060568 -0.048896881292896585 0.11118557911575232 10.067883711594803 -0.0089204456080044566 1.2541111632305508 0.99370274952885806 1.0944324737871198 0.44357154863334136 1.0335527258544859 3.0061866132464949 4.7656884520526095 7.5681776537214009 1.6261821181198091 0.67143012760066678 0.15161580092306767 -0.13417458540001551 3.3261570926515578 0.56752669803181011 0.39817520358402553 4.7986657163371218 -0.10161773330321196
leaf_weight=1091813 64196 9423 119711 12171 322 251 27984 109951 97565 472404 174949 143 249392 3691 17485 355 49930 13477 3579 414 350 11804 11278 178656 600203 1443 3694 58556 92 316751
leaf_count=1091813 64196 9423 119711 12171 322 251 27984 109951 97565 472404 174949 143 249392 3691 17485 355 49930 13477 3579 414 350 11804 11278 178656 600203 1443 3694 58556 92 316751
internal_value=2.27077e-05 0.664618 -0.0676301 0.55147 2.48041 3.62145 0.965991 0.438134 0.114383 -0.132099 0.208785 6.36602 0.0573263 1.87578 0.662404 3.20944 0.307738 0.724891 3.34147 3.91072 7.74367 1.42008 0.867339 0.112699 -0.161035 3.64709 0.933296 0.318155 6.99172 -0.070058
internal_weight=3.70203e+06 342033 3.36e+06 321970 20063 6949 69130 252840 878829 2.48117e+06 331070 907 547759 13114 92959 6042 159881 45155 5687 2108 585 23975 28763 298367 1.69202e+06 1857 17171 156121 442 789155
internal_count=3702033 342033 3360000 321970 20063 6949 69130 252840 878829 2481171 331070 907 547759 13114 92959 6042 159881 45155 5687 2108 585 23975 28763 298367 1692016 1857 17171 156121 442 789155
is_linear=0
shrinkage=0.1


Tree=12
num_leaves=31
num_cat=0
split_feature=5 5 5 5 5 5 5 5 10 5 17 5 5 5 5 5 5 17 28 5 28 5 5 5 16 17 3 2 21 12
split_gain=1.85195e+07 5.75439e+06 4.27808e+06 1.50542e+06 1.32193e+06 687202 434219 272903 217553 188515 177982 165106 106181 59347 58976.5 58777.2 50206.4 44378.9 42417.5 27219.5 25151.8 24526.8 20539.6 20516.4 20153.2 52091.6 35615.6 22108.9 19523 19025.5
threshold=19.150000000000002 60.800000000000004 7.2500000000000009 129.15000000000001 33.750000000000007 2.9500000000000006 12.450000000000001 92.500000000000014 0.25000000000000017 45.45000000000001 3.7000000000000015 25.850000000000005 1.3500000000000003 15.250000000000002 75.850000000000009 4.7500000000000009 9.9500000000000011 3.1000000000000001 2.9831502867222164 50.850000000000001 2.1222436103259104 22.650000000000002 40.050000000000004 29.250000000000004 2.7000000000000015 4.9000000000000012 24.950000000000003 20.350000000000005 42.45000000000001 0.26780438508363441
decision_type=2 2 2 2 2 2 2 2 2 2 2 2 2 2 2 2 2 2 2 2 2 2 2 2 2 2 2 2 2 2
left_child=2 4 5 7 11 12 16 14 10 22 17 21 -1 -8 -3 -7 -4 -5 -12 -11 -10 -2 -6 -13 26 -26 27 -22 -28 -27
right_child=1 3 6 8 9 15 13 -9 20 19 18 23 -14 -15 -16 -17 -18 -19 -20 -21 24 -23 -24 -25 25 29 28 -29 -30 -31
leaf_value=-0.15255476737923265 0.44544529634929875 1.8085119423356 0.083226852530864301 3.5035430428289605 0.9230702510615848 -0.053127396748854749 0.23686783779604262 2.8797477818306323 3.5199864634345559 1.2376571538301677 10.009121958414715 0.64240757588416808 -0.10155969894187532 0.33666695837167798 2.240961362561777 0.0039710013096957439 0.15622356424249639 5.8302718305039685 7.3792738166835665 1.4600131993856016 3.6572593688964847 0.5478221807292154 1.0865343891709125 0.76423795951426032 6.085880372826189 4.9740142567952477 2.9293720433409787 5.8910558568106763 4.2740026473999029 3.2846893437703453
leaf_weight=1560516 64011 8999 233913 155 23162 383940 127250 4206 340 10762 78 30756 553004 112059 4855 339884 157775 174 287 11271 64 36886 11505 25106 229 120 213 144 219 150
leaf_count=1560516 64011 8999 233913 155 23162 383940 127250 4206 340 10762 78 30756 553004 112059 4855 339884 157775 174 287 11271 64 36886 11505 25106 229 120 213 144 219 150
internal_value=2.04358e-05 0.861676 -0.0580367 2.47345 0.708902 -0.110411 0.177472 2.17425 4.96018 1.12268 6.42086 0.559236 -0.139212 0.2836 1.96006 -0.0263159 0.112631 4.73409 7.94127 1.3514 4.27477 0.482872 0.977319 0.697162 4.50008 4.97646 4.12866 5.20373 3.61103 4.0355
internal_weight=3.70203e+06 233692 3.46834e+06 20233 213459 2.83734e+06 630997 18060 2173 56700 694 156759 2.11352e+06 239309 13854 723824 391688 329 365 22033 1479 100897 34667 55862 1139 499 640 208 432 270
internal_count=3702033 233692 3468341 20233 213459 2837344 630997 18060 2173 56700 694 156759 2113520 239309 13854 723824 391688 329 365 22033 1479 100897 34667 55862 1139 499 640 208 432 270
is_linear=0
shrinkage=0.1


Tree=13
num_leaves=31
num_cat=0
split_feature=5 5 5 5 5 5 5 5 11 5 5 17 5 5 5 5 5 5 28 26 25 5 12 25 28 11 5 5 11 24
split_gain=1.50159e+07 4.83867e+06 3.24792e+06 1.29979e+06 1.06054e+06 430838 403848 263156 261877 145461 134898 74187.3 63838.6 59917.3 47375.2 46075.8 37544.1 36736.1 34358.2 27637.3 26733.3 22819.6 19218.1 20732.8 20039.6 27961.3 18778.7 17274.2 17039 15503.4
threshold=18.350000000000005 57.95000000000001 6.3500000000000005 129.15000000000001 32.550000000000004 2.2500000000000004 11.850000000000003 83.550000000000011 0.71466676797886841 44.050000000000004 24.250000000000004 3.7000000000000015 8.8500000000000032 4.0500000000000007 14.15 0.95000000000000007 102.70000000000002 68.750000000000014 2.9831502867222164 11.13333333333334 6.6500000000000012 27.650000000000002 0.98043284291745803 7.3500000000000005 2.7568353261935923 0.6254047815183511 50.850000000000001 38.250000000000007 -0.96683886033945943 8.6500000000000004
decision_type=2 2 2 2 2 2 2 2 2 2 2 2 2 2 2 2 2 2 2 2 2 2 2 2 2 2 2 2 2 2
left_child=2 4 5 7 10 15 12 17 20 27 -2 19 -4 -7 -8 -1 -9 -3 -13 -10 -5 -12 24 -24 25 29 -11 -6 -18 -22
right_child=1 3 6 8 9 13 14 16 11 26 21 18 -14 -15 -16 -17 28 -19 -20 -21 22 -23 23 -25 -26 -27 -28 -29 -30 -31
leaf_value=-0.13998277004500306 0.40820416240161306 1.4895501877885717 0.046410474744750296 2.7525534413895518 0.79659627171219016 -0.067642702232058968 0.18990617084977532 2.2560987787748181 6.8119028487295488 1.0993711746470669 0.53396496622346445 9.0082102359869545 0.12096002926598481 -0.013552545903384464 0.27686988373503196 -0.1049184729883173 2.0275194010340183 1.813032329202833 6.6413465652731665 4.1909291341633148 2.8515766874536292 0.65017475074055842 5.3866825067079986 3.2849660762612753 4.9570347407947892 6.1036796569824219 1.2875208307561152 0.93665611237031909 2.8854053815561875 4.0504774194293551
leaf_weight=1384134 102782 7111 257279 212 22815 474172 116010 4393 53 13262 35029 78 207515 360486 136176 513883 266 6934 287 167 154 32645 52 482 275 53 8841 14341 1786 360
leaf_count=1384134 102782 7111 257279 212 22815 474172 116010 4393 53 13262 35029 78 207515 360486 136176 513883 266 6934 287 167 154 32645 52 482 275 53 8841 14341 1786 360
internal_value=1.83921e-05 0.74461 -0.0544562 2.13864 0.607078 -0.104158 0.134977 1.89202 4.46416 0.971494 0.480389 6.27286 0.0796944 -0.0442813 0.236865 -0.130489 2.42105 1.64925 7.14714 4.82235 3.79786 0.590023 3.95891 3.48963 4.25653 3.91677 1.17463 0.850655 2.7742 3.69127
internal_weight=3.70203e+06 252378 3.44966e+06 22663 229715 2.73268e+06 716980 20490 2173 59259 170456 585 464794 834658 252186 1.89802e+06 6445 14045 365 220 1588 67674 1376 534 842 567 22103 37156 2052 514
internal_count=3702033 252378 3449655 22663 229715 2732675 716980 20490 2173 59259 170456 585 464794 834658 252186 1898017 6445 14045 365 220 1588 67674 1376 534 842 567 22103 37156 2052 514
is_linear=0
shrinkage=0.1


Tree=14
num_leaves=31
num_cat=0
split_feature=5 5 5 5 5 5 5 11 5 5 5 5 24 5 5 5 13 5 25 5 5 5 5 6 18 28 6 21 6 27
split_gain=1.21749e+07 3.54773e+06 3.14226e+06 911835 807645 464753 357909 212121 149093 122937 93793.3 70518 57592.4 49845 42264.9 38302.1 35815.8 24490 21654 17453.5 16804.1 16564.5 15992.3 15670.1 18701.3 15358.8 14564 36521.4 20006.8 16234.3
threshold=20.650000000000002 64.750000000000014 7.3500000000000005 129.15000000000001 37.050000000000004 2.9500000000000006 13.350000000000003 0.71466676797886841 92.500000000000014 27.650000000000002 49.750000000000007 1.4500000000000002 7.6500000000000012 10.550000000000002 5.3500000000000005 16.150000000000002 18.500000000000004 75.850000000000009 6.6500000000000012 43.050000000000004 31.150000000000002 0.15000000000000005 23.350000000000005 22.500000000000004 4.4703529411764711 3.2600159261750652 21.500000000000004 13.15 16.500000000000004 25.692857142857147
decision_type=2 2 2 2 2 2 2 2 2 2 2 2 2 2 2 2 2 2 2 2 2 2 2 2 2 2 2 2 2 2
left_child=2 4 5 8 9 11 13 18 17 22 19 21 -9 -4 -7 -8 25 -3 -5 -6 -11 -1 -2 -10 -25 -14 27 28 -20 -28
right_child=1 3 6 7 10 14 15 12 23 20 -12 -13 16 -15 -16 -17 -18 -19 26 -21 -22 -23 -24 24 -26 -27 29 -29 -30 -31
leaf_value=-0.13226313348528626 0.38911089918763309 1.5191852349746144 0.07479554792412367 2.477298049207004 0.81619436225409658 -0.03805003626169326 0.21605320633614619 7.3899799053485582 2.1745826183119981 0.57144849315690405 1.1856359592822048 -0.080444391648840874 5.9528979976186642 0.14526693680732219 0.012324851417078729 0.29921356497109908 3.3254428324492085 1.815128909443974 5.6376052856445318 0.96843141836137281 0.6866500069321444 -0.11181837334346301 0.47358029249579831 2.2955293285474534 2.9523145551097638 4.4728817851273055 3.2339490624100948 4.7759988644026299 2.6808532654927042 5.4019126892089844
leaf_weight=890849 44081 6594 267158 212 17035 479645 110179 143 2414 26325 15485 508829 253 160766 255152 111366 92 4855 26 13498 24396 713842 45599 1057 735 97 852 271 191 36
leaf_count=890849 44081 6594 267158 212 17035 479645 110179 143 2414 26325 15485 508829 253 160766 255152 111366 92 4855 26 13498 24396 713842 45599 1057 735 97 852 271 191 36
internal_value=1.65539e-05 0.750482 -0.0438055 2.09818 0.621597 -0.089065 0.154685 4.01774 1.83173 0.502433 0.985165 -0.112883 5.64557 0.101271 -0.0205578 0.257856 5.08121 1.64468 3.41807 0.883495 0.626859 -0.123168 0.43206 2.34089 2.56491 5.54272 3.56302 4.00188 3.03512 3.32184
internal_weight=3.70203e+06 204247 3.49779e+06 17828 186419 2.84832e+06 649469 2173 15655 140401 46018 2.11352e+06 585 427924 734797 221545 442 11449 1588 30533 50721 1.60469e+06 89680 4206 1792 350 1376 488 217 888
internal_count=3702033 204247 3497786 17828 186419 2848317 649469 2173 15655 140401 46018 2113520 585 427924 734797 221545 442 11449 1588 30533 50721 1604691 89680 4206 1792 350 1376 488 217 888
is_linear=0
shrinkage=0.1


Tree=15
num_leaves=31
num_cat=0
split_feature=5 5 5 5 5 5 5 5 5 28 17 5 5 5 1 5 5 26 6 5 28 13 25 28 9 28 21 5 26 5
split_gain=9.86765e+06 3.24917e+06 2.05029e+06 883449 668177 275273 253104 196920 111889 88091.3 104011 69176.3 42509.1 39733.5 37094.6 31820 30927.9 30910.3 29124.7 25111.3 20394.5 17556.4 13807.7 13590.1 19489.2 18369.5 13283.8 13261 12725.2 12659.8
threshold=17.950000000000003 56.050000000000004 6.2500000000000009 129.15000000000001 30.350000000000005 2.1500000000000008 11.050000000000002 83.550000000000011 41.45000000000001 2.7568353261935923 3.7000000000000015 22.650000000000002 3.9500000000000006 13.65 25.850000000000005 71.350000000000009 7.9500000000000011 11.13333333333334 2.5000000000000004 102.70000000000002 3.3050518377464333 3.5000000000000004 7.2500000000000009 2.6912373372773803 0.68301270189221941 2.3655488712929413 50.45000000000001 48.650000000000013 11.333333333333355 34.45000000000001
decision_type=2 2 2 2 2 2 2 2 2 2 2 2 2 2 2 2 2 2 2 2 2 2 2 2 2 2 2 2 2 2
left_child=2 4 5 7 11 18 16 15 29 23 17 -2 -7 -8 -12 -3 -4 -11 -1 -9 -19 -16 -21 24 25 28 -22 -10 -5 -6
right_child=1 3 6 9 8 12 13 19 27 10 14 -13 -14 -15 21 -17 -18 20 -20 22 26 -23 -24 -25 -26 -27 -28 -29 -30 -31
leaf_value=-0.11622513637872822 0.31211360929620557 1.215487420668296 0.025685362474085878 2.5334071865923806 0.57952620067882055 -0.057259384041925154 0.13943720650961086 1.8262357087846643 0.8404053782378379 5.5336776733398443 6.6411657594654656 0.44080583196054601 -0.012272958116937148 0.21346866576655846 3.090083260006375 1.520798803284749 0.07984774047414217 2.2252895308829643 -0.090490057736403229 3.090446502171206 2.5749024240594163 5.0444022632339625 2.1690739667554677 2.1423665600058475 5.0157115936279304 3.6542735645645545 3.9999855877104262 0.98444728943609427 4.0381055589706181 0.68827767621908964
leaf_weight=1152119 93606 11227 186817 521 19566 488766 142153 4431 15246 56 146 75425 368345 147954 54 4905 241994 185 711224 178 95 309 1886 162 52 304 210 11005 63 23634
leaf_count=1152119 93606 11227 186817 521 19566 488766 142153 4431 15246 56 146 75425 368345 147954 54 4905 241994 185 711224 178 95 309 1886 162 52 304 210 11005 63 23634
internal_value=2.81623e-05 0.590085 -0.0451376 1.67984 0.476832 -0.0848281 0.105055 1.49551 0.737965 3.61356 4.2667 0.369539 -0.0379264 0.177193 5.29508 1.30832 0.0562512 3.30802 -0.106402 1.96043 3.05366 4.75368 2.24853 2.98828 3.13407 3.02388 3.55611 0.900791 2.69573 0.639022
internal_weight=3.70264e+06 263266 3.43937e+06 24784 238482 2.72045e+06 718918 22627 69451 2157 1055 169031 857111 290107 509 16132 428811 546 1.86334e+06 6495 490 363 2064 1102 940 888 305 26251 584 43200
internal_count=3702638 263266 3439372 24784 238482 2720454 718918 22627 69451 2157 1055 169031 857111 290107 509 16132 428811 546 1863343 6495 490 363 2064 1102 940 888 305 26251 584 43200
is_linear=0
shrinkage=0.1


Tree=16
num_leaves=31
num_cat=0
split_feature=5 5 5 5 5 5 5 11 5 5 5 5 5 16 21 5 5 5 25 5 13 11 5 28 5 6 21 6 27 8
split_gain=8.00024e+06 2.44861e+06 1.89457e+06 602939 590971 308097 191634 137519 99597.7 91705.2 74853.3 50299.5 33113 31474.4 27646.4 25900.7 18388.2 18207 16371.9 14836.7 13602.2 11719.2 11450.2 11039.3 10788.6 9686.14 22254.6 15837.6 12516.2 10814.8
threshold=19.450000000000003 64.750000000000014 7.3500000000000005 34.45000000000001 129.15000000000001 3.0500000000000003 13.350000000000003 0.71466676797886841 92.500000000000014 45.45000000000001 26.450000000000003 1.4500000000000002 10.350000000000003 2.4000000000000008 45.050000000000004 5.4500000000000011 52.45000000000001 15.750000000000002 6.6500000000000012 75.850000000000009 21.500000000000004 -0.96683886033945943 1.0000000180025095e-35 3.3050518377464333 22.250000000000004 21.500000000000004 13.15 16.500000000000004 24.050000000000004 1.0000000180025095e-35
decision_type=2 2 2 2 2 2 2 2 2 2 2 2 2 2 2 2 2 2 2 2 2 2 2 2 2 2 2 2 2 2
left_child=2 3 5 10 8 11 12 18 19 -5 24 22 -4 14 -9 -7 -11 -8 -6 -3 23 -10 -1 -16 -2 26 27 -20 -27 -28
right_child=1 4 6 9 7 15 17 13 21 16 -12 -13 -14 -15 20 -17 -18 -19 25 -21 -22 -23 -24 -25 -26 28 29 -29 -30 -31
leaf_value=-0.10844680070877076 0.29321518158634496 1.2345440872434956 0.058768739600380607 0.64735894574335673 1.96615717030007 -0.028657849029490173 0.16985421432823503 6.6913490295410156 1.4019561469834736 0.82454818220572867 0.47492778903130328 -0.064535647131526847 0.11522363675494554 2.5982167794670858 4.96953420342866 0.01177522357938292 0.99879246174020064 0.23032370875212999 4.7084175109863287 1.4648588756142802 2.4582852462242393 1.9548255321440999 -0.09154889438056818 3.6999969000103832 0.35855154146757617 2.6176028532274604 2.7333635344872107 2.1564829862439954 4.4503615550505806 4.2128241585296342
leaf_weight=797361 50334 6542 251622 32408 219 470620 97386 70 426 13285 50683 534814 176964 71 322 238831 11131 101887 28 4886 29 3834 806708 87 50759 836 65 185 39 206
leaf_count=797361 50334 6542 251622 32408 219 470620 97386 70 426 13285 50683 534814 176964 71 322 238831 11131 101887 28 4886 29 3834 806708 87 50759 836 65 185 39 206
internal_value=2.53459e-05 0.575951 -0.0374914 0.479772 1.70024 -0.0721523 0.11975 3.25221 1.48685 0.757625 0.375746 -0.0910938 0.0820791 4.57038 4.84601 -0.0150464 0.903984 0.200772 2.76854 1.33301 4.5511 1.89954 -0.0999486 4.69949 0.326021 2.89785 3.25681 2.49195 2.69929 3.85797
internal_weight=3.70264e+06 226445 3.47619e+06 208600 17845 2.84833e+06 627859 2157 15688 56824 151776 2.13888e+06 428586 579 508 709451 24416 199273 1578 11428 438 4260 1.60407e+06 409 101093 1359 484 213 875 271
internal_count=3702638 226445 3476193 208600 17845 2848334 627859 2157 15688 56824 151776 2138883 428586 579 508 709451 24416 199273 1578 11428 438 4260 1604069 409 101093 1359 484 213 875 271
is_linear=0
shrinkage=0.1


Tree=17
num_leaves=31
num_cat=0
split_feature=5 5 5 5 5 5 5 5 11 5 5 17 5 5 5 5 5 28 26 25 12 25 21 26 17 17 20 11 5 5
split_gain=6.485e+06 2.05097e+06 1.45104e+06 551790 431280 200527 177535 115710 111391 61506.9 54412 33289.1 28097.2 28076.9 25907.7 25695.8 23094.7 16814.5 13461.2 13261.3 10200.4 10996.8 11824.7 9777.09 11307.8 11659.1 9632.39 9492.54 9264.66 8893.56
threshold=18.750000000000004 57.95000000000001 6.5500000000000007 129.15000000000001 32.550000000000004 2.4500000000000006 11.950000000000001 92.500000000000014 0.71466676797886841 44.050000000000004 25.850000000000005 3.7000000000000015 71.350000000000009 8.9500000000000011 4.0500000000000007 0.95000000000000007 15.250000000000002 2.9831502867222164 11.13333333333334 6.6500000000000012 0.98043284291745803 7.3500000000000005 8.9500000000000011 6.533333333333335 4.9000000000000012 4.1000000000000005 24.750000000000004 -0.96683886033945943 22.250000000000004 102.70000000000002
decision_type=2 2 2 2 2 2 2 2 2 2 2 2 2 2 2 2 2 2 2 2 2 2 2 2 2 2 2 2 2 2
left_child=2 4 5 7 10 15 13 12 19 -6 28 18 -3 -4 -7 -1 -8 -13 -10 -5 23 -22 -23 -21 25 -25 -26 -9 -2 -29
right_child=1 3 6 8 9 14 16 27 11 -11 -12 17 -14 -15 -16 -17 -18 -19 -20 20 21 22 -24 24 26 -27 -28 29 -30 -31
leaf_value=-0.092190197048162725 0.25824761163670662 1.0078918020422492 0.031916662397230351 1.7695413798502047 0.55889130929825059 -0.042812929304271691 0.13496693687085862 1.2617605072791589 4.483356482642038 0.76975556597735617 0.40694646093695958 6.0732878896925193 1.2727250020644245 0.082222057817725194 -0.0066159919419298292 -0.067167694240900272 0.19615562909568257 4.3641308076705672 2.687639392294535 1.4592955122188647 3.5946836556707114 3.4659637451171879 1.9316732792144127 2.7694210145531635 4.0406357242215067 3.7333030290133218 2.164302021648751 1.6163670930591019 0.31775103101492252 1.9215840156996968
leaf_weight=1383298 66084 9127 239183 219 37149 405376 152537 426 56 22040 50919 72 7140 206940 386039 583507 103563 287 164 49 56 57 423 287 31 223 233 2038 43319 1796
leaf_count=1383298 66084 9127 239183 219 37149 405376 152537 426 56 22040 50919 72 7140 206940 386039 583507 103563 287 164 49 56 57 423 287 31 223 233 2038 43319 1796
internal_value=2.28119e-05 0.500268 -0.0349891 1.40551 0.406721 -0.0676627 0.0933477 1.24563 2.92699 0.63741 0.321553 4.11334 1.12413 0.0552515 -0.0251567 -0.0847666 0.159711 4.70691 3.14473 2.49169 2.60806 2.26858 2.11387 2.82916 2.91588 3.19088 2.38463 1.70958 0.281808 1.75934
internal_weight=3.70264e+06 242195 3.46044e+06 22684 219511 2.75822e+06 702223 20527 2157 59189 160322 579 16267 446123 791415 1.9668e+06 256100 359 220 1578 1359 536 480 823 774 510 264 4260 109403 3834
internal_count=3702638 242195 3460443 22684 219511 2758220 702223 20527 2157 59189 160322 579 16267 446123 791415 1966805 256100 359 220 1578 1359 536 480 823 774 510 264 4260 109403 3834
is_linear=0
shrinkage=0.1


Tree=18
num_leaves=31
num_cat=0
split_feature=5 5 5 5 5 5 5 5 11 5 5 5 5 24 5 5 1 5 25 4 1 21 27 25 26 11 19 28 1 28
split_gain=5.25751e+06 1.73622e+06 1.09346e+06 505880 306356 169728 133819 116943 90226.4 43675.9 35456.5 27485.6 25334.5 23452.5 21472.1 21454.2 18553.9 14810.5 10741.6 9111.18 8253.39 7706.52 7659.08 7806.9 9906.06 11804.5 14787.8 10687.1 7379.23 7331.62
threshold=17.950000000000003 52.45000000000001 5.5500000000000007 129.15000000000001 30.350000000000005 10.65 75.850000000000009 1.5500000000000003 0.71466676797886841 39.150000000000013 23.350000000000005 92.500000000000014 13.550000000000002 9.1500000000000004 3.7500000000000004 7.8500000000000005 25.350000000000005 64.750000000000014 6.6500000000000012 27.000000000000004 20.850000000000005 144.05000000000004 24.050000000000004 14.750000000000002 12.233333333333348 0.6254047815183511 23.050000000000004 1.9809776870881779 24.850000000000005 3.2600159261750652
decision_type=2 2 2 2 2 2 2 2 2 2 2 2 2 2 2 2 2 2 2 2 2 2 2 2 2 2 2 2 2 2
left_child=2 4 7 6 10 15 17 19 18 -6 -2 -8 -7 28 -9 -4 -15 -3 -5 -1 -13 -22 23 24 25 26 27 -20 -10 -18
right_child=1 3 5 8 9 12 11 14 13 -11 -12 20 -14 16 -16 -17 29 -19 22 -21 21 -23 -24 -25 -26 -27 -28 -29 -30 -31
leaf_value=-0.088383096456527754 0.23271640433648277 0.81158510950866614 0.013030880738831574 1.5925872998694852 0.45525145570746278 0.098020468883432382 1.1911004921963506 -0.047184484913258939 4.1343276341756185 0.62116969544156486 0.32660510822917826 2.8708579685377043 0.15462966779298795 1.9027811809822364 -0.015411484544248922 0.05465838318012145 3.9854727574398647 1.0011758408536244 1.5476867582487024 -0.073482611165664596 1.4979238857135933 2.2231688248483761 3.7283831914265955 1.9039395618708885 3.0058496875527467 3.719527816772461 1.5242254875693861 2.7622011475549066 5.414885330200196 2.9654320853097098
leaf_weight=797361 103063 11131 274130 219 38044 163398 4886 667952 126 27215 65968 46 153160 81 312066 225781 190 6542 92 845524 4062 152 39 353 243 52 239 341 70 112
leaf_count=797361 103063 11131 274130 219 38044 163398 4886 667952 126 27215 65968 46 153160 81 312066 225781 190 6542 92 845524 4062 152 39 353 243 52 239 341 70 112
internal_value=2.05308e-05 0.430722 -0.0329474 1.16096 0.34041 0.0681133 1.04246 -0.0644061 2.63429 0.524444 0.269358 1.35297 0.12541 3.702 -0.037067 0.0318316 3.24672 0.881766 2.24252 -0.0807144 1.53863 1.52408 2.34726 2.30645 2.45339 2.26796 2.15564 2.50415 4.59167 3.60718
internal_weight=3.70264e+06 263266 3.43937e+06 28976 234290 816469 26819 2.6229e+06 2157 65259 169031 9146 316558 579 980018 499911 383 17673 1578 1.64288e+06 4260 4214 1359 1320 967 724 672 433 196 302
internal_count=3702638 263266 3439372 28976 234290 816469 26819 2622903 2157 65259 169031 9146 316558 579 980018 499911 383 17673 1578 1642885 4260 4214 1359 1320 967 724 672 433 196 302
is_linear=0
shrinkage=0.1


Tree=19
num_leaves=31
num_cat=0
split_feature=5 5 5 5 5 5 5 11 5 5 5 6 17 5 5 5 28 6 18 25 13 3 5 6 5 6 1 24 27 1
split_gain=4.26696e+06 1.21925e+06 1.12695e+06 313223 273908 169783 127059 73083.4 52324 40072.6 33203 29608.7 22123.9 18169.4 14935.5 14440.7 11151.4 9491.03 11322.3 8700.72 8625.26 8382.82 8172.25 6975.7 6821.58 6585.55 11419.1 16493.7 8705.9 8084.71
threshold=21.050000000000004 64.750000000000014 7.4500000000000011 129.15000000000001 37.050000000000004 3.0500000000000003 13.550000000000002 0.71466676797886841 92.500000000000014 27.650000000000002 50.850000000000001 4.5000000000000009 3.7000000000000015 10.65 17.550000000000004 5.3500000000000005 2.9831502867222164 22.500000000000004 4.4703529411764711 6.6500000000000012 18.500000000000004 30.950000000000003 75.850000000000009 8.5000000000000018 41.95000000000001 18.500000000000004 27.450000000000003 8.7500000000000018 24.050000000000004 29.550000000000004
decision_type=2 2 2 2 2 2 2 2 2 2 2 2 2 2 2 2 2 2 2 2 2 2 2 2 2 2 2 2 2 2
left_child=2 4 5 8 9 11 13 19 22 -2 24 -1 20 23 -8 -7 -14 21 -19 -5 -9 -10 -3 -4 -6 29 27 -27 -29 -21
right_child=1 3 6 7 10 15 14 12 17 -11 -12 -13 16 -15 -16 -17 -18 18 -20 25 -22 -23 -24 -25 -26 26 -28 28 -30 -31
leaf_value=-0.074692092272923033 0.25871727991937055 0.90105825972024989 0.011180448372767701 1.4333285340435431 0.47905859251613925 -0.021228995725593895 0.13632613433686924 2.9743939911759139 1.1669860288650697 0.3716657490549149 0.71539362608876034 -0.04954658563503949 4.9284414079454208 0.088218422065289445 0.19091992999253737 0.0081303483156606095 3.5365502433909777 1.3528330306398491 1.8652767484359321 3.1048727679608472 1.6351026561898245 1.6318349106183192 1.0719904533234768 0.053422372474538266 0.57133620465617052 2.9418510107283899 0.95736082941293721 1.8229059547904989 3.3555449754763873 2.045822373414651
leaf_weight=1446435 82631 6542 47698 219 14670 454042 141793 149 1988 50675 13663 692448 72 163398 77500 265492 287 1066 724 134 71 482 4886 216699 17649 188 96 746 39 156
leaf_count=1446435 82631 6542 47698 219 14670 454042 141793 149 1988 50675 13663 692448 72 163398 77500 265492 287 1066 724 134 71 482 4886 216699 17649 188 96 746 39 156
internal_value=1.84775e-05 0.452707 -0.0254386 1.24099 0.374247 -0.0524157 0.0937291 2.37086 1.08564 0.301654 0.584701 -0.0665514 3.3318 0.062003 0.15562 -0.0103961 3.8157 1.38476 1.5601 2.01827 2.54217 1.2577 0.97414 0.0458018 0.52945 2.11253 1.99788 2.10054 1.89905 2.53518
internal_weight=3.70264e+06 197133 3.5055e+06 17845 179288 2.85842e+06 647088 2157 15688 133306 45982 2.13888e+06 579 427795 219293 719534 359 4260 1790 1578 220 2470 11428 264397 32319 1359 1069 973 785 290
internal_count=3702638 197133 3505505 17845 179288 2858417 647088 2157 15688 133306 45982 2138883 579 427795 219293 719534 359 4260 1790 1578 220 2470 11428 264397 32319 1359 1069 973 785 290
is_linear=0
shrinkage=0.1


Tree=20
num_leaves=31
num_cat=0
split_feature=5 5 5 5 5 5 5 11 5 5 5 5 6 16 5 5 21 5 6 11 27 24 17 28 22 3 24 0 13 16
split_gain=3.4509e+06 989175 888083 260748 206703 138626 96793.5 56311.2 50922 29541.6 27506.3 19216.5 16759 16669.5 13881.8 12430.5 10688.9 10611.1 8152.93 6942.52 7250.5 9514.46 6925.65 8062.93 10389.1 7812.05 15554.8 7134.43 6832.25 6825.76
threshold=20.650000000000002 60.800000000000004 7.4500000000000011 129.15000000000001 35.050000000000004 2.5500000000000003 13.350000000000003 0.71466676797886841 92.500000000000014 45.45000000000001 26.850000000000005 4.3500000000000005 3.5000000000000004 2.4000000000000008 9.9500000000000011 15.950000000000001 45.050000000000004 75.850000000000009 9.5000000000000018 -0.96683886033945943 16.550000000000008 7.0500000000000007 3.9999999999999987 3.3339870432574523 22.716666666666672 28.350000000000005 10.65 7.289404077261878 21.500000000000004 1.7000000000000013
decision_type=2 2 2 2 2 2 2 2 2 2 2 2 2 2 2 2 2 2 2 2 2 2 2 2 2 2 2 2 2 2
left_child=2 4 5 8 10 12 14 22 17 -6 -2 -7 -1 16 -4 -8 -9 -3 -13 -10 21 -21 23 24 27 -24 -27 -5 -18 -23
right_child=1 3 6 7 9 11 15 13 19 -11 -12 18 -14 -15 -16 -17 28 -19 -20 20 -22 29 25 -25 -26 26 -28 -29 -30 -31
leaf_value=-0.068334040160304116 0.22412534879124779 0.78347252993788197 0.037018680785964465 2.5872303782569039 0.43037715409145411 -0.028668890063420202 0.1116226360492953 4.3805526733398441 0.8535090778388229 0.58281765785294948 0.31787010830517232 -0.018041036521169399 -0.049120284543942114 1.5465806242445825 0.073485303001089589 0.1590900169208862 3.1104183020041543 0.96647769537173223 0.01099677885730848 1.0503067074841217 1.0805585651365044 1.8528266324324041 2.7552766115610838 2.2945179806479925 1.0282368254828287 1.2429665915171306 2.4031172503757108 1.6102488352327933 1.4932373046875 1.3943824591254694
leaf_weight=1300793 81927 9023 213051 90 29919 426826 104522 65 408 22105 50650 145704 697326 71 204672 116842 390 4883 287439 655 1168 411 131 158 286 210 257 441 28 1548
leaf_count=1300793 81927 9023 213051 90 29919 426826 104522 65 408 22105 50650 145704 697326 71 204672 116842 390 4883 287439 655 1168 411 131 158 286 210 257 441 28 1548
internal_value=1.46171e-05 0.398963 -0.0233511 1.06292 0.326226 -0.0471804 0.0832166 2.11028 0.939814 0.495149 0.25994 -0.0136102 -0.0616286 2.97729 0.0548863 0.136677 3.1876 0.847734 0.00122881 1.24542 1.28769 1.38025 1.80492 1.64059 1.51413 2.07285 1.88142 1.77584 3.00209 1.49056
internal_weight=3.702e+06 204824 3.49718e+06 20223 184601 2.85809e+06 639087 2127 18096 52024 132577 859969 1.99812e+06 554 417723 221364 483 13906 433143 4190 3782 2614 1573 975 817 598 467 531 418 1959
internal_count=3701999 204824 3497175 20223 184601 2858088 639087 2127 18096 52024 132577 859969 1998119 554 417723 221364 483 13906 433143 4190 3782 2614 1573 975 817 598 467 531 418 1959
is_linear=0
shrinkage=0.1


Tree=21
num_leaves=31
num_cat=0
split_feature=18 18 6 6 6 18 18 18 6 11 6 6 16 18 6 6 18 6 6 18 6 6 18 3 18 6 23 16 2 6
split_gain=1.88264e+06 927456 530424 426765 300014 179735 174151 98047.5 74775.2 68697 67066.7 42032.6 41450.4 31886.2 23809.1 23034.9 21824.8 20997.2 18702.3 17507.6 13139.6 12970 12955.3 14228.9 12584.6 11333.1 10139.7 10389.4 9178.81 9109.71
threshold=0.85100000000000009 2.7690000000000006 14.500000000000002 12.500000000000002 15.500000000000002 1.6537433155080217 4.4703529411764711 0.4770979020979022 8.5000000000000018 0.71466676797886841 6.5000000000000009 10.500000000000002 2.4000000000000008 1.2204166666666669 21.500000000000004 18.500000000000004 1.5930952380952383 21.500000000000004 20.500000000000004 0.4377976190476191 20.500000000000004 5.5000000000000009 4.4703529411764711 29.350000000000005 0.29354166666666676 20.500000000000004 26.046428571428574 4.0000000000000027 23.450000000000003 21.500000000000004
decision_type=2 2 2 2 2 2 2 2 2 2 2 2 2 2 2 2 2 2 2 2 2 2 2 2 2 2 2 2 2 2
left_child=3 2 8 10 11 13 17 24 21 18 -1 -3 28 20 -7 -9 -10 -6 26 -12 -4 -2 -13 -24 -5 -15 -8 -28 -11 -20
right_child=1 4 5 7 6 14 9 15 16 12 19 22 -14 25 -16 -17 -18 -19 29 -21 -22 -23 23 -25 -26 -27 27 -29 -30 -31
leaf_value=-0.057880989218481095 -0.035092324605161637 0.13303608481486637 0.15694816698908604 -0.0074898649881596727 0.66745247551748077 0.38687999114876037 0.99578734578904493 0.060397549317655244 0.084709785970349213 3.4196982004309215 -0.031669475795781069 0.42452856022875746 1.2205203302772591 0.24074527249502747 0.53621752113452403 0.11773692637341193 0.18053195529525254 0.91307696625790224 2.779825418037281 0.0024880022144526098 0.22956081964482228 0.02739708221862816 0.46415013566150976 1.1294884360693638 0.027704351334401939 0.33813422498369156 2.2809970062319973 1.2694641453682343 2.523854832215743 1.4954109428020625
leaf_weight=1769460 56226 6375 61974 202672 9219 27307 1908 151535 102705 186 535255 5005 223 26576 17529 130310 30927 5591 57 208512 41681 81156 677 612 203735 21710 119 692 297 1768
leaf_count=1769460 56226 6375 61974 202672 9219 27307 1908 151535 102705 186 535255 5005 223 26576 17529 130310 30927 5591 57 208512 41681 81156 677 612 203735 21710 119 692 297 1768
internal_value=1.31556e-05 0.180369 0.144363 -0.0281837 0.694999 0.26933 0.935608 0.0415851 0.0536274 1.43048 -0.04729 0.314022 2.34819 0.217413 0.445265 0.0869082 0.106886 0.760179 1.2879 -0.0220936 0.186147 0.00182219 0.497337 0.780044 0.0101533 0.284533 1.12169 1.41789 2.86884 1.53553
internal_weight=3.702e+06 500520 467791 3.20148e+06 32729 196777 20060 688252 271014 5250 2.51323e+06 12669 706 151941 44836 281845 133632 14810 4544 743767 103655 137382 6294 1289 406407 48286 2719 811 483 1825
internal_count=3701999 500520 467791 3201479 32729 196777 20060 688252 271014 5250 2513227 12669 706 151941 44836 281845 133632 14810 4544 743767 103655 137382 6294 1289 406407 48286 2719 811 483 1825
is_linear=0
shrinkage=0.1


Tree=22
num_leaves=31
num_cat=0
split_feature=5 5 5 5 5 5 5 5 11 5 5 17 5 5 5 6 4 5 5 23 26 27 16 25 24 6 22 20 26 6
split_gain=2.28509e+06 741501 482310 203647 138156 66949.4 62220.1 51795.9 36003 21231.5 14436.8 12913 12815.3 11892.7 9105.62 7918.22 6643.62 6361.41 5726.61 6604.59 5457.25 5385.21 8178.54 6291.95 5130.06 4821.26 4754.61 5278.63 5560.44 4650.04
threshold=18.150000000000002 53.95000000000001 6.2500000000000009 129.15000000000001 30.350000000000005 1.7500000000000002 11.850000000000003 83.550000000000011 0.71466676797886841 40.050000000000004 23.950000000000003 3.7000000000000015 3.7500000000000004 8.8500000000000032 64.750000000000014 10.500000000000002 27.000000000000004 14.65 102.70000000000002 21.578571428571433 11.13333333333334 25.692857142857147 1.0999999999999999 6.6500000000000012 7.1500000000000012 8.5000000000000018 21.850000000000001 27.250000000000004 6.533333333333335 9.5000000000000018
decision_type=2 2 2 2 2 2 2 2 2 2 2 2 2 2 2 2 2 2 2 2 2 2 2 2 2 2 2 2 2 2
left_child=2 4 5 7 10 16 13 14 21 -6 -2 20 -7 -4 -3 -8 -1 -17 -9 -20 -10 22 -5 -24 -13 -14 -25 28 -28 -15
right_child=1 3 6 8 9 12 15 18 11 -11 -12 24 25 29 -16 17 -18 -19 19 -21 -22 -23 23 26 -26 -27 27 -29 -30 -31
leaf_value=-0.059454077482223915 0.15697645360237067 0.54735590762816944 0.016127089241849833 0.86097796125319404 0.30387899673784324 -0.029668327494552105 0.055521531599274032 0.88194228954664367 2.6757551366632639 0.41873882270410123 0.21871057446159689 3.6005275726318362 -0.023515152905479817 0.018221530115846003 0.68723359364008429 0.084310979723991347 -0.046992243289897276 0.12029967451224505 1.8815999710198605 1.0442382103389072 1.5237880800993531 2.6523590087890625 1.0344521705043375 1.2592817875265165 2.6113150452335825 0.00032692823515418409 0.78860011100769045 0.34288322925567627 1.8565907705365086 0.055471424262089945
leaf_weight=798035 104764 9360 269247 206 40495 590226 48110 4370 55 26707 59336 65 119897 41981 9256 107505 922117 90431 99 1940 163 38 209 262 271 289865 52 26 780 166131
leaf_count=798035 104764 9360 269247 206 40495 590226 48110 4370 55 26707 59336 65 119897 41981 9256 107505 922117 90431 99 1940 163 38 209 262 271 289865 52 26 780 166131
internal_value=1.1839e-05 0.286789 -0.0215121 0.78116 0.228756 -0.040812 0.0510592 0.701318 1.72054 0.349526 0.179299 2.4138 -0.0202359 0.0300039 0.616904 0.0919089 -0.0527737 0.100753 0.946511 1.08489 1.81442 1.47638 1.44727 1.53815 2.80268 -0.0066493 1.63214 1.74599 1.78984 0.0479573
internal_weight=3.702e+06 258454 3.44354e+06 27152 231302 2.72014e+06 723405 25025 2127 67202 164100 554 999988 477359 18616 246046 1.72015e+06 197936 6409 2039 218 1573 1535 1329 336 409762 1120 858 832 208112
internal_count=3701999 258454 3443545 27152 231302 2720140 723405 25025 2127 67202 164100 554 999988 477359 18616 246046 1720152 197936 6409 2039 218 1573 1535 1329 336 409762 1120 858 832 208112
is_linear=0
shrinkage=0.1


Tree=23
num_leaves=31
num_cat=0
split_feature=5 5 5 5 5 5 5 5 11 5 17 5 5 5 5 5 5 11 27 24 16 5 28 26 26 27 16 25 28 18
split_gain=1.85135e+06 575611 420666 170146 92834.8 61340.8 52924.7 45542.9 29162.4 15871.4 10459.5 9937.87 9208.99 8926.29 8205.55 7932.97 6212.24 5373.12 5298 5429.49 6393.67 4717.8 4542.87 4420.37 4598.76 4362.02 6624.62 5096.48 5690.37 4271.84
threshold=18.950000000000003 52.45000000000001 6.6500000000000012 129.15000000000001 29.950000000000003 2.2500000000000004 12.450000000000001 75.850000000000009 0.71466676797886841 38.250000000000007 3.7000000000000015 92.500000000000014 8.9500000000000011 4.1500000000000012 24.650000000000002 0.15000000000000005 15.750000000000002 -0.96683886033945943 13.930952380952382 7.0500000000000007 1.9000000000000006 64.750000000000014 2.9831502867222164 11.13333333333334 17.100000000000051 25.692857142857147 1.0999999999999999 6.6500000000000012 1.9809776870881779 1.0020000000000002
decision_type=2 2 2 2 2 2 2 2 2 2 2 2 2 2 2 2 2 2 2 2 2 2 2 2 2 2 2 2 2 2
left_child=2 4 5 7 14 15 12 21 25 -6 23 -9 -4 -7 -2 -1 -8 -13 19 -19 -21 -3 -12 -10 -25 26 -5 -28 -29 -14
right_child=1 3 6 8 9 13 16 11 10 -11 22 17 29 -15 -16 -17 -18 18 -20 20 -22 -23 -24 24 -26 -27 27 28 -30 -31
leaf_value=-0.05293283652551492 0.1481678572127883 0.48668500808843124 0.016970563612647063 0.77488016144743244 0.26451033631709048 -0.022929164289006567 0.076784001705574395 0.70467576408347177 2.4081794877485798 0.36150432901836566 3.2661255576393824 0.5698285081807305 0.051820349587981811 -0.0025394630451747082 0.19920599890317969 -0.039976756103728958 0.1101597539722371 0.78964440906467148 0.80693680545612878 1.5732636127673405 1.0524696419199508 0.59335196839952931 2.3406160736083983 1.0333082875301098 2.2058712938998606 2.3871231079101562 0.93100696636729274 0.75296623081263936 1.5398878646537415 0.017039494452557959
leaf_weight=889976 93028 11177 226128 206 38057 491377 144231 4883 55 30304 66 408 188905 381333 47628 1007706 90925 597 1514 284 1387 6592 270 116 47 38 209 101 1019 43432
leaf_count=889976 93028 11177 226128 206 38057 491377 144231 4883 55 30304 66 408 188905 381333 47628 1007706 90925 597 1514 284 1387 6592 270 116 47 38 209 101 1019 43432
internal_value=1.06551e-05 0.269809 -0.0185252 0.687556 0.211911 -0.0359621 0.0511196 0.619335 1.54849 0.307507 2.17242 0.801623 0.0313365 -0.0140198 0.16545 -0.0460529 0.089689 0.914604 0.951799 1.0485 1.14098 0.526257 2.52241 1.63298 1.37141 1.32874 1.30254 1.38433 1.46892 0.0453186
internal_weight=3.702e+06 237986 3.46401e+06 28969 209017 2.77039e+06 693621 26842 2127 68361 554 9073 458465 872710 140656 1.89768e+06 235156 4190 3782 2268 1671 17769 336 218 163 1573 1535 1329 1120 232337
internal_count=3701999 237986 3464013 28969 209017 2770392 693621 26842 2127 68361 554 9073 458465 872710 140656 1897682 235156 4190 3782 2268 1671 17769 336 218 163 1573 1535 1329 1120 232337
is_linear=0
shrinkage=0.1


Tree=24
num_leaves=31
num_cat=0
split_feature=18 6 6 18 18 6 12 18 6 18 17 18 18 18 6 6 6 6 6 3 6 6 28 18 8 16 16 6 18 6
split_gain=985488 461559 403357 271709 121071 67139.6 66187.7 53108.4 44209 31779.7 27169.8 24886.3 19371 19346.6 19119.5 14066.8 12864.3 12403.4 12280.3 10649.3 10207.7 9292.37 9252.84 8643.95 7195.85 17208.8 9248.07 7106.53 6515.42 5986.45
threshold=1.271714285714286 14.500000000000002 13.500000000000002 3.2188235294117651 0.64472222222222231 7.5000000000000009 -0.69014782361074123 2.0955000000000004 10.500000000000002 4.4703529411764711 3.1000000000000001 0.54522727272727278 4.4703529411764711 0.35577777777777786 19.500000000000004 20.500000000000004 6.5000000000000009 22.500000000000004 22.500000000000004 29.350000000000005 19.500000000000004 4.5000000000000009 3.2600159261750652 0.90200000000000014 1.0000000180025095e-35 4.0000000000000027 5.2500000000000009 19.500000000000004 2.2404545454545457 21.500000000000004
decision_type=2 2 2 2 2 2 2 2 2 2 2 2 2 2 2 2 2 2 2 2 2 2 2 2 2 2 2 2 2 2
left_child=2 8 5 7 13 21 10 17 16 18 -5 -7 28 -4 -6 24 -2 -3 -8 -14 -9 -1 -12 -16 26 -26 -11 -15 -10 -17
right_child=1 3 4 6 14 11 9 20 12 15 22 -13 19 27 23 29 -18 -19 -20 -21 -22 -23 -24 -25 25 -27 -28 -29 -30 -31
leaf_value=-0.044658492960953096 -0.012727973314445598 0.21413718671073553 0.0037723573516552063 0.72673868988366697 0.085757177666297382 -0.016891710095790904 0.51510509059750442 0.3433221025864317 0.12960712233182306 0.40319460414091135 2.1545878339017559 0.023653390093990423 0.27276642981803784 0.031126507931472109 0.11789823258655632 2.162195031684742 0.06304444000371924 0.30634134388200662 0.78040018398626199 0.89547733418560382 0.47105374261520555 -0.0290345012101852 1.3332104186421818 0.17518051991953584 1.9782712986594753 0.83109374115100276 0.84993934166140672 0.066279377860207142 0.23981065514494523 1.1180219113497829
leaf_weight=1477850 37093 48443 235136 272 129825 541253 6449 11711 27534 777 468 210168 561 160431 60540 57 56588 20877 2392 538 13433 512735 194 46637 152 936 1148 89643 6663 1495
leaf_count=1477850 37093 48443 235136 272 129825 541253 6449 11711 27534 777 468 210168 561 160431 60540 57 56588 20877 2392 538 13433 512735 194 46637 152 936 1148 89643 6663 1495
internal_value=9.59015e-06 0.196944 -0.0135078 0.348635 0.0529803 -0.03102 0.754226 0.287064 0.0689789 0.697518 1.56816 -0.00555149 0.16436 0.024365 0.111564 0.911786 0.0330423 0.241906 0.586883 0.577606 0.411562 -0.0406341 1.91388 0.142824 0.785799 0.991361 0.669617 0.0437276 0.151079 1.15637
internal_weight=3.702e+06 237781 3.46422e+06 108804 722212 2.74201e+06 14340 94464 128977 13406 934 751421 35296 485210 237002 4565 93681 69320 8841 1099 25144 1.99058e+06 662 107177 3013 1088 1925 250074 34197 1552
internal_count=3701999 237781 3464218 108804 722212 2742006 14340 94464 128977 13406 934 751421 35296 485210 237002 4565 93681 69320 8841 1099 25144 1990585 662 107177 3013 1088 1925 250074 34197 1552
is_linear=0
shrinkage=0.1


Tree=25
num_leaves=31
num_cat=0
split_feature=5 5 5 5 5 5 5 11 5 5 5 5 17 5 5 22 19 24 3 2 23 1 11 27 27 5 26 5 25 23
split_gain=1.22613e+06 349629 324704 98560.4 69976.6 54089.8 34486.3 21246.7 18188.7 9907.68 9677.5 8624.03 7983.11 5536.59 4825.5 3958.74 6487.95 7402.11 4649.74 6786.91 3701.26 3684.37 3547.24 3924.11 4082.03 3446.09 3299.88 3134.35 3128.63 3056.97
threshold=21.050000000000004 60.800000000000004 7.7500000000000009 129.15000000000001 35.750000000000007 3.0500000000000003 14.15 0.71466676797886841 92.500000000000014 48.650000000000013 26.450000000000003 1.4500000000000002 3.7000000000000015 11.15 5.4500000000000011 25.31666666666667 23.650000000000002 8.7500000000000018 24.950000000000003 20.550000000000004 25.150000000000002 25.850000000000005 -0.96683886033945943 13.930952380952382 7.7000000000000028 71.350000000000009 11.13333333333334 16.950000000000003 11.750000000000002 21.578571428571433
decision_type=2 2 2 2 2 2 2 2 2 2 2 2 2 2 2 2 2 2 2 2 2 2 2 2 2 2 2 2 2 2
left_child=2 4 5 8 10 11 13 15 25 -6 -2 -1 26 -4 -7 16 17 -5 19 -19 -17 -14 -10 24 -24 -3 -9 -8 -22 -26
right_child=1 3 6 7 9 14 27 12 22 -11 -12 -13 21 -15 -16 20 -18 18 -20 -21 28 -23 23 -25 29 -27 -28 -29 -30 -31
leaf_value=-0.039492160421321774 0.1347608075259612 0.45410225965391382 0.027514857827296426 1.5907796870047302 0.26915008368878174 -0.010778050337088356 0.074893467970803179 1.9494995634434589 0.46115993299983682 0.3661443030863501 0.19006954615147731 -0.024817729317528625 2.469372568973879 0.051067046200043445 0.0058296214709295351 2.4579074859619143 0.48017942780540102 0.92135295812102869 0.60792832694836518 1.916119626934609 1.7302151974116531 1.8178908707960595 0.62484782760298319 0.64770966290946286 1.3669127622706778 0.55393402758916588 1.0707519132860246 0.10048770626633791 1.115876332152149 0.8927292250850013
leaf_weight=1604738 71956 6733 267482 227 33038 470856 98061 59 401 15459 56457 533672 147 159227 278398 27 210 299 268 89 107 212 569 1486 149 7108 155 93442 368 1553
leaf_count=1604738 71956 6733 267482 227 33038 470856 98061 59 401 15459 56457 533672 147 159227 278398 27 210 299 268 89 107 212 569 1486 149 7108 155 93442 368 1553
internal_value=-4.2891e-06 0.242698 -0.0136474 0.637193 0.197728 -0.0277287 0.0521259 1.27417 0.560468 0.300068 0.159077 -0.0358299 1.79647 0.0363034 -0.00460719 1.08654 0.97977 1.09859 0.928268 1.14953 1.319 2.08465 0.743877 0.774052 0.856723 0.505371 1.31302 0.0873819 1.25426 0.934241
internal_weight=3.70295e+06 197077 3.50588e+06 20167 176910 2.88766e+06 618212 2168 17999 48497 128413 2.13841e+06 573 426709 749254 1595 1093 883 656 388 502 359 4158 3757 2271 13841 214 191503 475 1702
internal_count=3702953 197077 3505876 20167 176910 2887664 618212 2168 17999 48497 128413 2138410 573 426709 749254 1595 1093 883 656 388 502 359 4158 3757 2271 13841 214 191503 475 1702
is_linear=0
shrinkage=0.1


Tree=26
num_leaves=31
num_cat=0
split_feature=5 5 5 5 5 5 6 5 11 5 6 6 16 6 5 5 5 21 5 1 22 19 19 26 26 17 12 25 6 13
split_gain=993326 333150 203659 96072.8 59999.1 31742.8 24884.7 23987 17209.8 9894.84 6924.34 6869.65 6666.28 5974.64 5485.2 5063.8 4681.74 4308.49 4299.9 3393.31 3206.58 5255.24 6387.95 4684.26 3194.25 3066.24 4536.15 4292.27 2985.01 2729.04
threshold=17.750000000000004 52.45000000000001 5.4500000000000011 129.15000000000001 29.250000000000004 10.750000000000002 5.5000000000000009 83.550000000000011 0.71466676797886841 40.050000000000004 10.500000000000002 11.500000000000002 2.4000000000000008 9.5000000000000018 3.2500000000000004 22.450000000000003 64.750000000000014 45.050000000000004 14.65 20.150000000000002 25.31666666666667 23.650000000000002 23.450000000000003 11.800000000000026 12.233333333333348 3.199999999999998 -0.69014782361074123 6.8500000000000005 19.500000000000004 21.500000000000004
decision_type=2 2 2 2 2 2 2 2 2 2 2 2 2 2 2 2 2 2 2 2 2 2 2 2 2 2 2 2 2 2
left_child=2 4 6 7 11 10 -1 16 20 -6 -4 -2 17 -7 -8 -13 -3 -10 -15 -9 21 22 23 28 -22 -21 -27 -28 -5 -19
right_child=1 3 5 8 9 13 14 19 12 -11 -12 15 -14 18 -16 -17 -18 29 -20 25 24 -23 -24 -25 -26 26 27 -29 -30 -31
leaf_value=-0.035727385672525216 0.064481330068579187 0.3575396175656157 -0.002275055362027894 0.55742022885692 0.19572656490869689 0.021480109507774375 -0.021436374572374631 1.4797899536464527 2.4514663696289065 0.27336560889253197 0.022077887704925973 0.10543195287722346 0.72415979267799691 0.051250362027765728 -0.0060053239986567232 0.14352958627403789 0.45405073281115399 1.6824413527971434 0.078621236850186738 0.5041387973522794 0.81316989430457731 0.432161480756033 1.8075314643771152 0.51020869145522252 1.3572679627459983 1.229447469290565 0.38846182384424743 0.68104353359600234 1.1561864670381767 0.51328444480895996
leaf_weight=1633288 24408 11068 177110 101 48185 46714 603357 46 74 24897 342614 80674 73 172895 372621 61473 9208 405 85918 1725 157 210 86 222 345 136 576 3872 474 21
leaf_count=1633288 24408 11068 177110 101 48185 46714 603357 46 74 24897 342614 80674 73 172895 372621 61473 9208 405 85918 1725 157 210 86 222 345 136 576 3872 474 21
internal_value=-3.86021e-06 0.185257 -0.0144836 0.506614 0.146637 0.0288162 -0.0281783 0.454501 1.14675 0.222176 0.013779 0.113492 1.61682 0.0543956 -0.0155449 0.121908 0.401368 1.74715 0.0603367 0.624023 0.977884 0.881793 0.988727 0.900374 1.1871 0.617784 0.66055 0.643155 1.05101 1.62481
internal_weight=3.70295e+06 268436 3.43452e+06 28799 239637 825251 2.60927e+06 26631 2168 73082 519724 166555 573 305527 975978 142147 20276 500 258813 6355 1595 1093 883 797 502 6309 4584 4448 575 426
internal_count=3702953 268436 3434517 28799 239637 825251 2609266 26631 2168 73082 519724 166555 573 305527 975978 142147 20276 500 258813 6355 1595 1093 883 797 502 6309 4584 4448 575 426
is_linear=0
shrinkage=0.1


Tree=27
num_leaves=31
num_cat=0
split_feature=6 18 18 18 18 6 6 18 18 11 18 28 18 6 18 6 6 6 6 17 1 23 1 2 18 20 20 10 6 1
split_gain=522382 429607 109595 90099.8 85247.3 40291.6 30579 27186.9 23663.8 22561.5 13282 11585.6 11367.7 8773.18 7643.23 6946.17 6593.67 5781.34 5438.12 5307.54 6007.87 4918.69 4963.94 4703.06 4678.32 4531.22 5358.18 4606.73 4064.59 3681.47
threshold=15.500000000000002 1.6537433155080217 4.4703529411764711 0.75250626566416046 0.75895721925133697 9.5000000000000018 8.5000000000000018 2.7690000000000006 1.7267857142857144 0.71466676797886841 0.44188596491228077 2.8243462541691211 1.167543859649123 5.5000000000000009 3.5854166666666671 21.500000000000004 20.500000000000004 1.5000000000000002 21.500000000000004 4.6000000000000005 27.950000000000003 26.046428571428574 27.750000000000004 23.450000000000003 0.34045454545454551 24.550000000000004 24.450000000000003 0.93301270189221952 21.500000000000004 29.050000000000004
decision_type=2 2 2 2 2 2 2 2 2 2 2 2 2 2 2 2 2 2 2 2 2 2 2 2 2 2 2 2 2 2
left_child=3 4 7 6 10 13 17 18 -7 16 -2 -11 28 -5 -10 -9 21 -1 -3 -16 -21 25 -23 -13 -8 26 27 -4 -6 -27
right_child=1 2 9 5 12 8 24 15 14 11 -12 23 -14 -15 19 -17 -18 -19 -20 20 -22 22 -24 -25 -26 29 -28 -29 -30 -31
leaf_value=-0.035126157865801089 0.013848635963006339 0.21957114290564272 0.57444013111833214 -0.028619364039997253 0.084342725262402066 0.048449789933546976 -0.012103542199379499 0.35750047962153819 0.13044759681870327 0.56367732193655595 0.049884253176661709 1.8925599088946594 0.1530647454251404 0.014567234327221954 0.15969413578429301 0.4992879662496581 0.83689476270971253 -0.024478503526256704 0.29395905029056407 0.8195574758114752 0.32854024304283991 1.4404085159301758 0.70286171519260332 1.2887186264646227 0.0050919002134267415 0.18877277740725765 2.076390075683594 1.5593488581040327 0.12293612036064844 0.54714207576066498
leaf_weight=988316 217506 22498 690 71474 80320 134199 364655 9127 25791 167 193077 206 52677 137593 1472 5560 1831 1053535 17450 308 1305 105 697 345 279488 540 27 51 41332 611
leaf_count=988316 217506 22498 690 71474 80320 134199 364655 9127 25791 167 193077 206 52677 137593 1472 5560 1831 1053535 17450 308 1305 105 697 345 279488 540 27 51 41332 611
internal_value=-3.47363e-06 0.0817922 0.336846 -0.0172503 0.0556704 0.0288635 -0.0236394 0.294837 0.06612 0.772352 0.0307944 1.29333 0.114259 -0.000197023 0.148241 0.411176 0.690177 -0.0296323 0.252065 0.296998 0.422299 0.591449 0.799423 1.51447 -0.00464259 0.504531 0.692647 0.642227 0.0974551 0.379011
internal_weight=3.70295e+06 644817 59905 3.05814e+06 584912 372142 2.68599e+06 54635 163075 5270 410583 718 174329 209067 28876 14687 4552 2.04185e+06 39948 3085 1613 2721 802 551 644143 1919 768 741 121652 1151
internal_count=3702953 644817 59905 3058136 584912 372142 2685994 54635 163075 5270 410583 718 174329 209067 28876 14687 4552 2041851 39948 3085 1613 2721 802 551 644143 1919 768 741 121652 1151
is_linear=0
shrinkage=0.1


Tree=28
num_leaves=31
num_cat=0
split_feature=5 5 5 5 5 6 5 5 11 5 17 6 5 5 6 5 5 6 17 6 2 28 22 19 19 27 28 6 6 5
split_gain=659104 187341 176108 58017.9 30868.4 30540.9 18383.3 13248.8 11273.7 6610.81 5305.21 4802.88 4595.11 4011.06 3826.98 3688.13 3187.61 2852.98 3660.46 3182.63 3029.3 2726.02 2359.12 4068.66 5190.03 4740.25 5047.86 2636.67 2290.43 2260.3
threshold=21.050000000000004 56.050000000000004 7.8500000000000005 129.15000000000001 33.750000000000007 7.5000000000000009 12.950000000000001 92.500000000000014 0.71466676797886841 3.9500000000000006 3.7000000000000015 12.500000000000002 46.750000000000007 1.0000000180025095e-35 11.500000000000002 26.450000000000003 71.350000000000009 22.500000000000004 3.4000000000000008 18.500000000000004 21.250000000000004 2.9831502867222164 25.31666666666667 23.650000000000002 23.450000000000003 10.121428571428572 1.9809776870881779 16.500000000000004 16.500000000000004 16.550000000000004
decision_type=2 2 2 2 2 2 2 2 2 2 2 2 2 2 2 2 2 2 2 2 2 2 2 2 2 2 2 2 2 2
left_child=2 4 5 7 15 13 14 16 22 -7 -10 -8 -6 -1 -4 -2 -3 18 -9 20 -20 -12 23 24 25 26 -5 -28 -24 -13
right_child=1 3 6 8 12 9 11 17 10 -11 21 29 -14 -15 -16 -17 -18 -19 19 -21 -22 -23 28 -25 -26 -27 27 -29 -30 -31
leaf_value=-0.032714962959289551 0.098898347715398696 0.31838321326556357 0.0093189102135682201 0.48004675768315797 0.18611431326255534 -0.013230841698088892 0.036452006815888116 0.19383718052584875 0.91640036707726602 0.0038354283736038598 2.0771803906089383 0.058083568185258949 0.25113573571992304 -0.02354932450278617 0.031465758791251151 0.13461326850241551 0.40403947172058596 0.64627800790097956 0.29756570505468466 0.40645060479581896 0.74061184408020797 1.4026342786243022 1.8687509536743165 0.31532328597136905 1.5430887943090397 0.40640849678390689 0.51278376579284668 1.2719483950558832 0.92189909013948945 0.080380775406243221
leaf_weight=797662 71956 11175 114495 176 36740 476896 65322 380 214 433110 76 102072 15435 1189390 244952 48337 7108 1757 190 1009 822 283 27 210 86 294 55 272 475 81977
leaf_count=797662 71956 11175 114495 176 36740 476896 65322 380 214 433110 76 102072 15435 1189390 244952 48337 7108 1757 190 1009 822 283 27 210 86 294 55 272 475 81977
internal_value=-3.12647e-06 0.177941 -0.0100059 0.436051 0.141112 -0.0202804 0.0388848 0.388327 0.93005 -0.00510829 1.31051 0.0597471 0.20535 -0.0272287 0.0244113 0.11325 0.351684 0.549446 0.478587 0.532127 0.657431 1.54544 0.793371 0.710951 0.805041 0.725402 0.911851 1.14426 0.972825 0.0680149
internal_weight=3.70295e+06 197077 3.50588e+06 24609 172468 2.89706e+06 608818 22441 2168 910006 573 249371 52175 1.98705e+06 359447 120293 18283 4158 2401 2021 1012 359 1595 1093 883 797 503 327 502 184049
internal_count=3702953 197077 3505876 24609 172468 2897058 608818 22441 2168 910006 573 249371 52175 1987052 359447 120293 18283 4158 2401 2021 1012 359 1595 1093 883 797 503 327 502 184049
is_linear=0
shrinkage=0.1


Tree=29
num_leaves=31
num_cat=0
split_feature=5 5 5 5 5 5 6 5 11 6 5 16 6 5 6 18 5 6 16 2 1 1 0 25 10 3 6 3 25 25
split_gain=534029 178756 109989 50871.6 32454.6 16927.1 13933.3 12947.1 9131.69 5414.64 4981.35 4323.13 4143.22 3147.91 3007.54 3105.18 2923.55 2868.3 2788.66 2510.08 2975.4 2439.81 2200.74 2281.84 3153.21 2735.01 2041.16 1836 3831.95 2939.94
threshold=17.750000000000004 52.45000000000001 5.5500000000000007 129.15000000000001 29.550000000000004 11.950000000000001 5.5000000000000009 83.550000000000011 0.71466676797886841 14.500000000000002 41.45000000000001 2.4000000000000008 11.500000000000002 3.0500000000000003 18.500000000000004 2.9763888888888892 22.450000000000003 7.5000000000000009 6.1999999999999984 23.450000000000003 25.850000000000005 20.150000000000002 24.157428683632052 9.6500000000000004 0.93301270189221952 24.350000000000005 6.5000000000000009 27.450000000000003 6.1500000000000012 7.1500000000000012
decision_type=2 2 2 2 2 2 2 2 2 2 2 2 2 2 2 2 2 2 2 2 2 2 2 2 2 2 2 2 2 2
left_child=2 4 6 7 12 9 -1 14 22 26 -6 19 -2 -8 18 -16 -14 -7 -3 -10 -21 -9 23 25 -25 -5 -4 -23 -29 -30
right_child=1 3 5 8 10 17 13 21 11 -11 -12 -13 16 -15 15 -17 -18 -19 -20 20 -22 27 -24 24 -26 -27 -28 28 29 -31
leaf_value=-0.026246730737147013 0.045852000900244938 0.17463129736075317 -0.013501041768198533 0.96137678338991894 0.146494278151521 0.0042079724060013575 -0.016184023592938225 1.1834937385890796 1.5520804798718795 0.023538331172590091 0.20370606643812039 0.46059472609872687 0.077574820466780867 -0.0048109866540267431 0.28796434098452633 0.38872152350092176 0.10624038289217125 0.047606877988036082 0.31279666366111969 0.029833221435546876 1.19170672805221 0.38878031142965014 0.5565167742340188 1.0012440969128933 0.24324274900995319 0.42851038812694697 0.0075754500653760605 1.2056541804087659 0.14830561851868865 0.50780785784600002
leaf_weight=1633783 24645 3371 55143 151 48489 16398 556184 46 206 251100 22180 73 80674 432716 9901 4426 63649 213589 2578 24 270 2631 570 547 61 266 275604 75 244 3359
leaf_count=1633783 24645 3371 55143 151 48489 16398 556184 46 206 251100 22180 73 80674 432716 9901 4426 63649 213589 2578 24 270 2631 570 547 61 266 275604 75 244 3359
internal_value=-2.81377e-06 0.135835 -0.0106197 0.37123 0.107546 0.0215452 -0.0205761 0.333309 0.837045 0.0124669 0.164451 1.17946 0.083746 -0.0112075 0.294273 0.319091 0.0902168 0.0445125 0.234505 1.28441 1.09686 0.457853 0.714034 0.801629 0.925195 0.621467 0.00406152 0.452563 0.498188 0.483462
internal_weight=3.70295e+06 268436 3.43452e+06 28799 239637 811834 2.62268e+06 26631 2168 581847 70669 573 168968 988900 20276 14327 144323 229987 5949 500 294 6355 1595 1025 608 417 330747 6309 3678 3603
internal_count=3702953 268436 3434517 28799 239637 811834 2622683 26631 2168 581847 70669 573 168968 988900 20276 14327 144323 229987 5949 500 294 6355 1595 1025 608 417 330747 6309 3678 3603
is_linear=0
shrinkage=0.1


Tree=30
num_leaves=31
num_cat=0
split_feature=5 5 5 5 5 6 5 5 11 17 5 6 6 5 5 11 18 17 6 2 19 22 17 17 16 28 23 21 28 2
split_gain=433096 122101 117230 33641.7 25622.7 20823.6 11907.1 7001.3 6550.26 4419.62 3982.85 3916.57 3469.23 3309.78 2821.95 2414.43 2368.5 2177.52 2652.47 2626.17 2818.42 2795.4 2398.38 2163.49 2790.91 2181.39 2388.15 2704.45 1996.11 1952.75
threshold=21.050000000000004 60.800000000000004 7.9500000000000011 129.15000000000001 37.050000000000004 8.5000000000000018 14.65 92.500000000000014 0.71466676797886841 3.7000000000000015 28.150000000000002 3.5000000000000004 11.500000000000002 4.1500000000000012 46.750000000000007 -0.96683886033945943 1.9020000000000004 3.0500000000000012 23.500000000000004 22.550000000000004 23.050000000000004 25.050000000000004 2.3500000000000019 2.4999999999999987 1.4000000000000006 1.9809776870881779 26.907142857142862 9.1500000000000004 2.9831502867222164 24.350000000000005
decision_type=2 2 2 2 2 2 2 2 2 2 2 2 2 2 2 2 2 2 2 2 2 2 2 2 2 2 2 2 2 2
left_child=2 4 5 7 10 11 12 -3 23 -10 -2 -1 -4 -7 -6 -9 -8 18 -17 20 -19 -21 -20 -5 -25 -26 27 -27 -11 -29
right_child=1 3 6 8 14 13 16 15 9 28 -12 -13 -14 -15 -16 17 -18 19 22 21 -22 -23 -24 24 25 26 -28 29 -30 -31
leaf_value=-0.024856550175711343 0.083238640762972785 0.29843971611030573 0.0096967601855409095 1.1411288364824042 0.1609083394089017 -0.0088338633510060879 0.057572286032465482 0.21657798636133654 0.69266965629761679 1.7150558446248372 0.11948123791662786 -0.016031658249416783 0.029251558239240163 0.004255489128241312 0.21199347808975844 0.089335816408846497 0.0093630195697128622 0.64301387260751586 0.68475788948752669 1.0417086523889707 0.35314041591025525 0.57675090212292146 0.32008760851018758 0.27950166157354112 0.33919957205653195 1.126157871379128 -0.30887465910478074 0.61599278295705773 1.1341614062232632 1.0096483008066814
leaf_weight=1323307 86845 13858 130669 83 23717 389681 160033 411 228 75 46588 811187 296787 383096 19875 283 10884 479 275 151 1119 900 524 211 171 158 22 788 280 150
leaf_count=1323307 86845 13858 130669 83 23717 389681 160033 411 228 75 46588 811187 296787 383096 19875 283 10884 479 275 151 1119 900 524 211 171 158 22 788 280 150
internal_value=-3.0761e-06 0.144197 -0.00811427 0.377341 0.117638 -0.0164105 0.0321938 0.332536 0.749678 1.03623 0.0958927 -0.0215028 0.0232739 -0.00234496 0.1842 0.446613 0.0545023 0.471953 0.352418 0.520778 0.44003 0.643553 0.4456 0.644143 0.616643 0.671831 0.722708 0.743415 1.25689 0.678944
internal_weight=3.70284e+06 197191 3.50564e+06 20166 177025 2.90727e+06 598373 18000 2166 583 133433 2.13449e+06 427456 772777 43592 4142 170917 3731 1082 2649 1598 1051 799 1583 1500 1289 1118 1096 355 938
internal_count=3702835 197191 3505644 20166 177025 2907271 598373 18000 2166 583 133433 2134494 427456 772777 43592 4142 170917 3731 1082 2649 1598 1051 799 1583 1500 1289 1118 1096 355 938
is_linear=0
shrinkage=0.1


Tree=31
num_leaves=31
num_cat=0
split_feature=5 5 5 5 5 5 5 11 5 6 18 1 17 6 5 17 17 15 18 16 25 5 13 6 6 16 15 1 16 11
split_gain=351813 123650 65087 34626 22236.4 10194.1 9018.55 7901.95 5577.13 3513.02 3497.63 3851.88 5413.64 3067.8 2962.25 2677.28 3055.61 2503.18 2481.24 2449.06 3691.71 2394.91 2210.88 2201.6 2169.41 2024.9 3148.19 1989.31 1674.88 1667.67
threshold=16.550000000000004 50.850000000000001 5.4500000000000011 102.70000000000002 29.250000000000004 9.0500000000000025 1.5500000000000003 0.71466676797886841 71.350000000000009 11.500000000000002 4.4703529411764711 27.350000000000005 5.3500000000000023 16.500000000000004 37.050000000000004 4.1000000000000005 2.4999999999999987 16.500000000000004 4.4703529411764711 2.4000000000000008 13.750000000000002 22.250000000000004 21.500000000000004 10.500000000000002 16.500000000000004 1.7000000000000013 10.500000000000002 28.950000000000003 4.6499999999999995 -0.94697898371965705
decision_type=2 2 2 2 2 2 2 2 2 2 2 2 2 2 2 2 2 2 2 2 2 2 2 2 2 2 2 2 2 2
left_child=2 4 6 8 9 24 -1 10 18 28 -5 15 -13 27 -6 16 -12 25 -3 20 22 -11 -9 -8 -4 26 -18 -7 -2 -10
right_child=1 3 5 7 14 13 23 19 29 21 11 12 -14 -15 -16 -17 17 -19 -20 -21 -22 -23 -24 -25 -26 -27 -28 -29 -30 -31
leaf_value=-0.021305294371880449 -0.03166166980432563 0.22279137746311109 0.00011254939234958369 0.1830433596740477 0.11111104909164526 0.010802527407256039 -0.012757987223999926 1.1381105746064231 0.40816095771524474 0.06095855852077782 0.89613820862125704 0.22417044268407366 0.76210789265839951 0.03717295916577934 0.15220579613362095 0.82930568057411136 0.51904189281576263 0.32975055046861979 -0.061695145815610891 0.4005251655873564 0.50251637754769163 0.085557900672076526 0.22091129379613059 -0.0028479594698544502 0.016836725001584365 0.46293775176664576 1.0524895001430901 0.029818325609949112 0.04223009828297538 0.29438982258975094
leaf_weight=1643108 3436 17651 290466 320 38289 120921 612218 428 1547 102512 222 718 253 174618 32370 424 254 556 312 97 145 64465 28 353684 105819 530 196 100935 28606 7707
leaf_count=1643108 3436 17651 290466 320 38289 120921 612218 428 1547 102512 222 718 253 174618 32370 424 254 556 312 97 145 64465 28 353684 105819 530 196 100935 28606 7707
internal_value=-2.76845e-06 0.103609 -0.00917272 0.291458 0.0817455 0.0159208 -0.0167975 0.559757 0.250341 0.0646356 0.498051 0.530022 0.364333 0.0272579 0.129937 0.603754 0.549355 0.499234 0.21785 0.86678 0.942033 0.0704557 1.08179 -0.00912924 0.00457836 0.595389 0.751388 0.0194539 0.0343064 0.313409
internal_weight=3.70284e+06 301066 3.40177e+06 31388 269678 792759 2.60901e+06 4171 27217 199019 3473 3153 971 396474 70659 2182 1758 1536 17963 698 601 166977 456 965902 396285 980 450 221856 32042 9254
internal_count=3702835 301066 3401769 31388 269678 792759 2609010 4171 27217 199019 3473 3153 971 396474 70659 2182 1758 1536 17963 698 601 166977 456 965902 396285 980 450 221856 32042 9254
is_linear=0
shrinkage=0.1


Tree=32
num_leaves=31
num_cat=0
split_feature=5 5 5 5 5 5 11 6 5 6 24 16 18 6 6 5 5 25 6 18 23 6 11 8 3 23 15 22 5 12
split_gain=285533 103621 49329.4 28047 19548 9358.26 6400.58 5343.36 4517.47 3086.46 2997.05 2993.22 2833.08 2486.88 2422.12 2398.78 2297.33 2294.99 2215.5 2009.8 1856.44 3648.17 4067.13 3079.06 2479.5 3234.75 1992.93 1685.97 1615.27 1442.02
threshold=15.850000000000003 50.850000000000001 4.5500000000000007 102.70000000000002 29.250000000000004 8.9500000000000011 0.71466676797886841 5.5000000000000009 71.350000000000009 10.500000000000002 9.1500000000000004 1.5499999999999992 4.4703529411764711 14.500000000000002 7.5000000000000009 21.050000000000004 39.150000000000013 22.150000000000002 11.500000000000002 4.4703529411764711 23.535714285714292 17.500000000000004 -0.71466676797886819 1.0000000180025095e-35 29.850000000000005 23.907142857142862 17.500000000000004 23.450000000000006 12.350000000000003 0.31717953954346351
decision_type=2 2 2 2 2 2 2 2 2 2 2 2 2 2 2 2 2 2 2 2 2 2 2 2 2 2 2 2 2 2
left_child=2 4 7 8 9 18 12 -1 19 -2 -8 -12 -5 -6 -7 -11 -15 20 -4 -3 23 22 -22 -14 25 -23 -25 -27 -16 -10
right_child=1 3 5 6 13 14 10 -9 29 15 11 -13 17 16 28 -17 -18 -19 -20 -21 21 24 -24 26 -26 27 -28 -29 -30 -31
leaf_value=-0.019318390291929253 0.026391413407477485 0.20051223898424145 -0.004547386907356908 0.16473902800935322 0.069681517635141924 -0.0021362332914450399 1.1152888955229923 -0.0095140041059210353 0.34301246451939266 0.051335620371907378 0.86849808304022391 0.37822504952349473 0.42109753935746269 0.10982577225332801 0.020078217347666374 0.073824806115118602 0.15023105920041058 0.79559244454189504 0.0084527115231201044 -0.055525629680890302 0.73946589244199978 0.054968343783790868 0.073519425015700496 0.90016492439319407 0.052867869620843957 0.9595795534207272 0.33155476737332035 0.43009890936945211 0.033970821434581036 0.25649939161632268
leaf_weight=1620036 29423 17651 235821 320 9618 34301 193 846232 2735 108531 282 223 571 39038 206105 84244 22003 211 295188 312 469 240 114 309 293 65 77 804 140907 6519
leaf_count=1620036 29423 17651 235821 320 9618 34301 193 846232 2735 108531 282 223 571 39038 206105 84244 22003 211 295188 312 469 240 114 309 293 65 77 804 140907 6519
